{"learner":{"attributes":{"scikit_learn":"{\"_estimator_type\": \"classifier\"}"},"feature_names":["hour","minute","day_of_week","is_weekend","hour_sin","hour_cos","minute_sin","minute_cos","day_sin","day_cos","month","month_sin","month_cos","arrivals_t_minus_1","arrivals_t_minus_2","arrivals_t_minus_3","arrivals_1h_ago","arrivals_24h_ago","arrivals_48h_ago","arrivals_1w_ago","departures_t_minus_1","departures_t_minus_2","departures_t_minus_3","departures_1h_ago","departures_24h_ago","departures_48h_ago","departures_1w_ago","energy_t_minus_1","energy_t_minus_2","energy_t_minus_3","energy_1h_ago","energy_24h_ago","energy_48h_ago","energy_1w_ago"],"feature_types":["int","int","int","int","float","float","float","float","float","float","int","float","float","float","float","float","float","float","float","float","float","float","float","float","float","float","float","float","float","float","float","float","float","float"],"gradient_booster":{"model":{"gbtree_model_param":{"num_parallel_tree":"1","num_trees":"400"},"iteration_indptr":[0,1,2,3,4,5,6,7,8,9,10,11,12,13,14,15,16,17,18,19,20,21,22,23,24,25,26,27,28,29,30,31,32,33,34,35,36,37,38,39,40,41,42,43,44,45,46,47,48,49,50,51,52,53,54,55,56,57,58,59,60,61,62,63,64,65,66,67,68,69,70,71,72,73,74,75,76,77,78,79,80,81,82,83,84,85,86,87,88,89,90,91,92,93,94,95,96,97,98,99,100,101,102,103,104,105,106,107,108,109,110,111,112,113,114,115,116,117,118,119,120,121,122,123,124,125,126,127,128,129,130,131,132,133,134,135,136,137,138,139,140,141,142,143,144,145,146,147,148,149,150,151,152,153,154,155,156,157,158,159,160,161,162,163,164,165,166,167,168,169,170,171,172,173,174,175,176,177,178,179,180,181,182,183,184,185,186,187,188,189,190,191,192,193,194,195,196,197,198,199,200,201,202,203,204,205,206,207,208,209,210,211,212,213,214,215,216,217,218,219,220,221,222,223,224,225,226,227,228,229,230,231,232,233,234,235,236,237,238,239,240,241,242,243,244,245,246,247,248,249,250,251,252,253,254,255,256,257,258,259,260,261,262,263,264,265,266,267,268,269,270,271,272,273,274,275,276,277,278,279,280,281,282,283,284,285,286,287,288,289,290,291,292,293,294,295,296,297,298,299,300,301,302,303,304,305,306,307,308,309,310,311,312,313,314,315,316,317,318,319,320,321,322,323,324,325,326,327,328,329,330,331,332,333,334,335,336,337,338,339,340,341,342,343,344,345,346,347,348,349,350,351,352,353,354,355,356,357,358,359,360,361,362,363,364,365,366,367,368,369,370,371,372,373,374,375,376,377,378,379,380,381,382,383,384,385,386,387,388,389,390,391,392,393,394,395,396,397,398,399,400],"tree_info":[0,0,0,0,0,0,0,0,0,0,0,0,0,0,0,0,0,0,0,0,0,0,0,0,0,0,0,0,0,0,0,0,0,0,0,0,0,0,0,0,0,0,0,0,0,0,0,0,0,0,0,0,0,0,0,0,0,0,0,0,0,0,0,0,0,0,0,0,0,0,0,0,0,0,0,0,0,0,0,0,0,0,0,0,0,0,0,0,0,0,0,0,0,0,0,0,0,0,0,0,0,0,0,0,0,0,0,0,0,0,0,0,0,0,0,0,0,0,0,0,0,0,0,0,0,0,0,0,0,0,0,0,0,0,0,0,0,0,0,0,0,0,0,0,0,0,0,0,0,0,0,0,0,0,0,0,0,0,0,0,0,0,0,0,0,0,0,0,0,0,0,0,0,0,0,0,0,0,0,0,0,0,0,0,0,0,0,0,0,0,0,0,0,0,0,0,0,0,0,0,0,0,0,0,0,0,0,0,0,0,0,0,0,0,0,0,0,0,0,0,0,0,0,0,0,0,0,0,0,0,0,0,0,0,0,0,0,0,0,0,0,0,0,0,0,0,0,0,0,0,0,0,0,0,0,0,0,0,0,0,0,0,0,0,0,0,0,0,0,0,0,0,0,0,0,0,0,0,0,0,0,0,0,0,0,0,0,0,0,0,0,0,0,0,0,0,0,0,0,0,0,0,0,0,0,0,0,0,0,0,0,0,0,0,0,0,0,0,0,0,0,0,0,0,0,0,0,0,0,0,0,0,0,0,0,0,0,0,0,0,0,0,0,0,0,0,0,0,0,0,0,0,0,0,0,0,0,0,0,0,0,0,0,0,0,0,0,0,0,0,0,0,0,0,0,0,0,0,0,0,0,0,0,0,0,0,0,0,0,0,0,0,0,0,0,0,0,0,0,0],"trees":[{"base_weights":[-2.7175003E-3,5.403901E-1,-1.4233009E0,7.6963127E-1,-5.9202653E-1,-8.433511E-1,-1.8670527E0,1.3368144E0,4.0528214E-1,-1.9056834E0,-4.426353E-1,-3.726479E-1,-1.0415775E0,-1.8804237E0,8.7949646E-1,7.901979E-1,1.4700712E0,4.635165E-1,1.2807798E-1,-1.6476573E0,-9.9561885E-2,-7.7247113E-1,-2.831277E-1,-4.0366498E-1,1.1612629E0,-1.0639822E0,2.0821793E-1,-1.7173023E0,-1.9493228E0,1.3988228E0,-7.5E-2,-1.31992465E-2,7.803039E-2,8.2498826E-2,5.4469932E-2,2.5078237E-2,1.3215918E-3,2.7099261E-2,-6.1854413E-3,-9.754601E-2,-6.621644E-2,-5.1142663E-2,-1.0462602E-2,-1.717518E-2,3.95449E-2,-2.27585E-2,3.0617718E-2,8.081109E-2,-6.923077E-2,-4.2658478E-2,-5.9002843E-2,3.6484245E-2,-8.7878786E-2,-7.364201E-2,-9.027438E-2,-9.99135E-2,-9.560779E-2,8.374938E-2,-5.555556E-2],"categories":[],"categories_nodes":[],"categories_segments":[],"categories_sizes":[],"default_left":[0,0,0,0,0,0,0,0,0,0,0,0,0,0,0,0,0,0,0,0,0,0,0,0,0,0,0,0,0,0,0,0,0,0,0,0,0,0,0,0,0,0,0,0,0,0,0,0,0,0,0,0,0,0,0,0,0,0,0],"id":0,"left_children":[1,3,5,7,9,11,13,15,17,19,21,23,25,27,29,31,33,35,37,39,-1,41,43,45,47,49,51,53,55,57,-1,-1,-1,-1,-1,-1,-1,-1,-1,-1,-1,-1,-1,-1,-1,-1,-1,-1,-1,-1,-1,-1,-1,-1,-1,-1,-1,-1,-1],"loss_changes":[1.9267074E4,4.6902715E3,1.7759131E3,3.1043662E3,5.9614954E2,2.7913354E2,1.4532031E2,4.2686133E2,1.4764062E2,3.569458E0,1.4355255E2,4.2779457E1,5.92334E1,4.040918E1,2.6360699E1,9.375615E2,3.2167676E2,1.2572449E2,1.6575128E2,5.561371E0,0E0,1.25319275E2,1.1981554E2,4.593242E1,2.2952383E1,4.9658447E1,4.018596E1,2.244629E1,1.1445312E0,1.3391064E1,0E0,0E0,0E0,0E0,0E0,0E0,0E0,0E0,0E0,0E0,0E0,0E0,0E0,0E0,0E0,0E0,0E0,0E0,0E0,0E0,0E0,0E0,0E0,0E0,0E0,0E0,0E0,0E0,0E0],"parents":[2147483647,0,0,1,1,2,2,3,3,4,4,5,5,6,6,7,7,8,8,9,9,10,10,11,11,12,12,13,13,14,14,15,15,16,16,17,17,18,18,19,19,21,21,22,22,23,23,24,24,25,25,26,26,27,27,28,28,29,29],"right_children":[2,4,6,8,10,12,14,16,18,20,22,24,26,28,30,32,34,36,38,40,-1,42,44,46,48,50,52,54,56,58,-1,-1,-1,-1,-1,-1,-1,-1,-1,-1,-1,-1,-1,-1,-1,-1,-1,-1,-1,-1,-1,-1,-1,-1,-1,-1,-1,-1,-1],"split_conditions":[2.5881904E-1,5E0,-2.5881904E-1,9E0,8E0,2E1,2.21E1,7E0,4E0,-1.8369701E-16,1.2E1,5.48E1,1E0,1.2246469E-16,3.46E1,4.5E1,8E0,1.8E1,1.2E1,6E0,-9.9561885E-2,4.5E1,1E0,3.7E0,6.4E1,2.1E1,3E1,1.5E1,3E0,6.234898E-1,-7.5E-2,-1.31992465E-2,7.803039E-2,8.2498826E-2,5.4469932E-2,2.5078237E-2,1.3215918E-3,2.7099261E-2,-6.1854413E-3,-9.754601E-2,-6.621644E-2,-5.1142663E-2,-1.0462602E-2,-1.717518E-2,3.95449E-2,-2.27585E-2,3.0617718E-2,8.081109E-2,-6.923077E-2,-4.2658478E-2,-5.9002843E-2,3.6484245E-2,-8.7878786E-2,-7.364201E-2,-9.027438E-2,-9.99135E-2,-9.560779E-2,8.374938E-2,-5.555556E-2],"split_indices":[5,2,4,0,0,0,28,0,2,7,0,33,17,4,28,1,0,0,0,2,0,1,17,29,33,0,1,1,2,9,0,0,0,0,0,0,0,0,0,0,0,0,0,0,0,0,0,0,0,0,0,0,0,0,0,0,0,0,0],"split_type":[0,0,0,0,0,0,0,0,0,0,0,0,0,0,0,0,0,0,0,0,0,0,0,0,0,0,0,0,0,0,0,0,0,0,0,0,0,0,0,0,0,0,0,0,0,0,0,0,0,0,0,0,0,0,0,0,0,0,0],"sum_hessian":[2.497057E4,1.8064785E4,6.905784E3,1.5023765E4,3.0410212E3,2.994761E3,3.9110232E3,5.8751836E3,9.148581E3,3.0931702E2,2.7317043E3,8.8830176E2,2.106459E3,3.8923892E3,1.863403E1,1.1529077E3,4.722276E3,7.559771E3,1.5888098E3,8.206702E1,2.2725E2,8.891806E2,1.8425237E3,8.714177E2,1.688403E1,2.069508E3,3.6951042E1,1.1635542E3,2.728835E3,1.5634029E1,3E0,4.8707745E2,6.6583026E2,3.2044993E3,1.5177765E3,6.9542554E3,6.055157E2,6.005028E2,9.88307E2,3.975E1,4.2317017E1,6.149743E2,2.7420627E2,1.7451035E3,9.742015E1,8.298997E2,4.151806E1,1.4634029E1,2.25E0,7.3782745E2,1.3316805E3,2.9701044E1,7.25E0,3.131521E2,8.504021E2,1.155E3,1.5738351E3,1.4384029E1,1.25E0],"tree_param":{"num_deleted":"0","num_feature":"34","num_nodes":"59","size_leaf_vector":"1"}},{"base_weights":[1.7914388E-3,5.240763E-1,-1.3866085E0,7.3550206E-1,-5.0544333E-1,-8.744439E-1,-1.7712971E0,1.2627066E0,4.053897E-1,-1.8173202E0,-3.568183E-1,-6.017999E-1,-1.204359E0,-1.784011E0,1.0657161E0,7.0096236E-1,1.3981582E0,-7.795394E-2,4.4227317E-1,-1.5691155E0,-9.485533E-2,-3.9022848E-1,7.883039E-1,-5.240874E-1,-1.6942658E0,-7.114139E-1,-1.3023167E0,-1.7076133E0,-9.446447E-2,8.033675E-2,-7.184315E-2,7.348424E-2,-1.861425E-2,7.8236476E-2,5.2962888E-2,1.2940551E-2,-2.709924E-2,2.7942015E-2,1.5434198E-2,-9.434431E-2,-4.2247467E-2,-2.116136E-2,2.4502896E-2,7.398799E-2,-1.2537517E-2,-3.2211464E-2,-1.045912E-2,-9.72584E-2,-2.5635807E-2,-5.8182318E-2,4.3322844E-3,-5.8285337E-2,-9.08318E-2,-8.805995E-2,-7.459074E-2],"categories":[],"categories_nodes":[],"categories_segments":[],"categories_sizes":[],"default_left":[0,0,0,0,0,0,0,0,0,0,0,0,0,0,0,0,0,0,0,0,0,0,0,0,0,0,0,0,0,0,0,0,0,0,0,0,0,0,0,0,0,0,0,0,0,0,0,0,0,0,0,0,0,0,0],"id":1,"left_children":[1,3,5,7,9,11,13,15,17,19,21,23,25,27,29,31,33,35,37,39,-1,41,43,45,47,49,51,53,-1,-1,-1,-1,-1,-1,-1,-1,-1,-1,-1,-1,-1,-1,-1,-1,-1,-1,-1,-1,-1,-1,-1,-1,-1,-1,-1],"loss_changes":[1.8204414E4,3.971123E3,1.350499E3,2.633483E3,6.054642E2,2.642168E2,1.4321777E2,4.4240527E2,1.6598083E2,3.282837E0,1.0718442E2,1.3619763E2,6.338086E1,2.8148438E1,2.682251E1,9.362245E2,2.6332812E2,1.0340499E2,1.3450598E2,1.743132E1,0E0,7.90737E1,5.750641E1,5.6952484E1,3.0659698E1,8.0574974E1,7.58562E1,2.3631836E1,0E0,0E0,0E0,0E0,0E0,0E0,0E0,0E0,0E0,0E0,0E0,0E0,0E0,0E0,0E0,0E0,0E0,0E0,0E0,0E0,0E0,0E0,0E0,0E0,0E0,0E0,0E0],"parents":[2147483647,0,0,1,1,2,2,3,3,4,4,5,5,6,6,7,7,8,8,9,9,10,10,11,11,12,12,13,13,14,14,15,15,16,16,17,17,18,18,19,19,21,21,22,22,23,23,24,24,25,25,26,26,27,27],"right_children":[2,4,6,8,10,12,14,16,18,20,22,24,26,28,30,32,34,36,38,40,-1,42,44,46,48,50,52,54,-1,-1,-1,-1,-1,-1,-1,-1,-1,-1,-1,-1,-1,-1,-1,-1,-1,-1,-1,-1,-1,-1,-1,-1,-1,-1,-1],"split_conditions":[2.5881904E-1,5E0,-2.5881904E-1,9E0,8E0,2.1E1,2.21E1,7E0,-8.660254E-1,-1.8369701E-16,2.09E1,1.2E1,1E0,7.0710677E-1,-5E-1,0E0,8E0,5.6655387E-16,-7.0710677E-1,8.660254E-1,-9.485533E-2,2.61E1,3.17E1,1E0,6E0,9E0,8.660254E-1,1E1,-9.446447E-2,8.033675E-2,-7.184315E-2,7.348424E-2,-1.861425E-2,7.8236476E-2,5.2962888E-2,1.2940551E-2,-2.709924E-2,2.7942015E-2,1.5434198E-2,-9.434431E-2,-4.2247467E-2,-2.116136E-2,2.4502896E-2,7.398799E-2,-1.2537517E-2,-3.2211464E-2,-1.045912E-2,-9.72584E-2,-2.5635807E-2,-5.8182318E-2,4.3322844E-3,-5.8285337E-2,-9.08318E-2,-8.805995E-2,-7.459074E-2],"split_indices":[5,2,4,0,0,0,28,0,12,7,33,10,2,4,11,6,0,6,5,11,0,31,33,6,2,10,12,10,0,0,0,0,0,0,0,0,0,0,0,0,0,0,0,0,0,0,0,0,0,0,0,0,0,0,0],"split_type":[0,0,0,0,0,0,0,0,0,0,0,0,0,0,0,0,0,0,0,0,0,0,0,0,0,0,0,0,0,0,0,0,0,0,0,0,0,0,0,0,0,0,0,0,0,0,0,0,0,0,0,0,0,0,0],"sum_hessian":[2.5102676E4,1.8241322E4,6.8613535E3,1.5133699E4,3.1076243E3,2.9444546E3,3.916899E3,5.8261865E3,9.307512E3,3.1509854E2,2.7925256E3,1.6137037E3,1.3307509E3,3.8997935E3,1.7105536E1,1.1331139E3,4.6930728E3,6.598124E2,8.6477E3,8.167749E1,2.3342107E2,2.714001E3,7.8524734E1,1.5079177E3,1.05785904E2,2.2197665E2,1.1087742E3,2.2698484E3,1.629945E3,1.4359255E1,2.7462802E0,6.600081E2,4.731058E2,3.1441104E3,1.5489624E3,3.8259256E2,2.7721982E2,4.61637E3,4.0313296E3,5.56515E1,2.6025984E1,2.6164392E3,9.7561615E1,4.689412E1,3.1630611E1,1.0907368E3,4.17181E2,8.672382E1,1.9062084E1,1.4139499E2,8.058168E1,8.786577E2,2.3011644E2,1.8125961E3,4.5725244E2],"tree_param":{"num_deleted":"0","num_feature":"34","num_nodes":"55","size_leaf_vector":"1"}},{"base_weights":[-5.845814E-4,-1.7153032E0,2.62014E-1,-1.626662E0,-9.036994E-2,4.94011E-1,-9.310796E-1,-1.7195324E0,-1.4078966E0,6.9006866E-1,-4.6172407E-1,-5.953032E-1,-1.210188E0,-1.5360558E0,-9.1630846E-2,-1.5121472E0,-8.7321174E-1,1.2140806E0,3.5583538E-1,-1.7347039E0,-3.21488E-1,-1.0605938E0,-4.6689376E-1,-1.0738759E0,-1.5211169E0,-8.286794E-2,-6.2412836E-2,-3.839436E-2,-8.063543E-2,-1.4661491E-2,-6.3479036E-2,3.6785733E-2,6.6921905E-2,1.60305E-2,3.7823986E-2,-9.1180354E-2,-4.6576582E-2,-3.03769E-2,-9.226666E-3,-2.3913013E-2,-6.69874E-2,-1.3185357E-2,-3.521606E-2,-5.508361E-2,3.5746638E-2,-7.997976E-2,5.9147645E-2],"categories":[],"categories_nodes":[],"categories_segments":[],"categories_sizes":[],"default_left":[0,0,0,0,0,0,0,0,0,0,0,0,0,0,0,0,0,0,0,0,0,0,0,0,0,0,0,0,0,0,0,0,0,0,0,0,0,0,0,0,0,0,0,0,0,0,0],"id":2,"left_children":[1,3,5,7,-1,9,11,13,15,17,19,21,23,25,-1,27,29,31,33,35,37,39,41,43,45,-1,-1,-1,-1,-1,-1,-1,-1,-1,-1,-1,-1,-1,-1,-1,-1,-1,-1,-1,-1,-1,-1],"loss_changes":[1.1236738E4,2.4115234E1,5.990484E3,3.2091797E1,0E0,3.3953242E3,3.2947998E2,2.1833496E1,2.7205566E1,2.6327744E3,5.50116E2,9.517761E1,7.987207E1,1.3961548E1,0E0,3.0711914E1,1.9367363E1,3.4729883E2,1.2932764E2,2.0141968E1,1.087901E2,5.5532043E1,6.044162E1,6.743237E1,1.2576343E2,0E0,0E0,0E0,0E0,0E0,0E0,0E0,0E0,0E0,0E0,0E0,0E0,0E0,0E0,0E0,0E0,0E0,0E0,0E0,0E0,0E0,0E0],"parents":[2147483647,0,0,1,1,2,2,3,3,5,5,6,6,7,7,8,8,9,9,10,10,11,11,12,12,13,13,15,15,16,16,17,17,18,18,19,19,20,20,21,21,22,22,23,23,24,24],"right_children":[2,4,6,8,-1,10,12,14,16,18,20,22,24,26,-1,28,30,32,34,36,38,40,42,44,46,-1,-1,-1,-1,-1,-1,-1,-1,-1,-1,-1,-1,-1,-1,-1,-1,-1,-1,-1,-1,-1,-1],"split_conditions":[6E0,3E0,1.9E1,5E0,-9.036994E-2,5E0,2.1E1,-2.4492937E-16,1.1E1,9E0,8E0,-1.8369701E-16,2.3E1,1E1,-9.1630846E-2,-8.660254E-1,1E0,7E0,1E0,1.2E1,1.2E1,4E0,2E1,2.22E1,2.21E1,-8.286794E-2,-6.2412836E-2,-3.839436E-2,-8.063543E-2,-1.4661491E-2,-6.3479036E-2,3.6785733E-2,6.6921905E-2,1.60305E-2,3.7823986E-2,-9.1180354E-2,-4.6576582E-2,-3.03769E-2,-9.226666E-3,-2.3913013E-2,-6.69874E-2,-1.3185357E-2,-3.521606E-2,-5.508361E-2,3.5746638E-2,-7.997976E-2,5.9147645E-2],"split_indices":[0,0,0,2,0,2,0,11,10,0,0,7,0,10,0,12,0,0,26,10,0,10,0,31,28,0,0,0,0,0,0,0,0,0,0,0,0,0,0,0,0,0,0,0,0,0,0],"split_type":[0,0,0,0,0,0,0,0,0,0,0,0,0,0,0,0,0,0,0,0,0,0,0,0,0,0,0,0,0,0,0,0,0,0,0,0,0,0,0,0,0,0,0,0,0,0,0],"sum_hessian":[2.4952857E4,3.3131416E3,2.1639715E4,1.6977429E3,1.6153987E3,1.8117377E4,3.522338E3,1.186984E3,5.1075888E2,1.5033677E4,3.0837012E3,1.6002809E3,1.922057E3,4.581809E2,7.2880316E2,4.2589215E2,8.486674E1,5.8536597E3,9.180017E3,3.048732E2,2.778828E3,3.4454926E2,1.2557316E3,1.3393401E3,5.8271686E2,3.189777E2,1.3920323E2,5.172308E1,3.7416907E2,3.5159637E1,4.9707096E1,1.209189E3,4.6444707E3,8.439776E3,7.402402E2,2.73346E2,3.1527203E1,8.9857855E2,1.8802493E3,1.12526E2,2.3202325E2,6.7779565E2,5.77936E2,1.3192247E3,2.0115305E1,5.6667896E2,1.603789E1],"tree_param":{"num_deleted":"0","num_feature":"34","num_nodes":"47","size_leaf_vector":"1"}},{"base_weights":[-4.5453655E-3,4.6409938E-1,-1.2419504E0,6.644975E-1,-5.3712124E-1,-1.6620662E0,-8.5654324E-1,1.1685257E0,3.3844563E-1,-1.3898028E0,-3.6314225E-1,-1.5752915E0,-8.764844E-2,-2.5941694E-1,-1.057387E0,7.160408E-1,1.2818137E0,3.1423402E-1,8.804384E-1,-1.667406E0,-9.553711E-1,-4.6852222E-1,1.8860557E-3,-1.6427994E0,-1.3054811E0,-4.1099913E-2,-7.4230075E-1,-9.480887E-1,-1.4543347E0,-8.984722E-3,6.9512226E-2,7.232744E-2,4.708495E-2,1.4315252E-2,3.5225008E-2,4.7499225E-2,-9.2776984E-2,-8.757751E-2,-4.743241E-2,-2.6595622E-2,-7.758877E-2,-4.13887E-2,-1.7106762E-2,1.9762876E-2,-2.9968027E-2,-8.80003E-2,-7.476966E-2,-5.319912E-2,-7.972683E-2,-5.1612545E-2,3.4833662E-3,-5.0787807E-2,-1.0862387E-2,-4.8481278E-2,1.2646808E-2,-7.6524824E-2,5.673928E-2],"categories":[],"categories_nodes":[],"categories_segments":[],"categories_sizes":[],"default_left":[0,0,0,0,0,0,0,0,0,0,0,0,0,0,0,0,0,0,0,0,0,0,0,0,0,0,0,0,0,0,0,0,0,0,0,0,0,0,0,0,0,0,0,0,0,0,0,0,0,0,0,0,0,0,0,0,0],"id":3,"left_children":[1,3,5,7,9,11,13,15,17,19,21,23,-1,25,27,29,31,33,35,37,39,41,43,45,47,49,51,53,55,-1,-1,-1,-1,-1,-1,-1,-1,-1,-1,-1,-1,-1,-1,-1,-1,-1,-1,-1,-1,-1,-1,-1,-1,-1,-1,-1,-1],"loss_changes":[1.4408657E4,3.6162178E3,1.1036934E3,2.4673804E3,4.4543768E2,2.2989258E1,4.2688232E2,3.0141748E2,1.19392944E2,5.9798645E1,9.609021E1,2.8456543E1,0E0,9.461633E1,1.1424194E2,7.1482135E2,2.6285303E2,9.4963806E1,7.58569E1,1.704132E1,4.9889145E1,8.772922E1,1.3282402E2,2.051831E1,2.211438E1,6.8065865E1,3.9904755E1,5.4369385E1,1.148241E2,0E0,0E0,0E0,0E0,0E0,0E0,0E0,0E0,0E0,0E0,0E0,0E0,0E0,0E0,0E0,0E0,0E0,0E0,0E0,0E0,0E0,0E0,0E0,0E0,0E0,0E0,0E0,0E0],"parents":[2147483647,0,0,1,1,2,2,3,3,4,4,5,5,6,6,7,7,8,8,9,9,10,10,11,11,13,13,14,14,15,15,16,16,17,17,18,18,19,19,20,20,21,21,22,22,23,23,24,24,25,25,26,26,27,27,28,28],"right_children":[2,4,6,8,10,12,14,16,18,20,22,24,-1,26,28,30,32,34,36,38,40,42,44,46,48,50,52,54,56,-1,-1,-1,-1,-1,-1,-1,-1,-1,-1,-1,-1,-1,-1,-1,-1,-1,-1,-1,-1,-1,-1,-1,-1,-1,-1,-1,-1],"split_conditions":[2.5881904E-1,5E0,6E0,9E0,9E0,3E0,2E1,7E0,2.76E1,8E0,1E1,1E1,-8.764844E-2,8E0,2.3E1,4.5E1,8E0,1E0,1E0,1.2E1,5.6655387E-16,1.2E1,1.4E1,4E0,1.2E1,2E0,5E0,1E0,2.21E1,-8.984722E-3,6.9512226E-2,7.232744E-2,4.708495E-2,1.4315252E-2,3.5225008E-2,4.7499225E-2,-9.2776984E-2,-8.757751E-2,-4.743241E-2,-2.6595622E-2,-7.758877E-2,-4.13887E-2,-1.7106762E-2,1.9762876E-2,-2.9968027E-2,-8.80003E-2,-7.476966E-2,-5.319912E-2,-7.972683E-2,-5.1612545E-2,3.4833662E-3,-5.0787807E-2,-1.0862387E-2,-4.8481278E-2,1.2646808E-2,-7.6524824E-2,5.673928E-2],"split_indices":[5,2,0,0,0,0,0,0,33,0,10,10,0,10,0,1,0,13,22,10,6,0,0,2,10,10,2,17,28,0,0,0,0,0,0,0,0,0,0,0,0,0,0,0,0,0,0,0,0,0,0,0,0,0,0,0,0],"split_type":[0,0,0,0,0,0,0,0,0,0,0,0,0,0,0,0,0,0,0,0,0,0,0,0,0,0,0,0,0,0,0,0,0,0,0,0,0,0,0,0,0,0,0,0,0,0,0,0,0,0,0,0,0,0,0,0,0],"sum_hessian":[2.4844658E4,1.8020387E4,6.8242705E3,1.5015345E4,3.0050427E3,3.2635264E3,3.5607441E3,5.8969478E3,9.118397E3,5.080534E2,2.4969893E3,1.6790488E3,1.5844775E3,8.967923E2,2.663952E3,1.1822455E3,4.714702E3,8.729995E3,3.8840222E2,3.0824548E2,1.9980794E2,1.9373986E3,5.5959076E2,1.3389487E3,3.401E2,6.183257E2,2.784666E2,2.091463E3,5.72489E2,5.0802533E2,6.7422015E2,3.1740789E3,1.5406233E3,8.148584E3,5.814108E2,3.7941074E2,8.991503E0,2.7465503E2,3.359044E1,1.1795176E2,8.1856186E1,5.0276157E2,1.4346371E3,3.384797E2,2.2111105E2,7.3978577E2,5.99163E2,1.8784285E2,1.5225717E2,6.1319202E1,5.570065E2,1.8248904E2,9.597757E1,2.0548086E3,3.665418E1,5.5652704E2,1.5961962E1],"tree_param":{"num_deleted":"0","num_feature":"34","num_nodes":"57","size_leaf_vector":"1"}},{"base_weights":[6.456477E-3,-1.583496E0,2.4325472E-1,-1.4469262E0,-1.6557392E0,4.471022E-1,-7.9072046E-1,-1.2985289E0,-1.6439538E0,-8.467939E-2,-1.6167523E0,6.305076E-1,-4.4530195E-1,-4.5991015E-1,-1.0784755E0,-1.4805745E0,-1.0718962E0,-8.4983654E-2,-1.4280627E0,-1.5024468E0,-1.6540399E0,1.1074419E0,3.2804912E-1,-1.3318951E0,-2.711978E-1,-2.622781E-1,-6.96687E-1,-9.4731456E-1,-1.3846858E0,-8.471907E-2,-5.6279093E-2,-8.520917E-2,-3.6998343E-2,-3.978425E-2,-8.409555E-2,-6.075568E-2,-8.466067E-2,-8.439182E-2,-7.768774E-2,4.8825823E-2,7.637595E-2,-2.767634E-3,1.790868E-2,-7.614707E-2,-5.0734885E-2,-1.563082E-2,3.9029848E-2,-2.7391596E-2,6.568649E-4,-2.315368E-2,-5.405133E-2,-2.3297524E-2,-5.2109536E-2,-7.578679E-2,-5.2043226E-2],"categories":[],"categories_nodes":[],"categories_segments":[],"categories_sizes":[],"default_left":[0,0,0,0,0,0,0,0,0,0,0,0,0,0,0,0,0,0,0,0,0,0,0,0,0,0,0,0,0,0,0,0,0,0,0,0,0,0,0,0,0,0,0,0,0,0,0,0,0,0,0,0,0,0,0],"id":4,"left_children":[1,3,5,7,9,11,13,15,17,-1,19,21,23,25,27,29,31,-1,33,35,37,39,41,43,45,47,49,51,53,-1,-1,-1,-1,-1,-1,-1,-1,-1,-1,-1,-1,-1,-1,-1,-1,-1,-1,-1,-1,-1,-1,-1,-1,-1,-1],"loss_changes":[9.375812E3,2.9453613E1,4.5687744E3,3.0751465E1,3.6669922E-1,2.9636882E3,3.3931958E2,2.5078125E1,3.34021E0,0E0,2.0268555E0,2.1662441E3,4.7619092E2,7.760858E1,7.533447E1,2.5097168E1,5.9921967E1,0E0,1.5455048E1,1.2813599E1,4.9316406E-2,3.1905176E2,1.061889E2,2.914795E1,1.1271686E2,7.1394226E1,6.735089E1,6.06781E1,2.4111084E1,0E0,0E0,0E0,0E0,0E0,0E0,0E0,0E0,0E0,0E0,0E0,0E0,0E0,0E0,0E0,0E0,0E0,0E0,0E0,0E0,0E0,0E0,0E0,0E0,0E0,0E0],"parents":[2147483647,0,0,1,1,2,2,3,3,4,4,5,5,6,6,7,7,8,8,10,10,11,11,12,12,13,13,14,14,15,15,16,16,18,18,19,19,20,20,21,21,22,22,23,23,24,24,25,25,26,26,27,27,28,28],"right_children":[2,4,6,8,10,12,14,16,18,-1,20,22,24,26,28,30,32,-1,34,36,38,40,42,44,46,48,50,52,54,-1,-1,-1,-1,-1,-1,-1,-1,-1,-1,-1,-1,-1,-1,-1,-1,-1,-1,-1,-1,-1,-1,-1,-1,-1,-1],"split_conditions":[6E0,2E0,1.9E1,5E-1,5.6655387E-16,5E0,2.1E1,4E0,8.660254E-1,-8.467939E-2,3E0,9E0,9E0,2E1,2.3E1,6.123234E-17,-5E-1,-8.4983654E-2,0E0,-2.4492937E-16,8.660254E-1,1.19E1,-8.660254E-1,8E0,2.61E1,5E-1,6.234898E-1,1E0,1E0,-8.471907E-2,-5.6279093E-2,-8.520917E-2,-3.6998343E-2,-3.978425E-2,-8.409555E-2,-6.075568E-2,-8.466067E-2,-8.439182E-2,-7.768774E-2,4.8825823E-2,7.637595E-2,-2.767634E-3,1.790868E-2,-7.614707E-2,-5.0734885E-2,-1.563082E-2,3.9029848E-2,-2.7391596E-2,6.568649E-4,-2.315368E-2,-5.405133E-2,-2.3297524E-2,-5.2109536E-2,-7.578679E-2,-5.2043226E-2],"split_indices":[0,0,0,11,6,2,0,2,12,0,0,0,0,0,0,12,11,0,6,11,11,31,12,0,31,11,9,2,7,0,0,0,0,0,0,0,0,0,0,0,0,0,0,0,0,0,0,0,0,0,0,0,0,0,0],"split_type":[0,0,0,0,0,0,0,0,0,0,0,0,0,0,0,0,0,0,0,0,0,0,0,0,0,0,0,0,0,0,0,0,0,0,0,0,0,0,0,0,0,0,0,0,0,0,0,0,0,0,0,0,0,0,0],"sum_hessian":[2.4900668E4,3.2270894E3,2.1673578E4,1.1237548E3,2.1033345E3,1.8104797E4,3.5687805E3,6.4531036E2,4.7844434E2,1.0457134E3,1.0576212E3,1.5018512E4,3.086286E3,1.6613966E3,1.9073839E3,3.5478885E2,2.905215E2,3.7483148E2,1.0361285E2,2.7030167E2,7.873196E2,5.827192E3,9.191319E3,5.054952E2,2.5807908E3,9.067017E2,7.546949E2,1.3382546E3,5.691293E2,2.19072E2,1.3571684E2,9.858822E1,1.9193329E2,3.0862864E1,7.274998E1,1.10793655E2,1.5950801E2,5.770282E2,2.102914E2,4.4451084E3,1.3820834E3,6.695058E2,8.521813E3,3.1310962E2,1.9238559E2,2.4836882E3,9.710237E1,4.446718E2,4.6202988E2,4.7075833E2,2.8393655E2,2.2131271E2,1.116942E3,4.095991E2,1.5953017E2],"tree_param":{"num_deleted":"0","num_feature":"34","num_nodes":"55","size_leaf_vector":"1"}},{"base_weights":[-1.0417997E-3,4.2696822E-1,-1.1498661E0,6.018257E-1,-4.1288045E-1,-6.973103E-1,-1.502382E0,1.0473366E0,3.2960707E-1,-1.4696156E0,-2.951036E-1,-2.399255E-1,-8.997903E-1,-1.5138137E0,7.2121763E-1,5.3850025E-1,1.1714288E0,3.791892E-1,9.221391E-2,-1.5399507E0,-8.8507766E-1,-3.2366988E-1,5.966178E-1,-1.3762212E-1,-6.471045E-1,-9.084588E-1,6.187333E-1,-1.3889911E0,-1.6130904E0,1.2074659E0,-6.954571E-2,-1.01236545E-1,3.9181676E-2,6.643256E-2,4.296281E-2,1.8181011E-2,5.271237E-2,1.114786E-2,-2.3163766E-2,-6.373501E-2,-8.149792E-2,-8.104247E-2,1.278168E-2,-1.7556457E-2,3.3905488E-2,4.481684E-2,-8.681672E-2,1.7752742E-2,-1.2408639E-2,-4.8054192E-2,1.8838668E-3,-4.583647E-2,2.3618858E-2,-7.2630875E-2,9.4816566E-2,-7.360316E-2,-5.387352E-2,-7.7407554E-2,-8.193407E-2,-5.816036E-2,7.579049E-2],"categories":[],"categories_nodes":[],"categories_segments":[],"categories_sizes":[],"default_left":[0,0,0,0,0,0,0,0,0,0,0,0,0,0,0,0,0,0,0,0,0,0,0,0,0,0,0,0,0,0,0,0,0,0,0,0,0,0,0,0,0,0,0,0,0,0,0,0,0,0,0,0,0,0,0,0,0,0,0,0,0],"id":5,"left_children":[1,3,5,7,9,11,13,15,17,19,21,23,25,27,29,31,33,35,37,39,41,43,45,47,49,51,53,55,57,59,-1,-1,-1,-1,-1,-1,-1,-1,-1,-1,-1,-1,-1,-1,-1,-1,-1,-1,-1,-1,-1,-1,-1,-1,-1,-1,-1,-1,-1,-1,-1],"loss_changes":[1.2125082E4,2.6385837E3,1.0667666E3,1.8030605E3,3.8495404E2,2.7138403E2,9.6711914E1,3.5546094E2,1.0862671E2,1.1392822E1,7.119313E1,3.745367E1,2.7315674E1,4.413965E1,2.2135164E1,6.974845E2,2.2133789E2,7.987512E1,1.16039406E2,4.50177E0,3.0355701E1,7.454788E1,6.2298115E1,3.9388363E1,3.888842E1,2.3516846E1,3.485809E1,4.1508545E1,9.1748047E-1,1.3989271E1,0E0,0E0,0E0,0E0,0E0,0E0,0E0,0E0,0E0,0E0,0E0,0E0,0E0,0E0,0E0,0E0,0E0,0E0,0E0,0E0,0E0,0E0,0E0,0E0,0E0,0E0,0E0,0E0,0E0,0E0,0E0],"parents":[2147483647,0,0,1,1,2,2,3,3,4,4,5,5,6,6,7,7,8,8,9,9,10,10,11,11,12,12,13,13,14,14,15,15,16,16,17,17,18,18,19,19,20,20,21,21,22,22,23,23,24,24,25,25,26,26,27,27,28,28,29,29],"right_children":[2,4,6,8,10,12,14,16,18,20,22,24,26,28,30,32,34,36,38,40,42,44,46,48,50,52,54,56,58,60,-1,-1,-1,-1,-1,-1,-1,-1,-1,-1,-1,-1,-1,-1,-1,-1,-1,-1,-1,-1,-1,-1,-1,-1,-1,-1,-1,-1,-1,-1,-1],"split_conditions":[2.5881904E-1,5E0,-2.5881904E-1,9E0,8E0,2E1,2.21E1,7E0,1.7E1,1.2E1,1E0,8.660254E-1,5.52E1,5E-1,3.46E1,1.5E1,8E0,4.46E1,8.660254E-1,-1.8369701E-16,1E0,2.09E1,1E0,1E0,1E0,4.38E1,1E0,1E1,-2.2252093E-1,7E0,-6.954571E-2,-1.01236545E-1,3.9181676E-2,6.643256E-2,4.296281E-2,1.8181011E-2,5.271237E-2,1.114786E-2,-2.3163766E-2,-6.373501E-2,-8.149792E-2,-8.104247E-2,1.278168E-2,-1.7556457E-2,3.3905488E-2,4.481684E-2,-8.681672E-2,1.7752742E-2,-1.2408639E-2,-4.8054192E-2,1.8838668E-3,-4.583647E-2,2.3618858E-2,-7.2630875E-2,9.4816566E-2,-7.360316E-2,-5.387352E-2,-7.7407554E-2,-8.193407E-2,-5.816036E-2,7.579049E-2],"split_indices":[5,2,4,0,0,0,28,0,0,10,23,12,29,4,28,1,0,33,12,7,6,33,6,2,6,33,20,10,9,10,0,0,0,0,0,0,0,0,0,0,0,0,0,0,0,0,0,0,0,0,0,0,0,0,0,0,0,0,0,0,0],"split_type":[0,0,0,0,0,0,0,0,0,0,0,0,0,0,0,0,0,0,0,0,0,0,0,0,0,0,0,0,0,0,0,0,0,0,0,0,0,0,0,0,0,0,0,0,0,0,0,0,0,0,0,0,0,0,0,0,0,0,0,0,0],"sum_hessian":[2.4657096E4,1.7964723E4,6.692372E3,1.4869218E4,3.0955056E3,2.9316865E3,3.7606858E3,5.6384795E3,9.230738E3,3.0925778E2,2.7862478E3,9.0026044E2,2.031426E3,3.7417683E3,1.8917505E1,1.1065297E3,4.5319497E3,7.6354043E3,1.5953337E3,2.745837E2,3.4674072E1,2.7003782E3,8.586953E1,7.2055865E2,1.7970177E2,2.0202948E3,1.11312E1,1.6642561E3,2.0775122E3,1.5725541E1,3.1919649E0,9.595182E1,1.0105778E3,3.0118225E3,1.5201273E3,7.4647812E3,1.7062292E2,1.29187E3,3.034637E2,7.34095E1,2.0117421E2,2.0822447E1,1.3851625E1,2.6289666E3,7.141167E1,7.663932E1,9.230211E0,1.3164806E2,5.889106E2,1.22932495E2,5.6769276E1,2.0086003E3,1.1694461E1,4.1942058E0,6.936994E0,1.3109457E3,3.533104E2,6.0465125E2,1.472861E3,1.4908487E0,1.4234693E1],"tree_param":{"num_deleted":"0","num_feature":"34","num_nodes":"61","size_leaf_vector":"1"}},{"base_weights":[-5.630909E-3,-1.5043044E0,2.1368481E-1,-1.4434897E0,-7.835907E-2,4.007478E-1,-7.3210984E-1,-1.52069E0,-1.3167464E0,5.697985E-1,-4.2051935E-1,-3.929865E-1,-1.0325047E0,-1.5638297E0,-1.4319572E0,-9.4078195E-1,-1.4829724E0,1.0099082E0,2.9935986E-1,-1.2415186E0,-2.6066804E-1,-4.1691554E-1,9.927482E-1,-1.0741512E0,4.974049E-1,-6.619414E-2,-8.011967E-2,-6.573368E-2,-7.930841E-2,-6.831161E-2,-2.4884773E-2,-8.012556E-2,-6.0317915E-2,4.3715373E-2,6.822787E-2,2.126553E-2,1.0739114E-2,-6.81862E-2,-1.5472429E-2,-1.4616749E-2,4.3677486E-2,-2.2073947E-2,4.559996E-2,6.780047E-2,-7.019255E-2,-5.4739516E-2,3.1837154E-2,-7.5606816E-2,4.4397093E-2],"categories":[],"categories_nodes":[],"categories_segments":[],"categories_sizes":[],"default_left":[0,0,0,0,0,0,0,0,0,0,0,0,0,0,0,0,0,0,0,0,0,0,0,0,0,0,0,0,0,0,0,0,0,0,0,0,0,0,0,0,0,0,0,0,0,0,0,0,0],"id":6,"left_children":[1,3,5,7,-1,9,11,13,15,17,19,21,23,25,27,29,31,33,35,37,39,41,43,45,47,-1,-1,-1,-1,-1,-1,-1,-1,-1,-1,-1,-1,-1,-1,-1,-1,-1,-1,-1,-1,-1,-1,-1,-1],"loss_changes":[8.0226333E3,9.652344E0,3.767435E3,1.3620117E1,0E0,2.4683582E3,3.578009E2,1.5341797E0,3.6841553E1,1.7544531E3,3.9801123E2,5.5235596E1,1.1929944E2,3.9157715E0,3.96167E0,3.5196243E1,1.2037964E1,2.686377E2,9.720068E1,5.589087E1,9.155057E1,5.347708E1,2.6593817E1,6.478467E1,4.064524E1,0E0,0E0,0E0,0E0,0E0,0E0,0E0,0E0,0E0,0E0,0E0,0E0,0E0,0E0,0E0,0E0,0E0,0E0,0E0,0E0,0E0,0E0,0E0,0E0],"parents":[2147483647,0,0,1,1,2,2,3,3,5,5,6,6,7,7,8,8,9,9,10,10,11,11,12,12,13,13,14,14,15,15,16,16,17,17,18,18,19,19,20,20,21,21,22,22,23,23,24,24],"right_children":[2,4,6,8,-1,10,12,14,16,18,20,22,24,26,28,30,32,34,36,38,40,42,44,46,48,-1,-1,-1,-1,-1,-1,-1,-1,-1,-1,-1,-1,-1,-1,-1,-1,-1,-1,-1,-1,-1,-1,-1,-1],"split_conditions":[6E0,3E0,1.9E1,5E-1,-7.835907E-2,1E0,2.1E1,2E0,-2.4492937E-16,9E0,9E0,4.41E1,1E0,-8.660254E-1,6.234898E-1,6.234898E-1,1E0,1E0,-2.4492937E-16,1E0,3.91E1,4.01E1,6.4E1,2.58E1,-5E-1,-6.619414E-2,-8.011967E-2,-6.573368E-2,-7.930841E-2,-6.831161E-2,-2.4884773E-2,-8.012556E-2,-6.0317915E-2,4.3715373E-2,6.822787E-2,2.126553E-2,1.0739114E-2,-6.81862E-2,-1.5472429E-2,-1.4616749E-2,4.3677486E-2,-2.2073947E-2,4.559996E-2,6.780047E-2,-7.019255E-2,-5.4739516E-2,3.1837154E-2,-7.5606816E-2,4.4397093E-2],"split_indices":[0,0,0,12,0,3,0,0,11,0,0,33,23,12,9,9,3,19,11,12,32,32,33,31,12,0,0,0,0,0,0,0,0,0,0,0,0,0,0,0,0,0,0,0,0,0,0,0,0],"split_type":[0,0,0,0,0,0,0,0,0,0,0,0,0,0,0,0,0,0,0,0,0,0,0,0,0,0,0,0,0,0,0,0,0,0,0,0,0,0,0,0,0,0,0,0,0,0,0,0,0],"sum_hessian":[2.440647E4,3.1149424E3,2.1291527E4,1.595617E3,1.5193256E3,1.7776248E4,3.5152803E3,9.8478064E2,6.1083624E2,1.4742034E4,3.0342139E3,1.6522836E3,1.8629967E3,6.514422E2,3.3333847E2,1.8931335E2,4.2152292E2,5.60986E3,9.132174E3,4.9338953E2,2.5408242E3,1.6249233E3,2.7360237E1,1.813917E3,4.9079693E1,9.5093376E1,5.563488E2,1.9474907E2,1.385894E2,9.551586E1,9.3797485E1,2.9098172E2,1.3054121E2,4.0607058E3,1.5491539E3,3.6671384E3,5.4650356E3,4.357893E2,5.7600235E1,2.4725342E3,6.828996E1,1.5960894E3,2.8834002E1,2.4136044E1,3.2241929E0,1.7926516E3,2.126537E1,7.518853E0,4.156084E1],"tree_param":{"num_deleted":"0","num_feature":"34","num_nodes":"49","size_leaf_vector":"1"}},{"base_weights":[-5.4339394E-3,3.779001E-1,-1.0323092E0,5.3302354E-1,-3.604161E-1,-1.4338193E0,-6.8118554E-1,9.643536E-1,2.686105E-1,-1.1939118E0,-2.0370744E-1,-1.3321074E0,-7.704557E-2,-4.103417E-1,-9.11334E-1,4.798155E-1,1.0838819E0,-1.535186E-1,3.0138162E-1,-1.3128889E0,-3.2356608E-1,-2.4179542E-1,7.610715E-1,-1.4181719E0,-1.1305312E0,-3.5132852E-1,-1.2299554E0,-9.4851315E-1,4.9064344E-1,-1.8946782E-2,5.8488663E-2,6.1994668E-2,3.8730048E-2,-3.2337096E-2,5.8227037E-3,2.392678E-2,1.05970455E-2,-7.208121E-2,-4.8940994E-2,1.6361201E-2,-8.035537E-2,-1.3871148E-2,3.352543E-2,4.9140155E-2,-8.904033E-2,-6.386579E-2,-7.327538E-2,-6.318193E-2,-3.7853997E-2,-1.0228557E-2,-2.6102364E-2,-4.9508907E-2,-8.4955834E-2,-6.283093E-2,-4.198215E-2,-7.708772E-2,4.8761636E-2],"categories":[],"categories_nodes":[],"categories_segments":[],"categories_sizes":[],"default_left":[0,0,0,0,0,0,0,0,0,0,0,0,0,0,0,0,0,0,0,0,0,0,0,0,0,0,0,0,0,0,0,0,0,0,0,0,0,0,0,0,0,0,0,0,0,0,0,0,0,0,0,0,0,0,0,0,0],"id":7,"left_children":[1,3,5,7,9,11,13,15,17,19,21,23,-1,25,27,29,31,33,35,37,39,41,43,45,47,49,51,53,55,-1,-1,-1,-1,-1,-1,-1,-1,-1,-1,-1,-1,-1,-1,-1,-1,-1,-1,-1,-1,-1,-1,-1,-1,-1,-1,-1,-1],"loss_changes":[9.546063E3,2.0226687E3,9.283745E2,1.6640933E3,4.0030673E2,3.1435547E1,2.1895593E2,3.2066504E2,1.2522101E2,4.980945E1,9.508211E1,2.5880615E1,0E0,7.78378E1,9.957434E1,6.516841E2,2.1364062E2,8.6963326E1,1.3294806E2,1.6928894E1,5.0367085E1,8.096234E1,5.7166138E1,5.5043945E0,2.2851318E1,3.7748352E1,1.0499344E1,6.1088013E1,5.053044E1,0E0,0E0,0E0,0E0,0E0,0E0,0E0,0E0,0E0,0E0,0E0,0E0,0E0,0E0,0E0,0E0,0E0,0E0,0E0,0E0,0E0,0E0,0E0,0E0,0E0,0E0,0E0,0E0],"parents":[2147483647,0,0,1,1,2,2,3,3,4,4,5,5,6,6,7,7,8,8,9,9,10,10,11,11,13,13,14,14,15,15,16,16,17,17,18,18,19,19,20,20,21,21,22,22,23,23,24,24,25,25,26,26,27,27,28,28],"right_children":[2,4,6,8,10,12,14,16,18,20,22,24,-1,26,28,30,32,34,36,38,40,42,44,46,48,50,52,54,56,-1,-1,-1,-1,-1,-1,-1,-1,-1,-1,-1,-1,-1,-1,-1,-1,-1,-1,-1,-1,-1,-1,-1,-1,-1,-1,-1,-1],"split_conditions":[2.5881904E-1,1E0,6E0,9E0,9E0,3E0,2.1E1,7E0,-8.660254E-1,1E0,2.61E1,1E0,-7.704557E-2,1E0,1E0,4.5E1,8E0,-2.2252093E-1,-8.660254E-1,4.5E1,3E1,9.3E0,1E0,-1.8369701E-16,8.660254E-1,2E1,6.234898E-1,-2.2252093E-1,5.6655387E-16,-1.8946782E-2,5.8488663E-2,6.1994668E-2,3.8730048E-2,-3.2337096E-2,5.8227037E-3,2.392678E-2,1.05970455E-2,-7.208121E-2,-4.8940994E-2,1.6361201E-2,-8.035537E-2,-1.3871148E-2,3.352543E-2,4.9140155E-2,-8.904033E-2,-6.386579E-2,-7.327538E-2,-6.318193E-2,-3.7853997E-2,-1.0228557E-2,-2.6102364E-2,-4.9508907E-2,-8.4955834E-2,-6.283093E-2,-4.198215E-2,-7.708772E-2,4.8761636E-2],"split_indices":[5,3,0,0,0,0,0,0,12,12,31,3,0,12,23,1,0,9,5,1,1,33,6,7,12,0,9,9,6,0,0,0,0,0,0,0,0,0,0,0,0,0,0,0,0,0,0,0,0,0,0,0,0,0,0,0,0],"split_type":[0,0,0,0,0,0,0,0,0,0,0,0,0,0,0,0,0,0,0,0,0,0,0,0,0,0,0,0,0,0,0,0,0,0,0,0,0,0,0,0,0,0,0,0,0,0,0,0,0,0,0,0,0,0,0,0,0],"sum_hessian":[2.4248988E4,1.76579E4,6.5910884E3,1.4592277E4,3.0656226E3,3.0734792E3,3.517609E3,5.544702E3,9.047576E3,4.8411472E2,2.5815078E3,1.5832297E3,1.4902495E3,1.6172162E3,1.9003927E3,1.0981368E3,4.446565E3,6.51524E2,8.396052E3,4.254472E2,5.866749E1,2.4841853E3,9.732241E1,1.1052848E3,4.77945E2,1.5099281E3,1.0728801E2,1.851613E3,4.877963E1,4.8942642E2,6.0871045E2,2.9536414E3,1.4929237E3,2.2997621E2,4.215478E2,2.8153594E3,5.5806924E3,3.0471014E2,1.20737076E2,3.9423676E1,1.924381E1,2.3914883E3,9.269713E1,9.0078125E1,7.244286E0,2.8504962E2,8.2023517E2,3.5059912E2,1.2734588E2,8.131267E2,6.9680145E2,7.305952E1,3.4228493E1,4.8069394E2,1.3709191E3,8.971409E0,3.980822E1],"tree_param":{"num_deleted":"0","num_feature":"34","num_nodes":"57","size_leaf_vector":"1"}},{"base_weights":[2.1745171E-3,3.7529385E-1,-1.0418375E0,5.279919E-1,-3.724771E-1,-7.8462875E-1,-1.2180783E0,4.5257014E-1,1.1355876E0,-3.156438E-1,-7.599947E-2,-8.199193E-1,5.19164E-1,-1.3015765E0,-1.111406E0,3.9665985E-1,9.024338E-1,4.5125625E-1,1.283468E0,-2.4494916E-1,-5.653979E-1,-8.4289396E-1,2.5951397E-1,-1.19850986E-1,1.0602372E0,-1.4304969E0,-1.181392E0,-7.795001E-2,-1.0657778E0,2.2450088E-2,2.423952E-3,4.584857E-2,-9.9642046E-2,3.9695956E-2,-2.935374E-3,5.9949506E-2,7.26997E-2,-3.2779735E-2,-8.5509885E-3,-8.6064674E-2,-2.4601273E-2,-3.1438112E-2,-4.8859205E-2,4.4424247E-2,-8.3172135E-2,-8.4499195E-2,4.9242564E-2,1.4731635E-2,7.0481874E-2,-7.458272E-2,-5.973388E-2,-5.9961166E-2,8.874893E-3,-5.3866055E-2,1.6641652E-2],"categories":[],"categories_nodes":[],"categories_segments":[],"categories_sizes":[],"default_left":[0,0,0,0,0,0,0,0,0,0,0,0,0,0,0,0,0,0,0,0,0,0,0,0,0,0,0,0,0,0,0,0,0,0,0,0,0,0,0,0,0,0,0,0,0,0,0,0,0,0,0,0,0,0,0],"id":8,"left_children":[1,3,5,7,9,11,13,15,17,19,-1,21,23,25,27,29,31,33,35,37,39,41,43,45,47,49,51,-1,53,-1,-1,-1,-1,-1,-1,-1,-1,-1,-1,-1,-1,-1,-1,-1,-1,-1,-1,-1,-1,-1,-1,-1,-1,-1,-1],"loss_changes":[9.449348E3,2.0407405E3,2.8856445E2,6.7957666E2,1.9719577E2,1.2004224E2,3.2293945E1,3.3174E2,1.6519727E2,5.0875305E1,0E0,6.3000977E1,2.402751E1,3.1142822E1,3.2446777E1,2.1403918E2,6.3228638E1,5.118218E1,1.7653564E1,6.830534E1,5.3147247E1,7.067261E1,6.621411E1,5.8197334E1,9.624817E0,1.2894043E1,2.6925415E1,0E0,2.4878052E1,0E0,0E0,0E0,0E0,0E0,0E0,0E0,0E0,0E0,0E0,0E0,0E0,0E0,0E0,0E0,0E0,0E0,0E0,0E0,0E0,0E0,0E0,0E0,0E0,0E0,0E0],"parents":[2147483647,0,0,1,1,2,2,3,3,4,4,5,5,6,6,7,7,8,8,9,9,11,11,12,12,13,13,14,14,15,15,16,16,17,17,18,18,19,19,20,20,21,21,22,22,23,23,24,24,25,25,26,26,28,28],"right_children":[2,4,6,8,10,12,14,16,18,20,-1,22,24,26,28,30,32,34,36,38,40,42,44,46,48,50,52,-1,54,-1,-1,-1,-1,-1,-1,-1,-1,-1,-1,-1,-1,-1,-1,-1,-1,-1,-1,-1,-1,-1,-1,-1,-1,-1,-1],"split_conditions":[2.5881904E-1,5E0,7.0710677E-1,1.57E1,6.123234E-17,1E0,6.234898E-1,1E0,-5E-1,-2.5881904E-1,-7.599947E-2,1E0,8.660254E-1,4E0,2E0,-1.8369701E-16,6.123234E-17,-8.660254E-1,1E0,3E0,-8.660254E-1,5E0,6.123234E-17,1E0,3E0,1E1,1E0,-7.795001E-2,2.58E1,2.2450088E-2,2.423952E-3,4.584857E-2,-9.9642046E-2,3.9695956E-2,-2.935374E-3,5.9949506E-2,7.26997E-2,-3.2779735E-2,-8.5509885E-3,-8.6064674E-2,-2.4601273E-2,-3.1438112E-2,-4.8859205E-2,4.4424247E-2,-8.3172135E-2,-8.4499195E-2,4.9242564E-2,1.4731635E-2,7.0481874E-2,-7.458272E-2,-5.973388E-2,-5.9961166E-2,8.874893E-3,-5.3866055E-2,1.6641652E-2],"split_indices":[5,2,5,31,5,15,9,13,5,5,0,26,11,2,10,5,5,5,18,10,12,10,12,20,2,10,23,0,31,0,0,0,0,0,0,0,0,0,0,0,0,0,0,0,0,0,0,0,0,0,0,0,0,0,0],"split_type":[0,0,0,0,0,0,0,0,0,0,0,0,0,0,0,0,0,0,0,0,0,0,0,0,0,0,0,0,0,0,0,0,0,0,0,0,0,0,0,0,0,0,0,0,0,0,0,0,0,0,0,0,0,0,0],"sum_hessian":[2.4255637E4,1.7869795E4,6.3858433E3,1.4839748E4,3.0300461E3,2.5987034E3,3.78714E3,1.3202631E4,1.6371172E3,2.8882727E3,1.417736E2,2.5305776E3,6.812558E1,2.1180361E3,1.6691036E3,1.1744833E4,1.4577977E3,2.9162863E2,1.3454885E3,2.2526306E3,6.35642E2,2.478054E3,5.2523792E1,3.159268E1,3.65329E1,1.0166191E3,1.1014171E3,1.5134097E2,1.5177626E3,1.0209721E4,1.5351125E3,1.4511945E3,6.6033688E0,1.740927E2,1.1753592E2,9.051245E2,4.40364E2,3.424732E2,1.9101573E3,3.6599575E1,5.990424E2,9.5729144E2,1.5207625E3,3.9983677E1,1.2540115E1,1.2828912E1,1.8763767E1,1.2025636E1,2.4507267E1,8.0303455E2,2.1358458E2,1.0872675E3,1.4149652E1,1.5055664E3,1.2196238E1],"tree_param":{"num_deleted":"0","num_feature":"34","num_nodes":"55","size_leaf_vector":"1"}},{"base_weights":[-2.5641064E-3,-1.115832E-1,1.021729E0,2.1798484E-2,-5.839862E-1,9.467744E-1,1.3749377E0,-4.2992953E-2,7.771905E-1,-6.1854535E-1,6.4402163E-1,8.607867E-1,1.2523566E0,1.3951087E0,-7.8845985E-2,-8.857308E-2,7.728223E-1,1.2812045E0,6.300676E-1,-9.153132E-1,-5.3153604E-1,-6.191971E-1,9.016794E-1,-1.4137214E-1,8.9422333E-1,1.2631303E0,-6.785396E-2,1.4078703E0,6.849456E-1,-6.4318776E-3,2.6667614E-2,-1.9393918E-4,4.3292116E-2,6.5860815E-2,-9.069434E-2,1.7215995E-2,4.130524E-2,-7.205706E-2,-3.388436E-2,-2.7836217E-2,2.9553896E-2,-8.7165736E-2,8.840268E-2,6.540906E-2,1.9230856E-2,3.669678E-2,-9.8939665E-2,4.5134988E-2,-8.299845E-2,6.483892E-2,4.135773E-2,7.076802E-2,4.418229E-2,-6.774923E-2,6.759794E-2],"categories":[],"categories_nodes":[],"categories_segments":[],"categories_sizes":[],"default_left":[0,0,0,0,0,0,0,0,0,0,0,0,0,0,0,0,0,0,0,0,0,0,0,0,0,0,0,0,0,0,0,0,0,0,0,0,0,0,0,0,0,0,0,0,0,0,0,0,0,0,0,0,0,0,0],"id":9,"left_children":[1,3,5,7,9,11,13,15,17,19,21,23,25,27,-1,29,31,33,35,37,39,41,43,45,47,49,-1,51,53,-1,-1,-1,-1,-1,-1,-1,-1,-1,-1,-1,-1,-1,-1,-1,-1,-1,-1,-1,-1,-1,-1,-1,-1,-1,-1],"loss_changes":[2.6848237E3,1.3692292E3,5.99292E1,8.294492E2,2.0345056E2,4.913977E1,2.6175964E1,5.804818E2,9.846527E1,1.1969043E2,4.3343704E1,5.0210938E1,1.3450928E1,2.6651611E0,0E0,3.684378E2,5.9683167E1,3.59971E1,5.7875122E1,1.30695E2,1.0216321E2,6.443631E1,2.2531418E1,8.045606E1,3.2816406E1,5.0341797E0,0E0,2.9034424E-1,1.410078E1,0E0,0E0,0E0,0E0,0E0,0E0,0E0,0E0,0E0,0E0,0E0,0E0,0E0,0E0,0E0,0E0,0E0,0E0,0E0,0E0,0E0,0E0,0E0,0E0,0E0,0E0],"parents":[2147483647,0,0,1,1,2,2,3,3,4,4,5,5,6,6,7,7,8,8,9,9,10,10,11,11,12,12,13,13,15,15,16,16,17,17,18,18,19,19,20,20,21,21,22,22,23,23,24,24,25,25,27,27,28,28],"right_children":[2,4,6,8,10,12,14,16,18,20,22,24,26,28,-1,30,32,34,36,38,40,42,44,46,48,50,-1,52,54,-1,-1,-1,-1,-1,-1,-1,-1,-1,-1,-1,-1,-1,-1,-1,-1,-1,-1,-1,-1,-1,-1,-1,-1,-1,-1],"split_conditions":[1E0,5E0,2.2E1,1E0,1E0,5.6E0,1E0,5.1E0,1.2E1,1.5E1,-1.8369701E-16,2E0,3.8E1,6.234898E-1,-7.8845985E-2,3.4E0,2E0,3.32E1,6.123234E-17,5E0,1E0,3.63E1,5E0,2E0,7.01E1,4.5E1,-6.785396E-2,4.5E0,5.33E1,-6.4318776E-3,2.6667614E-2,-1.9393918E-4,4.3292116E-2,6.5860815E-2,-9.069434E-2,1.7215995E-2,4.130524E-2,-7.205706E-2,-3.388436E-2,-2.7836217E-2,2.9553896E-2,-8.7165736E-2,8.840268E-2,6.540906E-2,1.9230856E-2,3.669678E-2,-9.8939665E-2,4.5134988E-2,-8.299845E-2,6.483892E-2,4.135773E-2,7.076802E-2,4.418229E-2,-6.774923E-2,6.759794E-2],"split_indices":[19,2,32,13,23,27,23,32,27,1,7,10,30,9,0,29,2,29,12,10,20,32,10,2,33,1,0,29,28,0,0,0,0,0,0,0,0,0,0,0,0,0,0,0,0,0,0,0,0,0,0,0,0,0,0],"split_type":[0,0,0,0,0,0,0,0,0,0,0,0,0,0,0,0,0,0,0,0,0,0,0,0,0,0,0,0,0,0,0,0,0,0,0,0,0,0,0,0,0,0,0,0,0,0,0,0,0,0,0,0,0,0,0],"sum_hessian":[2.4040996E4,2.1729174E4,2.311821E3,1.6945588E4,4.783586E3,1.9101483E3,4.0167264E2,1.5607818E4,1.3377698E3,4.653132E3,1.3045395E2,1.4936633E3,4.16485E2,3.994703E2,2.2023447E0,1.4782786E4,8.250325E2,3.005244E2,1.0372454E3,1.0527919E3,3.60034E3,2.1863008E1,1.0859094E2,4.8122253E1,1.4455411E3,4.1528632E2,1.1986512E0,3.9145343E2,8.016869E0,1.3888858E4,8.93928E2,8.8342834E1,7.3668964E2,2.976358E2,2.8886085E0,4.2317432E2,6.1407104E2,3.2610632E2,7.2668555E2,3.5218242E3,7.8515724E1,1.5047244E1,6.815764E0,5.9938633E1,4.8652313E1,3.3001575E1,1.5120676E1,1.4414042E3,4.136879E0,3.8369843E2,3.1587915E1,3.8426312E2,7.1902876E0,1.7212721E0,6.2955966E0],"tree_param":{"num_deleted":"0","num_feature":"34","num_nodes":"55","size_leaf_vector":"1"}},{"base_weights":[4.826374E-3,3.566543E-1,-9.811048E-1,4.9580246E-1,-3.2688716E-1,-5.725084E-1,-1.3138132E0,9.1227245E-1,2.3632169E-1,-1.0641547E0,-1.8448508E-1,-1.9668917E-1,-7.385045E-1,-1.3257873E0,8.7033904E-1,7.743672E-1,1.2490379E0,2.8607598E-1,1.2327402E-3,-1.2973075E0,-7.233053E-1,-8.8512294E-2,-5.405376E-1,-4.2531088E-1,4.837959E-2,-6.6991377E-1,-1.195345E0,-1.1799588E0,-1.446221E0,7.328663E-2,-6.4506136E-2,3.3130974E-2,6.024437E-2,6.309071E-2,3.0347144E-2,1.6187144E-2,-8.250161E-3,-3.595465E-3,4.17901E-2,-6.833672E-2,-3.6197755E-2,-3.015207E-3,-5.23094E-2,-6.7554014E-3,3.380612E-2,-3.3171773E-3,-4.7220588E-2,-8.625332E-2,-1.7294433E-2,1.6146895E-2,-1.30894855E-2,-1.3323388E-2,-3.7357967E-2,-5.089978E-2,-7.920926E-2,-6.273E-2,-4.543314E-2,-6.868057E-2,-7.351174E-2],"categories":[],"categories_nodes":[],"categories_segments":[],"categories_sizes":[],"default_left":[0,0,0,0,0,0,0,0,0,0,0,0,0,0,0,0,0,0,0,0,0,0,0,0,0,0,0,0,0,0,0,0,0,0,0,0,0,0,0,0,0,0,0,0,0,0,0,0,0,0,0,0,0,0,0,0,0,0,0],"id":10,"left_children":[1,3,5,7,9,11,13,15,17,19,21,23,25,27,29,31,33,35,37,39,41,43,45,47,49,51,53,55,57,-1,-1,-1,-1,-1,-1,-1,-1,-1,-1,-1,-1,-1,-1,-1,-1,-1,-1,-1,-1,-1,-1,-1,-1,-1,-1,-1,-1,-1,-1],"loss_changes":[8.32243E3,1.6819993E3,8.5704346E2,1.5874944E3,3.1386328E2,1.7663806E2,9.209326E1,2.6094336E2,1.05895294E2,3.7528076E1,8.566538E1,4.87395E1,6.077954E1,5.9035645E1,2.7054806E1,1.9182031E2,1.2662109E1,1.27009766E2,9.665306E1,1.0401794E1,4.250943E1,7.052819E1,1.0189354E2,4.585354E1,3.5900497E1,5.3121765E1,1.5990753E1,3.0648438E1,1.2756348E0,0E0,0E0,0E0,0E0,0E0,0E0,0E0,0E0,0E0,0E0,0E0,0E0,0E0,0E0,0E0,0E0,0E0,0E0,0E0,0E0,0E0,0E0,0E0,0E0,0E0,0E0,0E0,0E0,0E0,0E0],"parents":[2147483647,0,0,1,1,2,2,3,3,4,4,5,5,6,6,7,7,8,8,9,9,10,10,11,11,12,12,13,13,14,14,15,15,16,16,17,17,18,18,19,19,20,20,21,21,22,22,23,23,24,24,25,25,26,26,27,27,28,28],"right_children":[2,4,6,8,10,12,14,16,18,20,22,24,26,28,30,32,34,36,38,40,42,44,46,48,50,52,54,56,58,-1,-1,-1,-1,-1,-1,-1,-1,-1,-1,-1,-1,-1,-1,-1,-1,-1,-1,-1,-1,-1,-1,-1,-1,-1,-1,-1,-1,-1,-1],"split_conditions":[2.5881904E-1,5E0,-2.5881904E-1,9E0,9E0,2E1,2.21E1,1E0,4E0,8E0,1E0,6.234898E-1,1.1E1,5E-1,-5E-1,1E0,1E0,1.8E1,1E0,1.2E1,0E0,1E0,-2.4492937E-16,2E0,6E0,-7.818315E-1,2.2E1,1E1,3E0,7.328663E-2,-6.4506136E-2,3.3130974E-2,6.024437E-2,6.309071E-2,3.0347144E-2,1.6187144E-2,-8.250161E-3,-3.595465E-3,4.17901E-2,-6.833672E-2,-3.6197755E-2,-3.015207E-3,-5.23094E-2,-6.7554014E-3,3.380612E-2,-3.3171773E-3,-4.7220588E-2,-8.625332E-2,-1.7294433E-2,1.6146895E-2,-1.30894855E-2,-1.3323388E-2,-3.7357967E-2,-5.089978E-2,-7.920926E-2,-6.273E-2,-4.543314E-2,-6.868057E-2,-7.351174E-2],"split_indices":[5,2,4,0,0,0,28,19,2,0,7,9,10,4,11,17,22,0,26,10,6,17,11,10,10,8,0,10,0,0,0,0,0,0,0,0,0,0,0,0,0,0,0,0,0,0,0,0,0,0,0,0,0,0,0,0,0,0,0],"split_type":[0,0,0,0,0,0,0,0,0,0,0,0,0,0,0,0,0,0,0,0,0,0,0,0,0,0,0,0,0,0,0,0,0,0,0,0,0,0,0,0,0,0,0,0,0,0,0,0,0,0,0,0,0,0,0,0,0,0,0],"sum_hessian":[2.3990365E4,1.768142E4,6.308947E3,1.4691046E4,2.9903735E3,2.8327683E3,3.4761785E3,5.638563E3,9.052482E3,4.8303778E2,2.5073357E3,8.6854535E2,1.964223E3,3.457616E3,1.8562576E1,4.002742E3,1.6358209E3,7.4710835E3,1.5813989E3,2.8516736E2,1.9787042E2,1.9759685E3,5.3136725E2,4.4897058E2,4.1957474E2,1.7099542E3,2.5426881E2,1.5688066E3,1.8888093E3,1.4804284E1,3.7582922E0,3.1798933E3,8.2284863E2,1.60296E3,3.286099E1,6.895559E3,5.755245E2,1.4548124E3,1.2658659E2,2.5313199E2,3.2035374E1,6.519239E1,1.3267802E2,1.8632482E3,1.1272034E2,2.4494194E2,2.8642532E2,2.4661503E1,4.2430908E2,2.2254196E2,1.9703278E2,2.754992E2,1.4344551E3,1.7710812E2,7.716069E1,1.2274706E3,3.413361E2,4.8389032E2,1.4049191E3],"tree_param":{"num_deleted":"0","num_feature":"34","num_nodes":"59","size_leaf_vector":"1"}},{"base_weights":[-3.305851E-3,3.3170748E-1,-9.44162E-1,-3.0723476E-1,4.6370694E-1,-4.9627945E-1,-1.3244334E0,-1.4041224E-1,-8.8549954E-1,2.359046E-1,8.5358924E-1,-1.0784974E-1,-6.722968E-1,-1.336636E0,8.706384E-1,-1.7989497E-1,7.493309E-1,-6.2939996E-1,-1.2578572E0,2.049693E-1,6.6113365E-1,9.641521E-1,4.2682052E-1,1.1003397E-3,-5.8181727E-1,-6.908305E-1,1.5233124E0,-1.2634417E0,-1.4360483E0,1.2873704E0,-5.8986533E-2,-1.0981875E-2,3.672431E-2,4.7134746E-2,-8.659141E-2,-3.3793658E-2,7.342779E-2,-6.642527E-2,-3.5775393E-2,8.644222E-3,2.8991882E-2,3.8440686E-2,-4.330529E-3,3.199793E-2,5.641104E-2,3.2721832E-2,-8.603274E-2,-2.845517E-3,3.889624E-2,1.43185975E-2,-5.8608312E-2,-2.5148457E-2,-3.995453E-2,9.5145926E-2,-5.664436E-2,-5.7356235E-2,-7.1719706E-2,-6.658908E-2,-7.281253E-2,-4.9420174E-2,7.857836E-2],"categories":[],"categories_nodes":[],"categories_segments":[],"categories_sizes":[],"default_left":[0,0,0,0,0,0,0,0,0,0,0,0,0,0,0,0,0,0,0,0,0,0,0,0,0,0,0,0,0,0,0,0,0,0,0,0,0,0,0,0,0,0,0,0,0,0,0,0,0,0,0,0,0,0,0,0,0,0,0,0,0],"id":11,"left_children":[1,3,5,7,9,11,13,15,17,19,21,23,25,27,29,31,33,35,37,39,41,43,45,47,49,51,53,55,57,59,-1,-1,-1,-1,-1,-1,-1,-1,-1,-1,-1,-1,-1,-1,-1,-1,-1,-1,-1,-1,-1,-1,-1,-1,-1,-1,-1,-1,-1,-1,-1],"loss_changes":[7.454968E3,1.4711383E3,1.0570713E3,2.880115E2,1.2836697E3,1.9500647E2,9.111084E1,8.161081E1,6.2962708E1,1.19908264E2,2.5112012E2,4.6008476E1,8.0944824E1,2.248877E1,1.7898739E1,8.089258E1,4.90051E1,3.980876E1,9.449951E0,1.0223294E2,4.9859528E1,2.2443652E2,5.381553E2,3.2735092E1,8.568579E1,3.920746E1,1.904102E1,3.6770508E1,1.0283203E0,1.2166903E1,0E0,0E0,0E0,0E0,0E0,0E0,0E0,0E0,0E0,0E0,0E0,0E0,0E0,0E0,0E0,0E0,0E0,0E0,0E0,0E0,0E0,0E0,0E0,0E0,0E0,0E0,0E0,0E0,0E0,0E0,0E0],"parents":[2147483647,0,0,1,1,2,2,3,3,4,4,5,5,6,6,7,7,8,8,9,9,10,10,11,11,12,12,13,13,14,14,15,15,16,16,17,17,18,18,19,19,20,20,21,21,22,22,23,23,24,24,25,25,26,26,27,27,28,28,29,29],"right_children":[2,4,6,8,10,12,14,16,18,20,22,24,26,28,30,32,34,36,38,40,42,44,46,48,50,52,54,56,58,60,-1,-1,-1,-1,-1,-1,-1,-1,-1,-1,-1,-1,-1,-1,-1,-1,-1,-1,-1,-1,-1,-1,-1,-1,-1,-1,-1,-1,-1,-1,-1],"split_conditions":[2.5881904E-1,-4.3388373E-1,-2.5881904E-1,7.0710677E-1,8.660254E-1,-8.660254E-1,2.21E1,9.3E0,9.659258E-1,6.9E0,1E0,8.660254E-1,5.6E1,4.3388373E-1,3.46E1,1E0,1E0,8.1E0,1.2E1,1E0,9.749279E-1,9.659258E-1,1E0,3.7E0,-4.3388373E-1,-7.0710677E-1,-5E-1,7.0710677E-1,3E0,7E0,-5.8986533E-2,-1.0981875E-2,3.672431E-2,4.7134746E-2,-8.659141E-2,-3.3793658E-2,7.342779E-2,-6.642527E-2,-3.5775393E-2,8.644222E-3,2.8991882E-2,3.8440686E-2,-4.330529E-3,3.199793E-2,5.641104E-2,3.2721832E-2,-8.603274E-2,-2.845517E-3,3.889624E-2,1.43185975E-2,-5.8608312E-2,-2.5148457E-2,-3.995453E-2,9.5145926E-2,-5.664436E-2,-5.7356235E-2,-7.1719706E-2,-6.658908E-2,-7.281253E-2,-4.9420174E-2,7.857836E-2],"split_indices":[5,8,4,4,4,4,28,33,4,28,4,12,31,8,28,23,7,29,10,26,8,4,7,29,8,4,12,4,10,10,0,0,0,0,0,0,0,0,0,0,0,0,0,0,0,0,0,0,0,0,0,0,0,0,0,0,0,0,0,0,0],"split_type":[0,0,0,0,0,0,0,0,0,0,0,0,0,0,0,0,0,0,0,0,0,0,0,0,0,0,0,0,0,0,0,0,0,0,0,0,0,0,0,0,0,0,0,0,0,0,0,0,0,0,0,0,0,0,0,0,0,0,0,0,0],"sum_hessian":[2.3649605E4,1.7440252E4,6.2093525E3,2.9858665E3,1.4454386E4,2.8522666E3,3.357086E3,2.3183057E3,6.675608E2,9.124616E3,5.32977E3,8.899548E2,1.9623118E3,3.338916E3,1.8170107E1,2.220565E3,9.774069E1,3.9712033E2,2.7044046E2,8.507201E3,6.174144E2,4.2321016E3,1.0976685E3,7.244292E2,1.6552559E2,1.9465657E3,1.574608E1,1.930937E3,1.4079789E3,1.541016E1,2.7599473E0,2.1287988E3,9.176598E1,9.124942E1,6.491277E0,3.8917725E2,7.9430785E0,2.3798965E2,3.245081E1,7.8378257E3,6.6937573E2,5.396703E2,7.774418E1,1.4237423E3,2.8083594E3,9.9310236E2,1.0456608E2,6.749527E2,4.9476494E1,6.7205536E1,9.832005E1,7.137156E2,1.2328501E3,1.4025277E1,1.720804E0,1.1536776E3,7.7725934E2,2.393878E2,1.1685912E3,1.4356846E0,1.3974475E1],"tree_param":{"num_deleted":"0","num_feature":"34","num_nodes":"61","size_leaf_vector":"1"}},{"base_weights":[6.1341294E-4,-1.3435738E0,1.7731954E-1,-1.2420627E0,-6.984423E-2,3.206066E-1,-5.695163E-1,-8.61154E-1,-1.2828199E0,4.4856787E-1,-2.9120734E-1,-3.947668E-1,-9.2602247E-1,-7.035096E-2,4.0567286E-2,-1.3688004E0,-1.162277E0,8.309622E-1,2.2469346E-1,-1.049688E0,-1.533853E-1,-1.7700933E-1,-5.348815E-1,-7.211727E-1,-1.152176E0,4.0806603E-2,-6.83519E-2,-7.113912E-2,-6.055644E-2,-5.3471893E-2,-7.299777E-2,1.8618185E-2,4.7226634E-2,1.3716041E-2,-7.0855266E-4,-6.616423E-2,-3.354461E-2,-9.7615635E-3,3.9065097E-2,-2.4822955E-3,-3.611169E-2,-2.3827035E-2,-6.391161E-2,-3.1197874E-2,-5.3487062E-2,-5.9798468E-2,4.9781006E-2],"categories":[],"categories_nodes":[],"categories_segments":[],"categories_sizes":[],"default_left":[0,0,0,0,0,0,0,0,0,0,0,0,0,0,0,0,0,0,0,0,0,0,0,0,0,0,0,0,0,0,0,0,0,0,0,0,0,0,0,0,0,0,0,0,0,0,0],"id":12,"left_children":[1,3,5,7,-1,9,11,13,15,17,19,21,23,-1,25,27,29,31,33,35,37,39,41,43,45,-1,-1,-1,-1,-1,-1,-1,-1,-1,-1,-1,-1,-1,-1,-1,-1,-1,-1,-1,-1,-1,-1],"loss_changes":[5.6016196E3,1.3092773E1,2.230647E3,1.3682983E1,0E0,1.3692837E3,2.086842E2,4.6871826E1,7.305786E0,1.2380437E3,3.1612732E2,6.866327E1,5.0269653E1,0E0,4.1329742E1,2.4934692E0,8.498291E0,2.7780762E2,1.0816461E2,4.7311462E1,1.0034346E2,6.1337097E1,5.883664E1,1.9035583E1,5.0344116E1,0E0,0E0,0E0,0E0,0E0,0E0,0E0,0E0,0E0,0E0,0E0,0E0,0E0,0E0,0E0,0E0,0E0,0E0,0E0,0E0,0E0,0E0],"parents":[2147483647,0,0,1,1,2,2,3,3,5,5,6,6,7,7,8,8,9,9,10,10,11,11,12,12,14,14,15,15,16,16,17,17,18,18,19,19,20,20,21,21,22,22,23,23,24,24],"right_children":[2,4,6,8,-1,10,12,14,16,18,20,22,24,-1,26,28,30,32,34,36,38,40,42,44,46,-1,-1,-1,-1,-1,-1,-1,-1,-1,-1,-1,-1,-1,-1,-1,-1,-1,-1,-1,-1,-1,-1],"split_conditions":[6E0,2E0,1.9E1,-8.660254E-1,-6.984423E-2,5E0,2.2E1,5E0,5E-1,9E0,9E0,2E1,3E1,-7.035096E-2,1E0,1E0,1E0,7E0,4E0,8E0,1E0,8.660254E-1,1E0,8.660254E-1,1E0,4.0806603E-2,-6.83519E-2,-7.113912E-2,-6.055644E-2,-5.3471893E-2,-7.299777E-2,1.8618185E-2,4.7226634E-2,1.3716041E-2,-7.0855266E-4,-6.616423E-2,-3.354461E-2,-9.7615635E-3,3.9065097E-2,-2.4822955E-3,-3.611169E-2,-2.3827035E-2,-6.391161E-2,-3.1197874E-2,-5.3487062E-2,-5.9798468E-2,4.9781006E-2],"split_indices":[0,0,0,12,0,2,0,2,12,0,0,0,1,0,0,6,12,0,2,0,23,12,12,12,13,0,0,0,0,0,0,0,0,0,0,0,0,0,0,0,0,0,0,0,0,0,0],"split_type":[0,0,0,0,0,0,0,0,0,0,0,0,0,0,0,0,0,0,0,0,0,0,0,0,0,0,0,0,0,0,0,0,0,0,0,0,0,0,0,0,0,0,0,0,0,0,0],"sum_hessian":[2.3581168E4,2.7390283E3,2.084214E4,9.5151184E2,1.7875166E3,1.7487566E4,3.3545735E3,9.410972E1,8.574021E2,1.4462908E4,3.0246592E3,2.2525452E3,1.1020283E3,5.827316E1,3.5836555E1,4.9440164E2,3.630005E2,5.3396587E3,9.123249E3,4.6407635E2,2.5605828E3,8.8280615E2,1.369739E3,5.804478E2,5.215805E2,2.3376648E1,1.2459907E1,3.6232788E2,1.3207376E2,2.8020383E2,8.279666E1,1.0607242E3,4.278934E3,7.5537144E3,1.569535E3,2.680069E2,1.9606946E2,2.451615E3,1.08967766E2,7.165196E2,1.6628659E2,1.2715818E3,9.815718E1,4.5604703E2,1.2440076E2,5.1159238E2,9.988147E0],"tree_param":{"num_deleted":"0","num_feature":"34","num_nodes":"47","size_leaf_vector":"1"}},{"base_weights":[2.6399175E-2,3.294346E-1,-8.6146086E-1,4.5624557E-1,-3.0321473E-1,-1.2639779E0,-5.376893E-1,8.1840646E-1,2.4567609E-1,-1.0543799E0,-1.7158899E-1,-1.1759259E0,-6.789713E-2,-2.329144E-1,-8.2604325E-1,6.921611E-1,1.1519746E0,2.9016212E-1,3.791497E-2,-1.1869756E0,-1.7481019E-1,-2.0309328E-1,9.5559657E-1,-1.2394588E0,-8.445679E-1,-1.5290955E-1,-8.7176114E-1,-8.675945E-1,6.27398E-1,2.9159782E-2,5.5822033E-2,5.8319855E-2,2.964978E-2,1.2894156E-2,3.450208E-2,3.222745E-3,-1.0707301E-1,-7.2459936E-2,-4.73716E-2,2.2290166E-2,-7.2721675E-2,-1.2292175E-2,2.8329615E-2,-1.1412276E-2,6.7520574E-2,-6.488628E-2,-5.5060893E-2,-1.774528E-2,-6.0572565E-2,-6.105601E-3,-8.4991485E-2,-6.799791E-2,-1.3983921E-3,-5.052128E-2,-3.4450002E-2,-6.8727E-2,5.222101E-2],"categories":[],"categories_nodes":[],"categories_segments":[],"categories_sizes":[],"default_left":[0,0,0,0,0,0,0,0,0,0,0,0,0,0,0,0,0,0,0,0,0,0,0,0,0,0,0,0,0,0,0,0,0,0,0,0,0,0,0,0,0,0,0,0,0,0,0,0,0,0,0,0,0,0,0,0,0],"id":13,"left_children":[1,3,5,7,9,11,13,15,17,19,21,23,-1,25,27,29,31,33,35,37,39,41,43,45,47,49,51,53,55,-1,-1,-1,-1,-1,-1,-1,-1,-1,-1,-1,-1,-1,-1,-1,-1,-1,-1,-1,-1,-1,-1,-1,-1,-1,-1,-1,-1],"loss_changes":[6.3623833E3,1.4145348E3,7.835171E2,1.1197991E3,2.9093634E2,2.0591309E1,2.9303815E2,2.2657202E2,8.58363E1,5.0970398E1,8.920462E1,2.8255127E1,0E0,8.284538E1,1.0406238E2,1.8054688E2,1.1247192E1,9.8567566E1,9.495214E1,2.256897E1,4.723207E1,8.039997E1,3.224431E1,7.9611816E0,4.0363556E1,6.8587875E1,7.430669E1,4.1823853E1,4.169319E1,0E0,0E0,0E0,0E0,0E0,0E0,0E0,0E0,0E0,0E0,0E0,0E0,0E0,0E0,0E0,0E0,0E0,0E0,0E0,0E0,0E0,0E0,0E0,0E0,0E0,0E0,0E0,0E0],"parents":[2147483647,0,0,1,1,2,2,3,3,4,4,5,5,6,6,7,7,8,8,9,9,10,10,11,11,13,13,14,14,15,15,16,16,17,17,18,18,19,19,20,20,21,21,22,22,23,23,24,24,25,25,26,26,27,27,28,28],"right_children":[2,4,6,8,10,12,14,16,18,20,22,24,-1,26,28,30,32,34,36,38,40,42,44,46,48,50,52,54,56,-1,-1,-1,-1,-1,-1,-1,-1,-1,-1,-1,-1,-1,-1,-1,-1,-1,-1,-1,-1,-1,-1,-1,-1,-1,-1,-1,-1],"split_conditions":[2.5881904E-1,1E0,6E0,9E0,9E0,3E0,2.1E1,1E0,1.7E1,1.2E1,3.9E1,1.1E1,-6.789713E-2,1.1E1,1E0,1E0,1E0,6.4E0,3.045E1,3E1,3E1,1E0,7E0,1E0,1.2E1,3.4E0,1E0,6.234898E-1,5.6655387E-16,2.9159782E-2,5.5822033E-2,5.8319855E-2,2.964978E-2,1.2894156E-2,3.450208E-2,3.222745E-3,-1.0707301E-1,-7.2459936E-2,-4.73716E-2,2.2290166E-2,-7.2721675E-2,-1.2292175E-2,2.8329615E-2,-1.1412276E-2,6.7520574E-2,-6.488628E-2,-5.5060893E-2,-1.774528E-2,-6.0572565E-2,-6.105601E-3,-8.4991485E-2,-6.799791E-2,-1.3983921E-3,-5.052128E-2,-3.4450002E-2,-6.8727E-2,5.222101E-2],"split_indices":[5,3,0,0,0,0,0,19,0,10,32,10,0,10,23,17,22,28,27,1,1,17,10,3,10,30,3,9,6,0,0,0,0,0,0,0,0,0,0,0,0,0,0,0,0,0,0,0,0,0,0,0,0,0,0,0,0],"split_type":[0,0,0,0,0,0,0,0,0,0,0,0,0,0,0,0,0,0,0,0,0,0,0,0,0,0,0,0,0,0,0,0,0,0,0,0,0,0,0,0,0,0,0,0,0,0,0,0,0,0,0,0,0,0,0,0,0],"sum_hessian":[2.3645266E4,1.7628957E4,6.0163086E3,1.4685592E4,2.9433652E3,2.68071E3,3.3355986E3,5.398229E3,9.287362E3,4.3781583E2,2.5055493E3,1.3908713E3,1.2898386E3,1.6225044E3,1.7130942E3,3.9183333E3,1.4798956E3,7.6491274E3,1.6382354E3,3.8015738E2,5.7658432E1,2.438222E3,6.732732E1,1.164798E3,2.2607343E2,1.4430286E3,1.7947581E2,1.665873E3,4.7221203E1,3.1195344E3,7.987989E2,1.4416129E3,3.8282696E1,7.0793174E3,5.6981006E2,1.619484E3,1.8751276E1,1.7907646E2,2.0108092E2,3.92661E1,1.839233E1,2.310568E3,1.2765396E2,1.6943768E1,5.038355E1,8.1352203E2,3.5127594E2,9.767648E1,1.2839694E2,1.4159181E3,2.7110485E1,1.1330738E2,6.6168434E1,9.230252E2,7.4284784E2,7.7449684E0,3.9476234E1],"tree_param":{"num_deleted":"0","num_feature":"34","num_nodes":"57","size_leaf_vector":"1"}},{"base_weights":[8.991354E-3,-7.338459E-2,8.4157103E-1,-1.2968235E-1,7.1193635E-1,7.486313E-1,1.1533074E0,-2.8399626E-2,-4.8021626E-1,7.732351E-1,2.7526057E-1,6.5569305E-1,1.0787619E0,1.1721071E0,-9.6614055E-2,-7.565388E-2,5.936723E-1,-5.14446E-1,6.924031E-1,6.950647E-1,1.1583552E0,4.3504918E-1,-7.225548E-2,5.907742E-1,1.0692582E0,9.5050627E-1,1.2459092E0,1.1875228E0,-7.281397E-2,-5.771129E-3,2.7862018E-2,3.1142846E-2,-9.993984E-2,-2.6601022E-2,1.540032E-2,-2.1704916E-2,4.4842925E-2,3.597785E-2,-2.207589E-2,5.9486743E-2,-9.2981435E-2,9.27494E-3,7.000683E-2,2.688094E-2,5.500145E-2,5.5801123E-2,-9.228119E-2,-1.18133835E-1,5.14082E-2,6.45432E-2,1.6822666E-2,5.3379443E-2,6.392031E-2],"categories":[],"categories_nodes":[],"categories_segments":[],"categories_sizes":[],"default_left":[0,0,0,0,0,0,0,0,0,0,0,0,0,0,0,0,0,0,0,0,0,0,0,0,0,0,0,0,0,0,0,0,0,0,0,0,0,0,0,0,0,0,0,0,0,0,0,0,0,0,0,0,0],"id":14,"left_children":[1,3,5,7,9,11,13,15,17,19,21,23,25,27,-1,29,31,33,35,37,39,41,-1,43,45,47,49,51,-1,-1,-1,-1,-1,-1,-1,-1,-1,-1,-1,-1,-1,-1,-1,-1,-1,-1,-1,-1,-1,-1,-1,-1,-1],"loss_changes":[1.6011221E3,9.393058E2,6.003247E1,7.037743E2,3.7828796E1,4.9057556E1,3.0159058E1,4.52167E2,1.7871875E2,3.6696228E1,4.9146194E1,3.341742E1,6.420929E0,2.1120605E1,0E0,3.59877E2,8.3410675E1,6.25802E1,2.9515945E1,2.9213104E1,2.1975311E1,3.8819412E1,0E0,2.9141235E1,2.53461E1,5.5161682E1,5.7313843E0,3.8272705E0,0E0,0E0,0E0,0E0,0E0,0E0,0E0,0E0,0E0,0E0,0E0,0E0,0E0,0E0,0E0,0E0,0E0,0E0,0E0,0E0,0E0,0E0,0E0,0E0,0E0],"parents":[2147483647,0,0,1,1,2,2,3,3,4,4,5,5,6,6,7,7,8,8,9,9,10,10,11,11,12,12,13,13,15,15,16,16,17,17,18,18,19,19,20,20,21,21,23,23,24,24,25,25,26,26,27,27],"right_children":[2,4,6,8,10,12,14,16,18,20,22,24,26,28,-1,30,32,34,36,38,40,42,-1,44,46,48,50,52,-1,-1,-1,-1,-1,-1,-1,-1,-1,-1,-1,-1,-1,-1,-1,-1,-1,-1,-1,-1,-1,-1,-1,-1,-1],"split_conditions":[1E0,5.3E0,3.4E0,5E0,5E0,1E0,3.32E1,4.5E0,1E0,1.81E1,1E0,1.01E1,1E0,5E0,-9.6614055E-2,7.8E0,6.39E1,8.8E0,-5E-1,3.21E1,2.97E1,1E0,-7.225548E-2,2E0,5.84E1,-8.660254E-1,4E0,1E0,-7.281397E-2,-5.771129E-3,2.7862018E-2,3.1142846E-2,-9.993984E-2,-2.6601022E-2,1.540032E-2,-2.1704916E-2,4.4842925E-2,3.597785E-2,-2.207589E-2,5.9486743E-2,-9.2981435E-2,9.27494E-3,7.000683E-2,2.688094E-2,5.500145E-2,5.5801123E-2,-9.228119E-2,-1.18133835E-1,5.14082E-2,6.45432E-2,1.6822666E-2,5.3379443E-2,6.392031E-2],"split_indices":[19,31,31,2,2,13,30,28,23,32,18,28,6,2,0,29,28,29,12,30,29,11,0,19,28,11,2,6,0,0,0,0,0,0,0,0,0,0,0,0,0,0,0,0,0,0,0,0,0,0,0,0,0],"split_type":[0,0,0,0,0,0,0,0,0,0,0,0,0,0,0,0,0,0,0,0,0,0,0,0,0,0,0,0,0,0,0,0,0,0,0,0,0,0,0,0,0,0,0,0,0,0,0,0,0,0,0,0,0],"sum_hessian":[2.3343332E4,2.1242498E4,2.100834E3,1.982232E4,1.4201791E3,1.6209673E3,4.798668E2,1.5379634E4,4.442686E3,1.2446848E3,1.7549431E2,1.2672091E3,3.5375812E2,4.7757718E2,2.289627E0,1.4294651E4,1.0849818E3,4.317224E3,1.2546199E2,1.0370024E3,2.0768231E2,1.6126323E2,1.4231072E1,1.097378E3,1.6983105E2,2.0394981E2,1.4980829E2,4.7533746E2,2.2396965E0,1.3450303E4,8.443489E2,1.0736549E3,1.1326896E1,4.2272476E3,8.997634E1,1.9100344E1,1.0636165E2,1.0154866E3,2.151588E1,2.061447E2,1.5376107E0,1.2907857E2,3.218467E1,9.9552246E2,1.0185565E2,1.6775682E2,2.0742369E0,3.9970257E0,1.9995279E2,1.4235237E2,7.45592E0,2.1041313E2,2.6492435E2],"tree_param":{"num_deleted":"0","num_feature":"34","num_nodes":"53","size_leaf_vector":"1"}},{"base_weights":[-4.9609262E-3,2.8242448E-1,-8.446554E-1,3.9182618E-1,-2.3659272E-1,-4.6480605E-1,-1.1794937E0,1.8415612E-1,7.5674194E-1,-1.0962913E-1,-1.0039227E0,-1.3178141E-1,-6.2187654E-1,-1.1919775E0,9.2110157E-1,-2.8574312E-1,2.2342783E-1,8.5643095E-1,3.829097E-1,-1.4727592E-1,7.415621E-1,-6.539892E-1,-1.256107E0,-1.0073876E-1,-8.538065E-2,-6.403336E-1,1.4547745E0,-1.0987582E0,-1.3283662E0,-5.609108E-2,1.2922127E0,-1.9139983E-2,4.36502E-2,1.38363335E-2,-1.7221945E-3,2.7293367E-2,5.0858885E-2,-2.0252528E-2,5.138104E-2,-9.380486E-3,3.0549124E-2,5.1070083E-2,-8.948262E-2,-2.0158892E-2,-4.627631E-2,-4.7932528E-2,-6.802484E-2,-3.7194917E-3,-8.473386E-2,-3.3274952E-2,5.806754E-3,8.75588E-2,-5.0075658E-2,-6.150719E-2,-4.666595E-2,-6.7468606E-2,-6.304911E-2,7.455141E-2,-3.9346296E-2],"categories":[],"categories_nodes":[],"categories_segments":[],"categories_sizes":[],"default_left":[0,0,0,0,0,0,0,0,0,0,0,0,0,0,0,0,0,0,0,0,0,0,0,0,0,0,0,0,0,0,0,0,0,0,0,0,0,0,0,0,0,0,0,0,0,0,0,0,0,0,0,0,0,0,0,0,0,0,0],"id":15,"left_children":[1,3,5,7,9,11,13,15,17,19,21,23,25,27,29,31,33,35,37,39,41,43,45,47,-1,49,51,53,55,-1,57,-1,-1,-1,-1,-1,-1,-1,-1,-1,-1,-1,-1,-1,-1,-1,-1,-1,-1,-1,-1,-1,-1,-1,-1,-1,-1,-1,-1],"loss_changes":[5.563207E3,9.7533386E2,7.470967E2,1.0748809E3,2.9125195E2,1.440628E2,8.3009766E1,1.6692307E2,1.9139795E2,8.2374916E1,3.663687E1,4.3092766E1,7.2692505E1,3.8024902E1,1.5868179E1,7.881592E1,1.1470792E2,2.0216626E2,5.5155164E2,7.532915E1,7.896595E1,1.1876518E1,6.322052E0,3.6345966E1,0E0,3.541809E1,1.3984531E1,3.907544E1,7.6171875E-2,0E0,8.018272E0,0E0,0E0,0E0,0E0,0E0,0E0,0E0,0E0,0E0,0E0,0E0,0E0,0E0,0E0,0E0,0E0,0E0,0E0,0E0,0E0,0E0,0E0,0E0,0E0,0E0,0E0,0E0,0E0],"parents":[2147483647,0,0,1,1,2,2,3,3,4,4,5,5,6,6,7,7,8,8,9,9,10,10,11,11,12,12,13,13,14,14,15,15,16,16,17,17,18,18,19,19,20,20,21,21,22,22,23,23,25,25,26,26,27,27,28,28,30,30],"right_children":[2,4,6,8,10,12,14,16,18,20,22,24,26,28,30,32,34,36,38,40,42,44,46,48,-1,50,52,54,56,-1,58,-1,-1,-1,-1,-1,-1,-1,-1,-1,-1,-1,-1,-1,-1,-1,-1,-1,-1,-1,-1,-1,-1,-1,-1,-1,-1,-1,-1],"split_conditions":[2.5881904E-1,5E0,-2.5881904E-1,8.660254E-1,8.660254E-1,-8.660254E-1,2.17E1,-9.659258E-1,1E0,1E0,9.659258E-1,5.1E0,5.6E1,7.0710677E-1,5.6655387E-16,1E0,4E0,9.659258E-1,4.5E1,1.3E1,0E0,6E0,-1.8369701E-16,1E0,-8.538065E-2,1E0,3E1,4E0,1E0,-5.609108E-2,0E0,-1.9139983E-2,4.36502E-2,1.38363335E-2,-1.7221945E-3,2.7293367E-2,5.0858885E-2,-2.0252528E-2,5.138104E-2,-9.380486E-3,3.0549124E-2,5.1070083E-2,-8.948262E-2,-2.0158892E-2,-4.627631E-2,-4.7932528E-2,-6.802484E-2,-3.7194917E-3,-8.473386E-2,-3.3274952E-2,5.806754E-3,8.75588E-2,-5.0075658E-2,-6.150719E-2,-4.666595E-2,-6.7468606E-2,-6.304911E-2,7.455141E-2,-3.9346296E-2],"split_indices":[5,2,4,4,4,4,28,4,4,23,4,28,31,4,6,26,2,4,1,31,4,2,7,17,0,23,1,2,6,0,4,0,0,0,0,0,0,0,0,0,0,0,0,0,0,0,0,0,0,0,0,0,0,0,0,0,0,0,0],"split_type":[0,0,0,0,0,0,0,0,0,0,0,0,0,0,0,0,0,0,0,0,0,0,0,0,0,0,0,0,0,0,0,0,0,0,0,0,0,0,0,0,0,0,0,0,0,0,0,0,0,0,0,0,0,0,0,0,0,0,0],"sum_hessian":[2.3051635E4,1.7174371E4,5.877264E3,1.4184681E4,2.9896912E3,2.7546755E3,3.1225886E3,9.041024E3,5.143656E3,2.566223E3,4.234683E2,8.834347E2,1.871241E3,3.1045706E3,1.8018024E1,6.968386E2,8.344186E3,4.059758E3,1.0838977E3,2.4583223E3,1.0790061E2,1.7886568E2,2.4460262E2,8.674113E2,1.6023405E1,1.8554415E3,1.5799339E1,1.8495149E3,1.2550557E3,2.4589455E0,1.5559079E1,6.4360034E2,5.3238274E1,6.914892E3,1.4292941E3,1.3861342E3,2.6736238E3,4.879281E2,5.9596967E2,2.3348765E3,1.23445724E2,9.7696236E1,1.0204374E1,9.427303E1,8.4592636E1,6.618713E1,1.7841548E2,8.543352E2,1.3076094E1,1.7958203E3,5.9621243E1,1.4354267E1,1.4450723E0,1.0272645E3,8.2225037E2,9.422861E2,3.127696E2,1.4459287E1,1.0997918E0],"tree_param":{"num_deleted":"0","num_feature":"34","num_nodes":"59","size_leaf_vector":"1"}},{"base_weights":[1.66891E-2,-1.1964266E0,1.6685553E-1,-1.096106E0,-1.3050746E0,3.154904E-1,-3.9646384E-1,-1.2423917E0,-9.1288084E-1,-6.632535E-2,-1.2373875E0,4.2269018E-1,-2.1529059E-1,-1.332128E-1,-6.039009E-1,-1.0784883E0,-6.714889E-2,-7.585301E-1,-1.1292778E0,-6.614011E-2,-1.0004549E0,7.3451877E-1,2.3438294E-1,-1.1299495E0,-1.2341289E-1,4.1323076E-3,-7.704029E-1,-5.080694E-1,-9.766163E-1,-6.690378E-2,-2.7670667E-2,-5.720055E-2,-2.6516397E-2,-3.670577E-2,-6.74266E-2,-6.543276E-2,-2.180112E-2,1.4361602E-2,4.241391E-2,1.4518867E-2,-1.9363422E-3,-6.0436774E-2,-2.5746701E-2,-5.246446E-3,-8.625904E-2,-1.874201E-3,5.9080254E-2,-5.1205542E-2,-2.5447613E-2,-1.0098804E-2,-2.8276324E-2,-3.5110727E-2,-6.4535886E-2],"categories":[],"categories_nodes":[],"categories_segments":[],"categories_sizes":[],"default_left":[0,0,0,0,0,0,0,0,0,0,0,0,0,0,0,0,0,0,0,0,0,0,0,0,0,0,0,0,0,0,0,0,0,0,0,0,0,0,0,0,0,0,0,0,0,0,0,0,0,0,0,0,0],"id":16,"left_children":[1,3,5,7,9,11,13,15,17,-1,19,21,23,25,27,29,-1,31,33,-1,35,37,39,41,43,45,47,49,51,-1,-1,-1,-1,-1,-1,-1,-1,-1,-1,-1,-1,-1,-1,-1,-1,-1,-1,-1,-1,-1,-1,-1,-1],"loss_changes":[4.202173E3,2.6263916E1,1.7187795E3,3.4442383E1,1.2060547E-1,9.2423584E2,2.3395593E2,1.0673828E1,1.8951202E1,0E0,4.8890686E0,7.933015E2,2.2925967E2,1.6541142E2,8.510852E1,3.8066193E1,0E0,3.0110184E1,2.0223724E1,0E0,1.4293388E1,2.5861426E2,1.2887616E2,1.1445282E1,7.329467E1,7.628643E1,2.1710709E1,3.3452545E1,4.124994E1,0E0,0E0,0E0,0E0,0E0,0E0,0E0,0E0,0E0,0E0,0E0,0E0,0E0,0E0,0E0,0E0,0E0,0E0,0E0,0E0,0E0,0E0,0E0,0E0],"parents":[2147483647,0,0,1,1,2,2,3,3,4,4,5,5,6,6,7,7,8,8,10,10,11,11,12,12,13,13,14,14,15,15,17,17,18,18,20,20,21,21,22,22,23,23,24,24,25,25,26,26,27,27,28,28],"right_children":[2,4,6,8,10,12,14,16,18,-1,20,22,24,26,28,30,-1,32,34,-1,36,38,40,42,44,46,48,50,52,-1,-1,-1,-1,-1,-1,-1,-1,-1,-1,-1,-1,-1,-1,-1,-1,-1,-1,-1,-1,-1,-1,-1,-1],"split_conditions":[6E0,3E0,1.8E1,4E0,1E0,5E0,2E1,-2.4492937E-16,5E-1,-6.632535E-2,8.660254E-1,9E0,8E0,8.660254E-1,2.3E1,6.123234E-17,-6.714889E-2,-5E-1,-7.818315E-1,-6.614011E-2,5E0,7E0,4E0,1E0,1.93E1,4.01E1,1.9E1,-7.818315E-1,3E1,-6.690378E-2,-2.7670667E-2,-5.720055E-2,-2.6516397E-2,-3.670577E-2,-6.74266E-2,-6.543276E-2,-2.180112E-2,1.4361602E-2,4.241391E-2,1.4518867E-2,-1.9363422E-3,-6.0436774E-2,-2.5746701E-2,-5.246446E-3,-8.625904E-2,-1.874201E-3,5.9080254E-2,-5.1205542E-2,-2.5447613E-2,-1.0098804E-2,-2.8276324E-2,-3.5110727E-2,-6.4535886E-2],"split_indices":[0,0,0,2,6,2,0,11,11,0,11,0,0,12,0,12,0,11,8,0,0,0,2,12,27,32,0,8,1,0,0,0,0,0,0,0,0,0,0,0,0,0,0,0,0,0,0,0,0,0,0,0,0],"split_type":[0,0,0,0,0,0,0,0,0,0,0,0,0,0,0,0,0,0,0,0,0,0,0,0,0,0,0,0,0,0,0,0,0,0,0,0,0,0,0,0,0,0,0,0,0,0,0,0,0,0,0,0,0],"sum_hessian":[2.3065314E4,2.539892E3,2.0525422E4,1.3263184E3,1.2135737E3,1.6240673E4,4.2847495E3,7.342877E2,5.920306E2,9.0759595E2,3.0597784E2,1.3511925E4,2.728748E3,1.8890568E3,2.3956926E3,2.8370938E2,4.505783E2,3.4818436E2,2.4384625E2,2.215321E2,8.444575E1,5.0863125E3,8.425611E3,2.4805164E2,2.4806965E3,1.5548955E3,3.3416122E2,1.9075835E3,4.881091E2,1.8881462E2,9.489477E1,1.2798237E2,2.2020198E2,8.856801E1,1.5527824E2,5.3767982E1,3.0677763E1,1.0320306E3,4.054282E3,6.9920103E3,1.4336017E3,2.1902788E2,2.9023758E1,2.45345E3,2.7246653E1,1.5027507E3,5.2144714E1,1.6811139E2,1.6604985E2,3.0219635E2,1.6053871E3,2.6224512E2,2.2586398E2],"tree_param":{"num_deleted":"0","num_feature":"34","num_nodes":"53","size_leaf_vector":"1"}},{"base_weights":[3.6894886E-3,2.6305217E-1,-7.698291E-1,3.6997858E-1,-2.5927782E-1,-1.1835377E0,-4.5415446E-1,6.9746065E-1,1.9250935E-1,-8.975176E-1,-1.5276997E-1,-1.2365166E0,-9.800537E-1,-3.084928E-1,-7.5979096E-1,5.7744724E-1,1.0794215E0,3.5524717E-1,1.10282704E-1,-6.55691E-2,-7.378733E-1,-1.6348936E-1,1.4016179E0,-6.574342E-2,-1.1789556E0,-5.8781815E-1,-1.230853E0,-2.5287288E-1,-1.1120442E0,-5.1146764E-1,-1.1553597E0,3.7855275E-3,3.5898726E-2,5.512557E-2,9.762204E-3,5.298789E-3,2.2744248E-2,3.58053E-3,2.4998264E-2,-5.833892E-2,-2.605836E-2,-9.212271E-3,3.4180354E-2,-6.161948E-2,9.380823E-2,-4.7587667E-2,-6.1444778E-2,-1.8263329E-2,-6.822895E-2,-6.580392E-2,-3.6965698E-2,-1.1616426E-2,-8.085627E-2,-7.505086E-2,-3.383516E-2,-1.4525577E-2,-3.980013E-2,-6.636242E-2,-3.697311E-2],"categories":[],"categories_nodes":[],"categories_segments":[],"categories_sizes":[],"default_left":[0,0,0,0,0,0,0,0,0,0,0,0,0,0,0,0,0,0,0,0,0,0,0,0,0,0,0,0,0,0,0,0,0,0,0,0,0,0,0,0,0,0,0,0,0,0,0,0,0,0,0,0,0,0,0,0,0,0,0],"id":17,"left_children":[1,3,5,7,9,11,13,15,17,19,21,23,25,27,29,31,33,35,37,-1,39,41,43,-1,45,47,49,51,53,55,57,-1,-1,-1,-1,-1,-1,-1,-1,-1,-1,-1,-1,-1,-1,-1,-1,-1,-1,-1,-1,-1,-1,-1,-1,-1,-1,-1,-1],"loss_changes":[4.551674E3,9.490453E2,7.434822E2,8.1956323E2,1.9616464E2,2.536206E1,1.4369763E2,2.2658911E2,1.22379456E2,2.6304993E1,4.1483944E1,7.253418E0,4.984366E1,9.765115E1,1.01842834E2,2.66021E2,2.3954102E1,7.621036E1,9.1574524E1,0E0,2.7290817E1,4.3376976E1,2.3639366E1,0E0,1.1708374E1,3.4490623E1,1.2123871E1,5.709926E1,2.295488E1,4.015831E1,2.7712097E1,0E0,0E0,0E0,0E0,0E0,0E0,0E0,0E0,0E0,0E0,0E0,0E0,0E0,0E0,0E0,0E0,0E0,0E0,0E0,0E0,0E0,0E0,0E0,0E0,0E0,0E0,0E0,0E0],"parents":[2147483647,0,0,1,1,2,2,3,3,4,4,5,5,6,6,7,7,8,8,9,9,10,10,11,11,12,12,13,13,14,14,15,15,16,16,17,17,18,18,20,20,21,21,22,22,24,24,25,25,26,26,27,27,28,28,29,29,30,30],"right_children":[2,4,6,8,10,12,14,16,18,20,22,24,26,28,30,32,34,36,38,-1,40,42,44,-1,46,48,50,52,54,56,58,-1,-1,-1,-1,-1,-1,-1,-1,-1,-1,-1,-1,-1,-1,-1,-1,-1,-1,-1,-1,-1,-1,-1,-1,-1,-1,-1,-1],"split_conditions":[2.5881904E-1,5E0,6E0,9E0,9E0,1E1,2.2E1,4.5E0,-8.660254E-1,7E0,2E0,3E0,2E0,1.2E1,4.3388373E-1,7E0,3.44E1,1.2E1,1E0,-6.55691E-2,-2.4492937E-16,3.71E1,3.4E0,-6.574342E-2,1E0,1E0,6E0,5.1E0,4.3388373E-1,2.3E1,8.660254E-1,3.7855275E-3,3.5898726E-2,5.512557E-2,9.762204E-3,5.298789E-3,2.2744248E-2,3.58053E-3,2.4998264E-2,-5.833892E-2,-2.605836E-2,-9.212271E-3,3.4180354E-2,-6.161948E-2,9.380823E-2,-4.7587667E-2,-6.1444778E-2,-1.8263329E-2,-6.822895E-2,-6.580392E-2,-3.6965698E-2,-1.1616426E-2,-8.085627E-2,-7.505086E-2,-3.383516E-2,-1.4525577E-2,-3.980013E-2,-6.636242E-2,-3.697311E-2],"split_indices":[5,2,0,0,0,10,0,31,5,0,24,2,0,10,8,0,29,0,20,0,11,31,31,0,0,6,2,28,8,0,11,0,0,0,0,0,0,0,0,0,0,0,0,0,0,0,0,0,0,0,0,0,0,0,0,0,0,0,0],"split_type":[0,0,0,0,0,0,0,0,0,0,0,0,0,0,0,0,0,0,0,0,0,0,0,0,0,0,0,0,0,0,0,0,0,0,0,0,0,0,0,0,0,0,0,0,0,0,0,0,0,0,0,0,0,0,0,0,0,0,0],"sum_hessian":[2.2685818E4,1.6989768E4,5.696051E3,1.4103022E4,2.8867444E3,2.464042E3,3.2320085E3,4.955592E3,9.147431E3,4.1177698E2,2.4749675E3,1.9510034E3,5.1303864E2,2.1902014E3,1.041807E3,3.7727063E3,1.1828855E3,3.0693818E3,6.0780493E3,1.12615715E2,2.9916125E2,2.4589053E3,1.6062317E1,8.170283E2,1.1339751E3,2.0140173E2,3.1163693E2,2.0496448E3,1.405568E2,6.4143256E2,4.003745E2,8.2580426E2,2.9469019E3,1.1525406E3,3.0344933E1,8.7711066E2,2.1922712E3,5.5303965E3,5.476529E2,9.894502E1,2.0021623E2,2.4008604E3,5.8044838E1,2.2082534E0,1.3854064E1,2.0795258E2,9.260225E2,1.5769142E2,4.3710304E1,2.641584E2,4.747856E1,2.0203898E3,2.9254927E1,7.293878E1,6.761802E1,3.6219247E2,2.7924008E2,2.817409E2,1.1863359E2],"tree_param":{"num_deleted":"0","num_feature":"34","num_nodes":"59","size_leaf_vector":"1"}},{"base_weights":[7.917788E-4,2.638111E-1,-8.1420904E-1,6.599684E-1,1.4785302E-1,-1.1937015E0,-5.284185E-1,7.729016E-1,-1.0839602E0,2.4487203E-1,-3.2565545E-2,-1.2426851E0,-1.0053414E0,-2.3510438E-1,-8.243741E-1,3.392027E-1,9.524731E-1,-1.1658127E0,-4.7564825E-1,2.2570385E-1,8.534566E-1,-1.3393347E-1,2.96991E-1,-6.4733915E-2,-1.2038236E0,-6.9202274E-1,-1.2082782E0,-4.1421577E-1,-2.7095813E-2,-1.0726435E0,-5.433842E-1,-2.0410683E-2,4.8345525E-2,4.2821106E-2,5.6347262E-2,-6.454296E-2,-4.354697E-2,-6.5955214E-2,3.4916464E-2,6.1654444E-3,1.6537255E-2,4.5883946E-2,-1.01074256E-1,-2.2384493E-2,-2.3192246E-3,2.6308507E-2,-5.8005285E-3,-6.18059E-2,-5.5199254E-2,4.57947E-3,-4.34999E-2,-6.480043E-2,-3.579955E-2,-6.146041E-3,-4.0932916E-2,1.23451175E-2,-3.5613563E-2,-6.0448963E-2,-4.828366E-2,-2.920284E-2,4.4183522E-2],"categories":[],"categories_nodes":[],"categories_segments":[],"categories_sizes":[],"default_left":[0,0,0,0,0,0,0,0,0,0,0,0,0,0,0,0,0,0,0,0,0,0,0,0,0,0,0,0,0,0,0,0,0,0,0,0,0,0,0,0,0,0,0,0,0,0,0,0,0,0,0,0,0,0,0,0,0,0,0,0,0],"id":18,"left_children":[1,3,5,7,9,11,13,15,17,19,21,23,25,27,29,31,33,35,37,39,41,43,45,-1,47,49,51,53,55,57,59,-1,-1,-1,-1,-1,-1,-1,-1,-1,-1,-1,-1,-1,-1,-1,-1,-1,-1,-1,-1,-1,-1,-1,-1,-1,-1,-1,-1,-1,-1],"loss_changes":[4.855054E3,7.8649207E2,5.986914E2,7.6437585E2,2.3188602E2,2.0645508E1,2.7359308E2,2.8328906E2,1.1206543E1,1.0030261E2,1.548239E2,2.2382812E0,3.0637238E1,5.9056915E1,1.0890735E2,5.0139365E2,4.2183838E1,6.5269165E0,3.0332775E1,8.980231E1,5.035669E1,9.733301E1,1.0325301E2,0E0,2.1484375E0,2.7542534E1,1.1988525E1,1.0025426E2,1.3809006E2,1.0969788E1,4.3366318E1,0E0,0E0,0E0,0E0,0E0,0E0,0E0,0E0,0E0,0E0,0E0,0E0,0E0,0E0,0E0,0E0,0E0,0E0,0E0,0E0,0E0,0E0,0E0,0E0,0E0,0E0,0E0,0E0,0E0,0E0],"parents":[2147483647,0,0,1,1,2,2,3,3,4,4,5,5,6,6,7,7,8,8,9,9,10,10,11,11,12,12,13,13,14,14,15,15,16,16,17,17,18,18,19,19,20,20,21,21,22,22,24,24,25,25,26,26,27,27,28,28,29,29,30,30],"right_children":[2,4,6,8,10,12,14,16,18,20,22,24,26,28,30,32,34,36,38,40,42,44,46,-1,48,50,52,54,56,58,60,-1,-1,-1,-1,-1,-1,-1,-1,-1,-1,-1,-1,-1,-1,-1,-1,-1,-1,-1,-1,-1,-1,-1,-1,-1,-1,-1,-1,-1,-1],"split_conditions":[2.5881904E-1,8E0,6E0,5E0,4E0,1E1,2.1E1,7E0,1.2E1,4.33E1,1E1,3E0,2E0,4.3388373E-1,6.234898E-1,4.5E1,1E0,8.660254E-1,1E0,6.123234E-17,1E0,1.5E1,1.4E1,-6.4733915E-2,4.5E1,-7.818315E-1,6E0,2E1,8E0,-1.8369701E-16,1E0,-2.0410683E-2,4.8345525E-2,4.2821106E-2,5.6347262E-2,-6.454296E-2,-4.354697E-2,-6.5955214E-2,3.4916464E-2,6.1654444E-3,1.6537255E-2,4.5883946E-2,-1.01074256E-1,-2.2384493E-2,-2.3192246E-3,2.6308507E-2,-5.8005285E-3,-6.18059E-2,-5.5199254E-2,4.57947E-3,-4.34999E-2,-6.480043E-2,-3.579955E-2,-6.146041E-3,-4.0932916E-2,1.23451175E-2,-3.5613563E-2,-6.0448963E-2,-4.828366E-2,-2.920284E-2,4.4183522E-2],"split_indices":[5,0,0,2,2,10,0,0,10,33,10,2,0,8,9,1,6,11,6,12,22,1,0,0,1,8,2,0,10,12,17,0,0,0,0,0,0,0,0,0,0,0,0,0,0,0,0,0,0,0,0,0,0,0,0,0,0,0,0,0,0],"split_type":[0,0,0,0,0,0,0,0,0,0,0,0,0,0,0,0,0,0,0,0,0,0,0,0,0,0,0,0,0,0,0,0,0,0,0,0,0,0,0,0,0,0,0,0,0,0,0,0,0,0,0,0,0,0,0,0,0,0,0,0,0],"sum_hessian":[2.2646963E4,1.7121984E4,5.5249785E3,3.8758628E3,1.3246122E4,2.3720415E3,3.152937E3,3.6406582E3,2.3520465E2,8.613764E3,4.6323584E3,1.8780515E3,4.9399E2,1.5844366E3,1.5685004E3,1.066866E3,2.5737922E3,2.065019E2,2.870274E1,8.352075E3,2.616889E2,3.5431257E3,1.0892325E3,7.894814E2,1.0885701E3,1.959179E2,2.9807208E2,8.50822E2,7.336146E2,8.312393E2,7.3726105E2,4.8715567E2,5.7971027E2,1.6637617E3,9.100306E2,1.4263663E2,6.386528E1,1.6630657E1,1.20720825E1,4.2304126E3,4.1216626E3,2.566368E2,5.052114E0,7.720727E2,2.771053E3,7.003349E2,3.888976E2,8.1391425E2,2.7465585E2,3.6351257E1,1.5956664E2,2.5160162E2,4.6470463E1,4.9535345E2,3.5546857E2,5.245067E2,2.0910793E2,3.609278E2,4.7031152E2,7.1740497E2,1.9856108E1],"tree_param":{"num_deleted":"0","num_feature":"34","num_nodes":"61","size_leaf_vector":"1"}},{"base_weights":[1.7870964E-2,2.5600964E-1,-7.1704483E-1,5.3396225E-1,1.315812E-1,-3.3259118E-1,-1.0973141E0,-7.5410634E-1,6.4530104E-1,-3.1200632E-2,2.2184452E-1,-1.4241202E-1,-4.208073E-1,-1.1114838E0,1.0029626E0,-1.0636609E0,-3.714259E-1,2.512112E-1,7.497505E-1,-1.759174E-2,-9.768278E-2,3.1435635E-2,2.9314572E-1,-6.87103E-1,2.7672322E-2,-4.3740994E-1,1.4936874E0,-1.0225174E0,-1.2456586E0,8.0464765E-2,-5.7554204E-2,-6.3775174E-2,-4.3707725E-2,-4.1711222E-2,-7.534641E-4,-2.0728102E-2,4.4581592E-2,4.557405E-2,2.2906689E-2,-2.0545248E-3,4.535628E-2,7.23414E-3,-2.0568473E-2,2.165666E-2,8.153073E-3,-8.367179E-2,-2.4313567E-2,-2.6437184E-2,8.332687E-3,-2.1201644E-2,-7.196871E-2,8.6835735E-2,-4.4069733E-2,-4.541067E-2,-5.926906E-2,-6.344957E-2,-5.893469E-2],"categories":[],"categories_nodes":[],"categories_segments":[],"categories_sizes":[],"default_left":[0,0,0,0,0,0,0,0,0,0,0,0,0,0,0,0,0,0,0,0,0,0,0,0,0,0,0,0,0,0,0,0,0,0,0,0,0,0,0,0,0,0,0,0,0,0,0,0,0,0,0,0,0,0,0,0,0],"id":19,"left_children":[1,3,5,7,9,11,13,15,17,19,21,23,25,27,29,31,33,35,37,39,-1,41,43,45,47,49,51,53,55,-1,-1,-1,-1,-1,-1,-1,-1,-1,-1,-1,-1,-1,-1,-1,-1,-1,-1,-1,-1,-1,-1,-1,-1,-1,-1,-1,-1],"loss_changes":[3.934451E3,5.87157E2,8.039851E2,7.534193E2,1.7235847E2,4.5863647E1,8.341821E1,4.9141464E1,1.9874866E2,1.0945736E2,1.02437256E2,8.051636E1,6.0074066E1,3.152295E1,2.6744322E1,8.143982E0,3.1080713E1,4.327409E2,1.7974194E2,9.036023E1,0E0,1.03208694E2,9.990268E1,4.014991E1,5.1366478E1,2.424112E1,1.0938602E1,2.9782227E1,2.0861816E-1,0E0,0E0,0E0,0E0,0E0,0E0,0E0,0E0,0E0,0E0,0E0,0E0,0E0,0E0,0E0,0E0,0E0,0E0,0E0,0E0,0E0,0E0,0E0,0E0,0E0,0E0,0E0,0E0],"parents":[2147483647,0,0,1,1,2,2,3,3,4,4,5,5,6,6,7,7,8,8,9,9,10,10,11,11,12,12,13,13,14,14,15,15,16,16,17,17,18,18,19,19,21,21,22,22,23,23,24,24,25,25,26,26,27,27,28,28],"right_children":[2,4,6,8,10,12,14,16,18,20,22,24,26,28,30,32,34,36,38,40,-1,42,44,46,48,50,52,54,56,-1,-1,-1,-1,-1,-1,-1,-1,-1,-1,-1,-1,-1,-1,-1,-1,-1,-1,-1,-1,-1,-1,-1,-1,-1,-1,-1,-1],"split_conditions":[2.5881904E-1,9E0,-2.5881904E-1,-4.3388373E-1,0E0,2E1,2.06E1,8E0,7E0,3.49E1,1.2E1,-2.2252093E-1,5.38E1,7.0710677E-1,-5E-1,7E0,3E1,4.5E1,8E0,1.49E1,-9.768278E-2,9.749279E-1,1.5E1,-5E-1,1.5E1,1E0,3E1,4.3388373E-1,8.660254E-1,8.0464765E-2,-5.7554204E-2,-6.3775174E-2,-4.3707725E-2,-4.1711222E-2,-7.534641E-4,-2.0728102E-2,4.4581592E-2,4.557405E-2,2.2906689E-2,-2.0545248E-3,4.535628E-2,7.23414E-3,-2.0568473E-2,2.165666E-2,8.153073E-3,-8.367179E-2,-2.4313567E-2,-2.6437184E-2,8.332687E-3,-2.1201644E-2,-7.196871E-2,8.6835735E-2,-4.4069733E-2,-4.541067E-2,-5.926906E-2,-6.344957E-2,-5.893469E-2],"split_indices":[5,0,4,8,8,0,28,0,0,30,0,9,31,4,11,0,1,1,0,30,0,8,0,11,1,16,1,8,11,0,0,0,0,0,0,0,0,0,0,0,0,0,0,0,0,0,0,0,0,0,0,0,0,0,0,0,0],"split_type":[0,0,0,0,0,0,0,0,0,0,0,0,0,0,0,0,0,0,0,0,0,0,0,0,0,0,0,0,0,0,0,0,0,0,0,0,0,0,0,0,0,0,0,0,0,0,0,0,0,0,0,0,0,0,0,0,0],"sum_hessian":[2.2479002E4,1.6978137E4,5.5008647E3,5.2491377E3,1.1728999E4,2.736315E3,2.7645498E3,4.1716937E2,4.8319688E3,4.184066E3,7.544933E3,8.678945E2,1.8684204E3,2.7464912E3,1.8058632E1,2.2963531E2,1.8753407E2,1.01306354E3,3.818905E3,4.155657E3,2.8408392E1,2.05596E3,5.488973E3,2.0579648E2,6.62098E2,1.8531216E3,1.5298873E1,1.6566498E3,1.0898414E3,1.4289299E1,3.7693324E0,1.0572184E2,1.23913475E2,8.099948E1,1.06534584E2,4.9687314E2,5.1619037E2,2.4551528E3,1.3637521E3,4.0536035E3,1.020539E2,1.6377736E3,4.181864E2,2.6427278E3,2.8462454E3,3.3573986E1,1.722225E2,1.3176575E2,5.303323E2,1.8301112E3,2.301034E1,1.4122576E1,1.1762972E0,9.7731104E2,6.793387E2,7.9491693E2,2.949245E2],"tree_param":{"num_deleted":"0","num_feature":"34","num_nodes":"57","size_leaf_vector":"1"}},{"base_weights":[-8.36969E-3,2.2860776E-1,-7.474716E-1,6.1540085E-1,1.1822198E-1,-1.1290694E0,-4.7340772E-1,7.199742E-1,-1.0372174E0,5.5373944E-2,3.362266E-1,-1.0387714E0,-1.2285161E0,-3.0110383E-1,-8.471758E-1,3.4288657E-1,8.924622E-1,-1.1242836E0,-4.1042E-1,1.3988756E-1,-9.9444605E-2,5.414352E-1,1.1642811E-2,-1.1940825E0,-8.520521E-1,-6.265106E-2,-1.1519538E0,-8.1576556E-2,-4.5225236E-1,-8.7998813E-1,6.801955E-1,-8.146242E-2,2.7237687E-2,3.843099E-2,5.4909028E-2,-3.814831E-2,-6.273789E-2,-6.377435E-2,3.9471067E-2,5.6095268E-3,2.8853318E-2,-2.95638E-2,-2.6446646E-3,3.357859E-2,1.6086867E-2,6.8656853E-3,-4.4134356E-2,-6.324164E-2,-4.6771195E-2,-4.9217336E-2,-1.2888148E-2,-6.2420644E-2,-4.7922246E-2,1.2734513E-3,-2.833581E-2,-2.426702E-2,4.9352612E-2,-4.9053967E-2,-1.8088577E-2,-5.915116E-2,6.2200915E-2],"categories":[],"categories_nodes":[],"categories_segments":[],"categories_sizes":[],"default_left":[0,0,0,0,0,0,0,0,0,0,0,0,0,0,0,0,0,0,0,0,0,0,0,0,0,0,0,0,0,0,0,0,0,0,0,0,0,0,0,0,0,0,0,0,0,0,0,0,0,0,0,0,0,0,0,0,0,0,0,0,0],"id":20,"left_children":[1,3,5,7,9,11,13,15,17,19,21,23,25,27,29,31,33,35,37,39,41,43,45,47,49,-1,51,53,55,57,59,-1,-1,-1,-1,-1,-1,-1,-1,-1,-1,-1,-1,-1,-1,-1,-1,-1,-1,-1,-1,-1,-1,-1,-1,-1,-1,-1,-1,-1,-1],"loss_changes":[3.8657097E3,7.1348596E2,5.5986426E2,6.4196216E2,1.7813832E2,1.8830566E1,2.0070184E2,2.267008E2,1.1610977E1,1.3209286E2,1.9379257E2,3.3202026E1,5.455322E-1,7.08826E1,4.9914673E1,4.3761908E2,6.0149048E1,8.172333E0,3.0645922E1,7.900779E1,8.159481E1,5.074872E1,1.26899506E2,1.05598755E1,4.2147675E1,0E0,3.83255E0,4.5338196E1,6.0751007E1,5.0134155E1,2.3805014E1,0E0,0E0,0E0,0E0,0E0,0E0,0E0,0E0,0E0,0E0,0E0,0E0,0E0,0E0,0E0,0E0,0E0,0E0,0E0,0E0,0E0,0E0,0E0,0E0,0E0,0E0,0E0,0E0,0E0,0E0],"parents":[2147483647,0,0,1,1,2,2,3,3,4,4,5,5,6,6,7,7,8,8,9,9,10,10,11,11,12,12,13,13,14,14,15,15,16,16,17,17,18,18,19,19,20,20,21,21,22,22,23,23,24,24,26,26,27,27,28,28,29,29,30,30],"right_children":[2,4,6,8,10,12,14,16,18,20,22,24,26,28,30,32,34,36,38,40,42,44,46,48,50,-1,52,54,56,58,60,-1,-1,-1,-1,-1,-1,-1,-1,-1,-1,-1,-1,-1,-1,-1,-1,-1,-1,-1,-1,-1,-1,-1,-1,-1,-1,-1,-1,-1,-1],"split_conditions":[2.5881904E-1,8E0,6E0,5E0,1E1,3E0,2.2E1,7E0,1.2E1,4E0,1.2E1,4E0,1E0,2E1,1E0,1.5E1,1E0,-1.8369701E-16,1E0,1.07E1,-8.660254E-1,1.4E1,1.7E1,1E1,1.1E1,-6.265106E-2,5E0,8.660254E-1,2.6E1,6E0,8E0,-8.146242E-2,2.7237687E-2,3.843099E-2,5.4909028E-2,-3.814831E-2,-6.273789E-2,-6.377435E-2,3.9471067E-2,5.6095268E-3,2.8853318E-2,-2.95638E-2,-2.6446646E-3,3.357859E-2,1.6086867E-2,6.8656853E-3,-4.4134356E-2,-6.324164E-2,-4.6771195E-2,-4.9217336E-2,-1.2888148E-2,-6.2420644E-2,-4.7922246E-2,1.2734513E-3,-2.833581E-2,-2.426702E-2,4.9352612E-2,-4.9053967E-2,-1.8088577E-2,-5.915116E-2,6.2200915E-2],"split_indices":[5,0,0,2,10,0,0,0,10,2,10,2,6,0,14,1,6,7,6,31,12,0,0,10,10,0,0,12,31,2,10,0,0,0,0,0,0,0,0,0,0,0,0,0,0,0,0,0,0,0,0,0,0,0,0,0,0,0,0,0,0],"split_type":[0,0,0,0,0,0,0,0,0,0,0,0,0,0,0,0,0,0,0,0,0,0,0,0,0,0,0,0,0,0,0,0,0,0,0,0,0,0,0,0,0,0,0,0,0,0,0,0,0,0,0,0,0,0,0,0,0,0,0,0,0],"sum_hessian":[2.2068818E4,1.6711363E4,5.357456E3,3.7093123E3,1.3002051E4,2.23809E3,3.119366E3,3.489096E3,2.2021648E2,1.00934795E4,2.908571E3,1.1789991E3,1.0590908E3,2.136338E3,9.8302795E2,1.096014E3,2.3930818E3,1.9266093E2,2.755554E1,6.529305E3,3.564174E3,1.7815625E3,1.1270085E3,6.4068726E2,5.383119E2,7.9065936E2,2.6843143E2,8.7175116E2,1.2645868E3,9.6276874E2,2.0259186E1,1.01113914E2,9.949001E2,1.4967651E3,8.963167E2,5.293043E1,1.3973051E2,1.5974865E1,1.1580676E1,6.141475E3,3.878304E2,3.0716492E2,3.2570093E3,1.1175388E3,6.640237E2,9.888958E2,1.3811281E2,5.0002634E2,1.4066092E2,4.3976056E2,9.8551346E1,1.7549867E2,9.2932755E1,7.149464E2,1.5680472E2,1.2368167E3,2.7770243E1,8.0486615E2,1.579026E2,4.4512587E0,1.5807927E1],"tree_param":{"num_deleted":"0","num_feature":"34","num_nodes":"61","size_leaf_vector":"1"}},{"base_weights":[2.3520673E-3,2.209566E-1,-6.8845934E-1,3.1229922E-1,-2.1770404E-1,-5.105472E-1,-8.190272E-1,2.5769857E-1,7.483443E-1,-1.7946647E-1,-6.2218856E-2,-6.851313E-1,-3.7720436E-1,-8.4229904E-1,5.196712E-1,2.145484E-1,6.25124E-1,1.5060122E-1,9.180007E-1,-2.1097875E-1,6.5694046E-1,-7.206672E-1,1.1858917E0,-5.5634797E-1,5.1187433E-2,-7.1298635E-1,-1.0351318E0,-6.437266E-2,9.8538357E-1,9.189389E-3,3.0814817E-2,2.2021588E-2,3.9504092E-2,1.2591617E-2,-1.1042472E-1,9.942572E-3,4.7252312E-2,-1.2008439E-2,2.9656569E-2,3.998083E-2,-8.1940174E-2,-1.5460068E-2,-4.21872E-2,-6.618651E-2,9.400567E-2,-3.5155483E-2,-1.439511E-2,1.4556469E-2,-1.84301E-2,-2.4717353E-2,-4.2930704E-2,-5.2540045E-2,6.2040146E-2,-6.0967125E-2,6.567047E-2],"categories":[],"categories_nodes":[],"categories_segments":[],"categories_sizes":[],"default_left":[0,0,0,0,0,0,0,0,0,0,0,0,0,0,0,0,0,0,0,0,0,0,0,0,0,0,0,0,0,0,0,0,0,0,0,0,0,0,0,0,0,0,0,0,0,0,0,0,0,0,0,0,0,0,0],"id":21,"left_children":[1,3,5,7,9,11,13,15,17,19,-1,21,23,25,27,29,31,33,35,37,39,41,43,45,47,49,51,-1,53,-1,-1,-1,-1,-1,-1,-1,-1,-1,-1,-1,-1,-1,-1,-1,-1,-1,-1,-1,-1,-1,-1,-1,-1,-1,-1],"loss_changes":[3.321046E3,6.6942084E2,1.2238086E2,3.2899597E2,1.1282376E2,5.1891174E1,9.5368774E1,1.9470898E2,1.5584644E2,7.334279E1,0E0,6.527112E1,9.7670456E1,7.395654E1,4.560834E1,1.3581763E2,3.8986053E1,8.205112E1,2.31109E1,6.2984406E1,3.4420437E1,4.791986E1,3.460842E1,3.51463E1,3.798822E1,5.6768738E1,4.4105225E1,0E0,3.2306053E1,0E0,0E0,0E0,0E0,0E0,0E0,0E0,0E0,0E0,0E0,0E0,0E0,0E0,0E0,0E0,0E0,0E0,0E0,0E0,0E0,0E0,0E0,0E0,0E0,0E0,0E0],"parents":[2147483647,0,0,1,1,2,2,3,3,4,4,5,5,6,6,7,7,8,8,9,9,11,11,12,12,13,13,14,14,15,15,16,16,17,17,18,18,19,19,20,20,21,21,22,22,23,23,24,24,25,25,26,26,28,28],"right_children":[2,4,6,8,10,12,14,16,18,20,-1,22,24,26,28,30,32,34,36,38,40,42,44,46,48,50,52,-1,54,-1,-1,-1,-1,-1,-1,-1,-1,-1,-1,-1,-1,-1,-1,-1,-1,-1,-1,-1,-1,-1,-1,-1,-1,-1,-1],"split_conditions":[2.5881904E-1,5E0,7.0710677E-1,4.8E0,6.123234E-17,1.2246469E-16,1E0,3.7E0,-5E-1,1E0,-6.2218856E-2,4.01E1,1E0,4.3388373E-1,5.6655387E-16,1E0,-2.5881904E-1,1E0,-8.660254E-1,9.3E0,-1.8369701E-16,-5E-1,9.749279E-1,4.5E1,4E0,-2.4492937E-16,4.96E1,-6.437266E-2,-5E-1,9.189389E-3,3.0814817E-2,2.2021588E-2,3.9504092E-2,1.2591617E-2,-1.1042472E-1,9.942572E-3,4.7252312E-2,-1.2008439E-2,2.9656569E-2,3.998083E-2,-8.1940174E-2,-1.5460068E-2,-4.21872E-2,-6.618651E-2,9.400567E-2,-3.5155483E-2,-1.439511E-2,1.4556469E-2,-1.84301E-2,-2.4717353E-2,-4.2930704E-2,-5.2540045E-2,6.2040146E-2,-6.0967125E-2,6.567047E-2],"split_indices":[5,2,5,31,5,11,23,33,5,23,0,32,6,8,6,25,5,23,12,33,5,12,8,1,2,11,31,0,12,0,0,0,0,0,0,0,0,0,0,0,0,0,0,0,0,0,0,0,0,0,0,0,0,0,0],"split_type":[0,0,0,0,0,0,0,0,0,0,0,0,0,0,0,0,0,0,0,0,0,0,0,0,0,0,0,0,0,0,0,0,0,0,0,0,0,0,0,0,0,0,0,0,0,0,0,0,0,0,0,0,0,0,0],"sum_hessian":[2.198956E4,1.6704248E4,5.2853125E3,1.3825617E4,2.8786306E3,2.2391501E3,3.0461624E3,1.2288473E4,1.5371454E3,2.7764006E3,1.0222991E2,9.678365E2,1.2713136E3,2.9944775E3,5.1685005E1,1.0998411E4,1.2900615E3,3.4024878E2,1.1968966E3,2.6763162E3,1.0008451E2,9.504006E2,1.7435907E1,8.962315E2,3.7508212E2,1.7952733E3,1.1992041E3,1.0228893E1,4.1456112E1,1.0217542E4,7.808688E2,6.103562E2,6.7970526E2,3.271056E2,1.3143174E1,4.3683857E1,1.1532128E3,2.583243E3,9.307307E1,9.484196E1,5.242552E0,2.196355E2,7.307651E2,3.5815964E0,1.3854311E1,5.7839734E2,3.1783417E2,2.3886111E2,1.3622101E2,7.1947656E2,1.0757968E3,1.1915391E3,7.665075E0,5.017214E0,3.6438896E1],"tree_param":{"num_deleted":"0","num_feature":"34","num_nodes":"55","size_leaf_vector":"1"}},{"base_weights":[2.2631615E-2,2.3482013E-1,-6.698121E-1,5.773424E-1,1.4110102E-1,-2.605531E-1,-1.1017387E0,6.723934E-1,-9.981093E-1,2.3037624E-1,-2.5214678E-2,-2.0870803E-1,-9.6509933E-1,-1.1168243E0,9.048438E-1,2.8704688E-1,8.465257E-1,-1.0919569E0,-3.1261334E-1,3.860158E-1,1.7016396E-1,-1.629645E-1,1.689849E-1,1.3410367E-1,-2.747562E-1,-1.1898715E0,-4.2624927E-1,-9.0227985E-1,-1.1544263E0,1.4233844E0,-5.3162396E-2,-7.831797E-2,2.4150142E-2,3.6486655E-2,5.248406E-2,-3.6377482E-2,-6.1521947E-2,-6.1877538E-2,4.4837967E-2,2.2666892E-2,-3.9706146E-3,-2.080558E-2,1.058698E-2,-7.072507E-3,-9.8116696E-2,5.536921E-3,4.200655E-2,-1.4575108E-2,2.2893054E-2,-1.2691169E-2,-7.587657E-2,-7.006996E-2,-8.46073E-3,4.460266E-2,-3.934484E-2,-3.5396747E-2,-6.084035E-2,-5.6586582E-2,-6.319425E-2,-3.791184E-2,8.1168234E-2],"categories":[],"categories_nodes":[],"categories_segments":[],"categories_sizes":[],"default_left":[0,0,0,0,0,0,0,0,0,0,0,0,0,0,0,0,0,0,0,0,0,0,0,0,0,0,0,0,0,0,0,0,0,0,0,0,0,0,0,0,0,0,0,0,0,0,0,0,0,0,0,0,0,0,0,0,0,0,0,0,0],"id":22,"left_children":[1,3,5,7,9,11,13,15,17,19,21,23,25,27,29,31,33,35,37,39,41,43,45,47,49,51,53,55,57,59,-1,-1,-1,-1,-1,-1,-1,-1,-1,-1,-1,-1,-1,-1,-1,-1,-1,-1,-1,-1,-1,-1,-1,-1,-1,-1,-1,-1,-1,-1,-1],"loss_changes":[3.239707E3,5.4170325E2,9.139485E2,5.43589E2,1.9678506E2,9.684938E1,7.716968E1,2.2923291E2,1.2955734E1,8.0753204E1,1.2388567E2,5.6101006E1,2.151677E1,1.9107178E1,2.1236588E1,3.8787872E2,5.510974E1,8.259094E0,3.0518738E1,7.538968E1,1.5170146E2,1.0460228E2,7.503502E1,5.534268E1,5.363289E1,2.7345001E1,2.689037E1,2.2186127E1,3.840088E0,8.090866E0,0E0,0E0,0E0,0E0,0E0,0E0,0E0,0E0,0E0,0E0,0E0,0E0,0E0,0E0,0E0,0E0,0E0,0E0,0E0,0E0,0E0,0E0,0E0,0E0,0E0,0E0,0E0,0E0,0E0,0E0,0E0],"parents":[2147483647,0,0,1,1,2,2,3,3,4,4,5,5,6,6,7,7,8,8,9,9,10,10,11,11,12,12,13,13,14,14,15,15,16,16,17,17,18,18,19,19,20,20,21,21,22,22,23,23,24,24,25,25,26,26,27,27,28,28,29,29],"right_children":[2,4,6,8,10,12,14,16,18,20,22,24,26,28,30,32,34,36,38,40,42,44,46,48,50,52,54,56,58,60,-1,-1,-1,-1,-1,-1,-1,-1,-1,-1,-1,-1,-1,-1,-1,-1,-1,-1,-1,-1,-1,-1,-1,-1,-1,-1,-1,-1,-1,-1,-1],"split_conditions":[2.5881904E-1,8E0,-2.5881904E-1,5E0,4E0,1.2E1,1E0,7E0,1.2E1,1.5E1,8E0,-7.818315E-1,1E0,-7.818315E-1,-5E-1,1.5E1,1E0,-1.8369701E-16,1E0,1.7E1,2E0,1.93E1,1E0,-1.8369701E-16,1E0,9.749279E-1,1E0,7.0710677E-1,5E0,1.5E1,-5.3162396E-2,-7.831797E-2,2.4150142E-2,3.6486655E-2,5.248406E-2,-3.6377482E-2,-6.1521947E-2,-6.1877538E-2,4.4837967E-2,2.2666892E-2,-3.9706146E-3,-2.080558E-2,1.058698E-2,-7.072507E-3,-9.8116696E-2,5.536921E-3,4.200655E-2,-1.4575108E-2,2.2893054E-2,-1.2691169E-2,-7.587657E-2,-7.006996E-2,-8.46073E-3,4.460266E-2,-3.934484E-2,-3.5396747E-2,-6.084035E-2,-5.6586582E-2,-6.319425E-2,-3.791184E-2,8.1168234E-2],"split_indices":[5,0,4,2,2,10,14,0,10,1,10,8,6,8,11,1,6,7,6,0,10,27,15,12,16,8,2,4,2,1,0,0,0,0,0,0,0,0,0,0,0,0,0,0,0,0,0,0,0,0,0,0,0,0,0,0,0,0,0,0,0],"split_type":[0,0,0,0,0,0,0,0,0,0,0,0,0,0,0,0,0,0,0,0,0,0,0,0,0,0,0,0,0,0,0,0,0,0,0,0,0,0,0,0,0,0,0,0,0,0,0,0,0,0,0,0,0,0,0,0,0,0,0,0,0],"sum_hessian":[2.2047463E4,1.6876564E4,5.170898E3,3.6245374E3,1.3252027E4,2.6559429E3,2.514955E3,3.418843E3,2.0569427E2,8.622982E3,4.629045E3,2.4751047E3,1.8083798E2,2.4966287E3,1.83263E1,1.064906E3,2.353937E3,1.8040327E2,2.5291E1,2.403888E3,6.2190947E3,2.7082134E3,1.9208314E3,3.9966766E2,2.0754373E3,1.2675579E2,5.4082195E1,3.7604495E2,2.1205837E3,1.4723746E1,3.6025524E0,1.0115551E2,9.6375055E2,1.4975807E3,8.563564E2,5.14003E1,1.2900298E2,1.4317538E1,1.0973461E1,2.1001387E3,3.0374933E2,4.1122507E2,5.8078696E3,2.6772808E3,3.0932602E1,1.7685132E3,1.5231827E2,1.727168E2,2.2695087E2,2.0422427E3,3.319449E1,1.0468676E2,2.2069027E1,1.1300637E1,4.278156E1,2.3443771E2,1.4160724E2,1.7658077E3,3.5477603E2,1.0019318E0,1.3721815E1],"tree_param":{"num_deleted":"0","num_feature":"34","num_nodes":"61","size_leaf_vector":"1"}},{"base_weights":[6.14347E-3,-5.0318986E-2,7.0610213E-1,-9.104318E-2,5.590993E-1,6.4442104E-1,1.0389824E0,-1.2659433E-1,4.4139034E-1,6.428976E-1,-1.9038966E-1,6.580387E-1,-7.918815E-1,1.0579153E0,-6.406277E-2,-1.5764552E-1,4.0441233E-1,3.230922E-1,7.384554E-1,5.712275E-1,9.6753716E-1,-7.2561705E-1,1.3710614E0,5.9243375E-1,9.4923264E-1,-1.1614926E-1,3.566895E-2,1.0921917E0,-2.2709687E-1,-9.213245E-3,1.7649347E-2,5.617648E-2,8.990403E-3,1.751179E-2,-9.237132E-2,4.5724872E-2,1.032493E-2,2.8999059E-2,-1.1322492E-1,5.0159533E-2,-1.03618875E-1,-6.553252E-2,6.2795295E-3,-5.2635033E-2,7.6111816E-2,3.0367171E-2,-9.61546E-2,5.007583E-2,-2.77228E-2,6.0096895E-3,5.616125E-2,-1.1610218E-1,5.0465383E-2],"categories":[],"categories_nodes":[],"categories_segments":[],"categories_sizes":[],"default_left":[0,0,0,0,0,0,0,0,0,0,0,0,0,0,0,0,0,0,0,0,0,0,0,0,0,0,0,0,0,0,0,0,0,0,0,0,0,0,0,0,0,0,0,0,0,0,0,0,0,0,0,0,0],"id":23,"left_children":[1,3,5,7,9,11,13,15,17,19,21,23,25,27,-1,29,31,33,35,37,39,41,43,45,47,-1,-1,49,51,-1,-1,-1,-1,-1,-1,-1,-1,-1,-1,-1,-1,-1,-1,-1,-1,-1,-1,-1,-1,-1,-1,-1,-1],"loss_changes":[8.5678436E2,4.979237E2,3.2556213E1,3.560118E2,7.9052704E1,2.727539E1,1.2396484E1,2.9073578E2,4.113333E1,2.575238E1,1.0726062E2,2.5334167E1,3.2311848E1,1.1252869E1,0E0,2.26461E2,1.5714735E2,5.035742E1,3.1137543E1,2.4363007E1,2.4082626E1,4.7646492E1,1.3622574E1,4.2761017E1,2.0020493E1,0E0,0E0,7.2109985E0,2.1302002E1,0E0,0E0,0E0,0E0,0E0,0E0,0E0,0E0,0E0,0E0,0E0,0E0,0E0,0E0,0E0,0E0,0E0,0E0,0E0,0E0,0E0,0E0,0E0,0E0],"parents":[2147483647,0,0,1,1,2,2,3,3,4,4,5,5,6,6,7,7,8,8,9,9,10,10,11,11,12,12,13,13,15,15,16,16,17,17,18,18,19,19,20,20,21,21,22,22,23,23,24,24,27,27,28,28],"right_children":[2,4,6,8,10,12,14,16,18,20,22,24,26,28,-1,30,32,34,36,38,40,42,44,46,48,-1,-1,50,52,-1,-1,-1,-1,-1,-1,-1,-1,-1,-1,-1,-1,-1,-1,-1,-1,-1,-1,-1,-1,-1,-1,-1,-1],"split_conditions":[1.44E1,1.07E1,1.79E1,3.4E0,1E0,4.23E1,1E0,3.7E0,1E1,1.88E1,1E0,1.58E1,1.2E1,5.61E1,-6.406277E-2,1E0,1.2E1,6.32E1,6.234898E-1,2E0,2.97E1,4.5E1,2.56E1,6.9E1,5.24E1,-1.1614926E-1,3.566895E-2,1.76E1,2.82E1,-9.213245E-3,1.7649347E-2,5.617648E-2,8.990403E-3,1.751179E-2,-9.237132E-2,4.5724872E-2,1.032493E-2,2.8999059E-2,-1.1322492E-1,5.0159533E-2,-1.03618875E-1,-6.553252E-2,6.2795295E-3,-5.2635033E-2,7.6111816E-2,3.0367171E-2,-9.61546E-2,5.007583E-2,-2.77228E-2,6.0096895E-3,5.616125E-2,-1.1610218E-1,5.0465383E-2],"split_indices":[33,31,32,29,3,30,3,27,10,32,11,27,10,33,0,24,27,29,9,15,29,1,31,33,27,0,0,33,27,0,0,0,0,0,0,0,0,0,0,0,0,0,0,0,0,0,0,0,0,0,0,0,0],"split_type":[0,0,0,0,0,0,0,0,0,0,0,0,0,0,0,0,0,0,0,0,0,0,0,0,0,0,0,0,0,0,0,0,0,0,0,0,0,0,0,0,0,0,0,0,0,0,0,0,0,0,0,0,0],"sum_hessian":[2.1677107E4,2.0059896E4,1.6172118E3,1.8804164E4,1.2557323E3,1.3668729E3,2.503388E2,1.7627893E4,1.1762709E3,1.1295792E3,1.2615299E2,1.354572E3,1.2300884E1,2.4885225E2,1.4865623E0,1.6654695E4,9.7319824E2,8.427544E2,3.3351654E2,9.2756244E2,2.0201685E2,9.434807E1,3.1804924E1,1.1079823E3,2.4658978E2,5.828784E0,6.4721007E0,2.42533E2,6.319254E0,1.5830108E4,8.245869E2,2.3066718E2,7.4253107E2,8.331737E2,9.580684E0,2.5004825E2,8.346829E1,9.25501E2,2.0614674E0,2.003372E2,1.679646E0,5.559677E1,3.8751297E1,1.517155E0,3.028777E1,1.102208E3,5.7742796E0,2.3862659E2,7.9631925E0,7.6546245E0,2.3487837E2,2.0194552E0,4.2997985E0],"tree_param":{"num_deleted":"0","num_feature":"34","num_nodes":"53","size_leaf_vector":"1"}},{"base_weights":[-6.9467765E-3,-7.058589E-2,6.681694E-1,-1.0905007E-1,4.8355365E-1,-1.7921297E-1,7.8159606E-1,-1.4421162E-1,4.5115837E-1,2.5516582E-1,7.1251744E-1,-1.03785984E-1,2.7361542E-2,5.4899204E-1,9.4153076E-1,-1.7478646E-1,4.0143237E-1,1.979981E-1,7.3166364E-1,3.0477917E-1,-1.05167046E-1,7.50192E-1,-6.7702636E-2,-1.01524234E-1,1.8460926E-1,5.7776356E-1,-1.18970685E-1,9.479461E-1,-1.1169544E-1,-1.615453E-2,-4.1395626E-3,3.8948517E-2,1.4791238E-2,1.773267E-2,-2.7901595E-2,-6.465229E-2,4.213603E-2,1.815988E-2,-5.6827184E-2,3.9804388E-2,1.3501958E-4,-1.536759E-1,4.7646787E-2,-3.4076247E-2,1.8753769E-2,1.8632082E-2,4.4393722E-2,4.500085E-2,5.398574E-2,-1.2582669E-1,5.0547868E-2],"categories":[],"categories_nodes":[],"categories_segments":[],"categories_sizes":[],"default_left":[0,0,0,0,0,0,0,0,0,0,0,0,0,0,0,0,0,0,0,0,0,0,0,0,0,0,0,0,0,0,0,0,0,0,0,0,0,0,0,0,0,0,0,0,0,0,0,0,0,0,0],"id":24,"left_children":[1,3,5,7,9,11,13,15,17,19,21,-1,23,25,27,29,31,33,35,37,-1,39,41,-1,43,45,-1,47,49,-1,-1,-1,-1,-1,-1,-1,-1,-1,-1,-1,-1,-1,-1,-1,-1,-1,-1,-1,-1,-1,-1],"loss_changes":[9.238467E2,4.1889307E2,1.7817926E2,3.6202853E2,6.65246E1,8.6045784E1,6.026483E1,2.8854138E2,7.6938644E1,7.555078E1,1.8759125E1,0E0,6.47425E1,5.7664368E1,6.6380005E0,2.2337555E2,3.6363144E1,6.79345E1,1.1679321E2,5.3278873E1,0E0,2.0829712E1,9.56832E1,0E0,3.0892395E1,4.1804398E1,0E0,5.0976562E0,2.076126E1,0E0,0E0,0E0,0E0,0E0,0E0,0E0,0E0,0E0,0E0,0E0,0E0,0E0,0E0,0E0,0E0,0E0,0E0,0E0,0E0,0E0,0E0],"parents":[2147483647,0,0,1,1,2,2,3,3,4,4,5,5,6,6,7,7,8,8,9,9,10,10,12,12,13,13,14,14,15,15,16,16,17,17,18,18,19,19,21,21,22,22,24,24,25,25,27,27,28,28],"right_children":[2,4,6,8,10,12,14,16,18,20,22,-1,24,26,28,30,32,34,36,38,-1,40,42,-1,44,46,-1,48,50,-1,-1,-1,-1,-1,-1,-1,-1,-1,-1,-1,-1,-1,-1,-1,-1,-1,-1,-1,-1,-1,-1],"split_conditions":[5.1E0,1E0,-5E-1,4.8E0,8.660254E-1,1.73E1,9.659258E-1,1E0,8.660254E-1,1.31E1,1E0,-1.03785984E-1,3E0,3.21E1,1E0,0E0,3E0,2.5881904E-1,-4.3388373E-1,1E0,-1.05167046E-1,1E0,9E0,-1.01524234E-1,-2.2252093E-1,1E1,-1.18970685E-1,5.6E0,1E0,-1.615453E-2,-4.1395626E-3,3.8948517E-2,1.4791238E-2,1.773267E-2,-2.7901595E-2,-6.465229E-2,4.213603E-2,1.815988E-2,-5.6827184E-2,3.9804388E-2,1.3501958E-4,-1.536759E-1,4.7646787E-2,-3.4076247E-2,1.8753769E-2,1.8632082E-2,4.4393722E-2,4.500085E-2,5.398574E-2,-1.2582669E-1,5.0547868E-2],"split_indices":[33,13,4,31,4,33,4,26,4,32,22,0,10,31,22,8,10,4,8,16,0,25,10,0,9,10,0,32,6,0,0,0,0,0,0,0,0,0,0,0,0,0,0,0,0,0,0,0,0,0,0],"split_type":[0,0,0,0,0,0,0,0,0,0,0,0,0,0,0,0,0,0,0,0,0,0,0,0,0,0,0,0,0,0,0,0,0,0,0,0,0,0,0,0,0,0,0,0,0,0,0,0,0,0,0],"sum_hessian":[2.1500812E4,1.964947E4,1.8513413E3,1.8374832E4,1.2746388E3,2.184885E2,1.6328529E3,1.7290344E4,1.0844879E3,6.3918054E2,6.354582E2,2.05722E1,1.9791629E2,6.6709015E2,9.657627E2,1.6373542E4,9.1680237E2,5.709251E2,5.135628E2,6.268647E2,1.2315901E1,6.062239E2,2.9234306E1,1.3204247E1,1.8471205E2,6.6139465E2,5.6954727E0,9.6001514E2,5.7475977E0,6.2674185E3,1.0106124E4,1.9900407E2,7.1779834E2,4.7337006E2,9.755507E1,2.6151138E1,4.8741165E2,6.031657E2,2.3698969E1,5.710939E2,3.5129997E1,6.9005575E0,2.2333748E1,3.2832024E1,1.5188002E2,3.994087E2,2.61986E2,7.097013E2,2.5031381E2,1.434072E0,4.3135257E0],"tree_param":{"num_deleted":"0","num_feature":"34","num_nodes":"51","size_leaf_vector":"1"}},{"base_weights":[5.9183235E-3,1.9978803E-1,-6.2168956E-1,4.4886714E-1,9.420036E-2,-2.6252165E-1,-1.0104837E0,5.4474056E-1,-6.695844E-1,4.040612E-2,2.84698E-1,-2.222638E-1,-8.029267E-1,-8.4173703E-1,-1.1578739E0,4.4618458E-1,9.060904E-1,-9.7397155E-1,-3.38426E-1,8.394695E-2,-1.1544219E-1,4.6979958E-1,8.667898E-3,-4.9118716E-2,-3.0532992E-1,-1.151525E0,-1.1304259E-1,-1.0312259E0,-6.2052447E-1,-6.0883082E-2,-1.1129178E0,-4.9597985E-4,2.8981525E-2,4.719464E-2,1.1487066E-2,-5.3296257E-2,-1.7522074E-2,-2.3827208E-2,2.6287938E-2,4.87774E-3,-3.2258578E-2,-2.3345048E-2,3.4633913E-4,2.4878284E-2,-5.866281E-2,-5.2614342E-3,4.7897454E-2,-5.4298984E-3,4.2889852E-2,-1.6052555E-2,6.587632E-2,-4.6894994E-2,-6.844904E-2,5.713823E-2,-6.569356E-2,-5.9418835E-2,-3.0073417E-2,-3.6019236E-2,-7.3652375E-3,-4.887912E-2,-5.8103975E-2],"categories":[],"categories_nodes":[],"categories_segments":[],"categories_sizes":[],"default_left":[0,0,0,0,0,0,0,0,0,0,0,0,0,0,0,0,0,0,0,0,0,0,0,0,0,0,0,0,0,0,0,0,0,0,0,0,0,0,0,0,0,0,0,0,0,0,0,0,0,0,0,0,0,0,0,0,0,0,0,0,0],"id":25,"left_children":[1,3,5,7,9,11,13,15,17,19,21,23,25,27,29,31,33,35,37,39,41,43,45,47,49,51,53,55,57,-1,59,-1,-1,-1,-1,-1,-1,-1,-1,-1,-1,-1,-1,-1,-1,-1,-1,-1,-1,-1,-1,-1,-1,-1,-1,-1,-1,-1,-1,-1,-1],"loss_changes":[2.6231628E3,4.3313885E2,7.102256E2,5.2614417E2,1.18540436E2,5.7388504E1,5.9782715E1,1.6045056E2,3.8737976E1,6.1233276E1,1.3014716E2,3.542359E1,4.389737E1,4.7253723E1,2.142456E0,2.1612463E2,2.4505737E1,1.1174866E1,2.258947E1,7.0038055E1,8.475595E1,7.014627E1,1.1076446E2,4.324983E1,4.2901535E1,4.3606415E0,9.584653E1,4.0746338E1,2.4923904E1,0E0,3.8831177E0,0E0,0E0,0E0,0E0,0E0,0E0,0E0,0E0,0E0,0E0,0E0,0E0,0E0,0E0,0E0,0E0,0E0,0E0,0E0,0E0,0E0,0E0,0E0,0E0,0E0,0E0,0E0,0E0,0E0,0E0],"parents":[2147483647,0,0,1,1,2,2,3,3,4,4,5,5,6,6,7,7,8,8,9,9,10,10,11,11,12,12,13,13,14,14,15,15,16,16,17,17,18,18,19,19,20,20,21,21,22,22,23,23,24,24,25,25,26,26,27,27,28,28,30,30],"right_children":[2,4,6,8,10,12,14,16,18,20,22,24,26,28,30,32,34,36,38,40,42,44,46,48,50,52,54,56,58,-1,60,-1,-1,-1,-1,-1,-1,-1,-1,-1,-1,-1,-1,-1,-1,-1,-1,-1,-1,-1,-1,-1,-1,-1,-1,-1,-1,-1,-1,-1,-1],"split_conditions":[2.5881904E-1,9E0,-2.5881904E-1,5E0,1E1,1.2E1,5E-1,4.5E0,8E0,5E0,1.2E1,2E1,5E0,4E0,3E0,7E0,2.01E1,1.2E1,1.2E1,2.52E1,1.2E1,3.49E1,1E0,3.7E0,5.6E1,2.8327693E-16,2E1,1E0,1.1E1,-6.0883082E-2,3E0,-4.9597985E-4,2.8981525E-2,4.719464E-2,1.1487066E-2,-5.3296257E-2,-1.7522074E-2,-2.3827208E-2,2.6287938E-2,4.87774E-3,-3.2258578E-2,-2.3345048E-2,3.4633913E-4,2.4878284E-2,-5.866281E-2,-5.2614342E-3,4.7897454E-2,-5.4298984E-3,4.2889852E-2,-1.6052555E-2,6.587632E-2,-4.6894994E-2,-6.844904E-2,5.713823E-2,-6.569356E-2,-5.9418835E-2,-3.0073417E-2,-3.6019236E-2,-7.3652375E-3,-4.887912E-2,-5.8103975E-2],"split_indices":[5,0,4,2,10,10,4,31,0,2,10,0,2,2,2,0,29,10,10,32,0,30,24,29,31,7,0,7,10,0,0,0,0,0,0,0,0,0,0,0,0,0,0,0,0,0,0,0,0,0,0,0,0,0,0,0,0,0,0,0,0],"split_type":[0,0,0,0,0,0,0,0,0,0,0,0,0,0,0,0,0,0,0,0,0,0,0,0,0,0,0,0,0,0,0,0,0,0,0,0,0,0,0,0,0,0,0,0,0,0,0,0,0,0,0,0,0,0,0,0,0,0,0,0,0],"sum_hessian":[2.1556895E4,1.646996E4,5.086932E3,4.9022964E3,1.1567665E4,2.6450818E3,2.4418503E3,4.5157227E3,3.8657385E2,9.021355E3,2.5463098E3,2.4630095E3,1.8207239E2,1.1415748E3,1.3002755E3,3.549777E3,9.659456E2,2.0041739E2,1.8615648E2,7.0517124E3,1.9696431E3,1.5237825E3,1.0225273E3,7.9904706E2,1.6639624E3,1.205097E2,6.156268E1,6.129043E2,5.2867053E2,5.468826E2,7.5339294E2,8.037092E2,2.7460679E3,9.144402E2,5.1505394E1,1.7404155E2,2.6375841E1,1.608907E2,2.5265768E1,6.9233647E3,1.2834746E2,5.079455E2,1.4616976E3,1.4991455E3,2.4636972E1,9.137794E2,1.0874786E2,7.506938E2,4.8353317E1,1.6487921E3,1.5170255E1,6.347043E1,5.7039272E1,3.01161E1,3.144658E1,4.4750027E2,1.65404E2,4.3611746E2,9.255308E1,2.0631648E2,5.470765E2],"tree_param":{"num_deleted":"0","num_feature":"34","num_nodes":"61","size_leaf_vector":"1"}},{"base_weights":[4.0685246E-4,-5.7817202E-2,6.272126E-1,-9.462407E-2,4.6606213E-1,2.8001422E-1,8.4798676E-1,-1.2636332E-1,4.8075852E-1,8.5804325E-1,2.3469254E-1,-1.0873867E-1,4.59224E-1,8.63306E-1,-7.897774E-1,-6.254802E-2,-3.409733E-1,2.3341016E-1,7.5103E-1,9.010986E-1,-1.2285403E-1,-1.3951164E-1,7.503809E-1,-1.0023147E-1,1.1934776E-1,4.8862073E-1,-1.02628365E-1,7.2223216E-1,9.434797E-1,4.2747553E-2,-1.3954918E-1,-4.8283334E-3,2.227492E-2,-1.2215275E-2,-5.1030677E-2,1.4540537E-2,-1.02699056E-1,4.186348E-2,-6.159481E-2,6.274154E-2,3.8477816E-2,2.672608E-3,-5.235652E-2,3.0222027E-2,5.588025E-2,-9.541207E-2,1.238838E-2,2.5687119E-2,-9.669938E-2,3.9035525E-2,-1.74544E-1,4.827447E-2,-1.084605E-1],"categories":[],"categories_nodes":[],"categories_segments":[],"categories_sizes":[],"default_left":[0,0,0,0,0,0,0,0,0,0,0,0,0,0,0,0,0,0,0,0,0,0,0,0,0,0,0,0,0,0,0,0,0,0,0,0,0,0,0,0,0,0,0,0,0,0,0,0,0,0,0,0,0],"id":26,"left_children":[1,3,5,7,9,11,13,15,17,19,21,23,25,27,29,31,33,35,37,39,-1,41,43,-1,45,47,-1,49,51,-1,-1,-1,-1,-1,-1,-1,-1,-1,-1,-1,-1,-1,-1,-1,-1,-1,-1,-1,-1,-1,-1,-1,-1],"loss_changes":[7.770567E2,3.757094E2,1.3848163E2,3.3251013E2,1.1580417E2,4.91619E1,2.8424866E1,2.3626993E2,6.34599E1,6.992578E1,1.5558612E2,9.677373E1,3.6644814E1,1.1714905E1,3.7833447E1,2.2990897E2,2.5954245E2,6.604584E1,7.873984E1,2.085913E1,0E0,8.197696E1,1.749054E1,0E0,5.260396E1,3.008001E1,0E0,1.01626816E2,4.9747864E1,0E0,0E0,0E0,0E0,0E0,0E0,0E0,0E0,0E0,0E0,0E0,0E0,0E0,0E0,0E0,0E0,0E0,0E0,0E0,0E0,0E0,0E0,0E0,0E0],"parents":[2147483647,0,0,1,1,2,2,3,3,4,4,5,5,6,6,7,7,8,8,9,9,10,10,11,11,12,12,13,13,14,14,15,15,16,16,17,17,18,18,19,19,21,21,22,22,24,24,25,25,27,27,28,28],"right_children":[2,4,6,8,10,12,14,16,18,20,22,24,26,28,30,32,34,36,38,40,-1,42,44,-1,46,48,-1,50,52,-1,-1,-1,-1,-1,-1,-1,-1,-1,-1,-1,-1,-1,-1,-1,-1,-1,-1,-1,-1,-1,-1,-1,-1],"split_conditions":[4.3E0,1E0,8.660254E-1,1.39E1,1.96E1,-5E-1,4.13E1,5E0,8.660254E-1,3.32E1,9.659258E-1,1.73E1,3.06E1,2.8327693E-16,-1.8369701E-16,1E0,8.660254E-1,1E0,5E0,6.4E0,-1.2285403E-1,4E0,1E0,-1.0023147E-1,3E0,3.21E1,-1.02628365E-1,1E0,1E0,4.2747553E-2,-1.3954918E-1,-4.8283334E-3,2.227492E-2,-1.2215275E-2,-5.1030677E-2,1.4540537E-2,-1.02699056E-1,4.186348E-2,-6.159481E-2,6.274154E-2,3.8477816E-2,2.672608E-3,-5.235652E-2,3.0222027E-2,5.588025E-2,-9.541207E-2,1.238838E-2,2.5687119E-2,-9.669938E-2,3.9035525E-2,-1.74544E-1,4.827447E-2,-1.084605E-1],"split_indices":[33,13,4,31,27,4,30,2,4,29,4,33,30,7,7,24,4,23,2,27,0,2,6,0,10,31,0,16,4,0,0,0,0,0,0,0,0,0,0,0,0,0,0,0,0,0,0,0,0,0,0,0,0],"split_type":[0,0,0,0,0,0,0,0,0,0,0,0,0,0,0,0,0,0,0,0,0,0,0,0,0,0,0,0,0,0,0,0,0,0,0,0,0,0,0,0,0,0,0,0,0,0,0,0,0,0,0,0,0],"sum_hessian":[2.1290047E4,1.9481332E4,1.8087152E3,1.8203223E4,1.2781082E3,7.039397E2,1.1047755E3,1.725233E4,9.508926E2,4.733911E2,8.0471704E2,2.222388E2,4.8170087E2,1.095006E3,9.769536E0,1.3299077E4,3.9532534E3,4.9747482E2,4.5341772E2,4.680406E2,5.350519E0,4.667523E2,3.3796475E2,2.3029018E1,1.9920978E2,4.7692465E2,4.7762136E0,4.0042526E2,6.9458075E2,5.676764E0,4.0927715E0,1.246522E4,8.3385767E2,3.4621748E3,4.9107855E2,4.8614813E2,1.1326698E1,4.350737E2,1.8344036E1,1.2455604E2,3.4348456E2,3.8569327E2,8.105901E1,2.4374342E2,9.422133E1,1.10401535E1,1.8816963E2,4.7280972E2,4.114941E0,3.9574698E2,4.678304E0,6.903889E2,4.191867E0],"tree_param":{"num_deleted":"0","num_feature":"34","num_nodes":"53","size_leaf_vector":"1"}},{"base_weights":[-1.4082823E-2,1.7609492E-1,-6.440127E-1,1.0058069E-1,4.7427195E-1,-3.059468E-1,-1.0170667E0,4.074368E-2,3.0597535E-1,5.6711566E-1,-1.0741231E0,-2.8959504E-1,-7.517417E-2,-9.213728E-1,-1.1686666E0,8.9414455E-3,4.2850497E-1,4.97462E-1,1.4666053E-2,7.316245E-1,2.2947478E-1,-5.9884895E-2,-2.8027403E-1,-2.7264968E-1,-7.299524E-2,-1.09182E0,-7.203509E-1,-5.985233E-2,-1.0800517E0,-7.6665E-4,1.5798634E-2,2.3161514E-2,-1.21837094E-1,2.6103077E-2,-6.955749E-2,-7.085433E-2,