{"learner":{"attributes":{"scikit_learn":"{\"_estimator_type\": \"classifier\"}"},"feature_names":["hour","minute","day_of_week","is_weekend","hour_sin","hour_cos","minute_sin","minute_cos","day_sin","day_cos","month","month_sin","month_cos","arrivals_t_minus_1","arrivals_t_minus_2","arrivals_t_minus_3","arrivals_1h_ago","arrivals_24h_ago","arrivals_48h_ago","arrivals_1w_ago","departures_t_minus_1","departures_t_minus_2","departures_t_minus_3","departures_1h_ago","departures_24h_ago","departures_48h_ago","departures_1w_ago","energy_t_minus_1","energy_t_minus_2","energy_t_minus_3","energy_1h_ago","energy_24h_ago","energy_48h_ago","energy_1w_ago"],"feature_types":["int","int","int","int","float","float","float","float","float","float","int","float","float","float","float","float","float","float","float","float","float","float","float","float","float","float","float","float","float","float","float","float","float","float"],"gradient_booster":{"model":{"gbtree_model_param":{"num_parallel_tree":"1","num_trees":"400"},"iteration_indptr":[0,1,2,3,4,5,6,7,8,9,10,11,12,13,14,15,16,17,18,19,20,21,22,23,24,25,26,27,28,29,30,31,32,33,34,35,36,37,38,39,40,41,42,43,44,45,46,47,48,49,50,51,52,53,54,55,56,57,58,59,60,61,62,63,64,65,66,67,68,69,70,71,72,73,74,75,76,77,78,79,80,81,82,83,84,85,86,87,88,89,90,91,92,93,94,95,96,97,98,99,100,101,102,103,104,105,106,107,108,109,110,111,112,113,114,115,116,117,118,119,120,121,122,123,124,125,126,127,128,129,130,131,132,133,134,135,136,137,138,139,140,141,142,143,144,145,146,147,148,149,150,151,152,153,154,155,156,157,158,159,160,161,162,163,164,165,166,167,168,169,170,171,172,173,174,175,176,177,178,179,180,181,182,183,184,185,186,187,188,189,190,191,192,193,194,195,196,197,198,199,200,201,202,203,204,205,206,207,208,209,210,211,212,213,214,215,216,217,218,219,220,221,222,223,224,225,226,227,228,229,230,231,232,233,234,235,236,237,238,239,240,241,242,243,244,245,246,247,248,249,250,251,252,253,254,255,256,257,258,259,260,261,262,263,264,265,266,267,268,269,270,271,272,273,274,275,276,277,278,279,280,281,282,283,284,285,286,287,288,289,290,291,292,293,294,295,296,297,298,299,300,301,302,303,304,305,306,307,308,309,310,311,312,313,314,315,316,317,318,319,320,321,322,323,324,325,326,327,328,329,330,331,332,333,334,335,336,337,338,339,340,341,342,343,344,345,346,347,348,349,350,351,352,353,354,355,356,357,358,359,360,361,362,363,364,365,366,367,368,369,370,371,372,373,374,375,376,377,378,379,380,381,382,383,384,385,386,387,388,389,390,391,392,393,394,395,396,397,398,399,400],"tree_info":[0,0,0,0,0,0,0,0,0,0,0,0,0,0,0,0,0,0,0,0,0,0,0,0,0,0,0,0,0,0,0,0,0,0,0,0,0,0,0,0,0,0,0,0,0,0,0,0,0,0,0,0,0,0,0,0,0,0,0,0,0,0,0,0,0,0,0,0,0,0,0,0,0,0,0,0,0,0,0,0,0,0,0,0,0,0,0,0,0,0,0,0,0,0,0,0,0,0,0,0,0,0,0,0,0,0,0,0,0,0,0,0,0,0,0,0,0,0,0,0,0,0,0,0,0,0,0,0,0,0,0,0,0,0,0,0,0,0,0,0,0,0,0,0,0,0,0,0,0,0,0,0,0,0,0,0,0,0,0,0,0,0,0,0,0,0,0,0,0,0,0,0,0,0,0,0,0,0,0,0,0,0,0,0,0,0,0,0,0,0,0,0,0,0,0,0,0,0,0,0,0,0,0,0,0,0,0,0,0,0,0,0,0,0,0,0,0,0,0,0,0,0,0,0,0,0,0,0,0,0,0,0,0,0,0,0,0,0,0,0,0,0,0,0,0,0,0,0,0,0,0,0,0,0,0,0,0,0,0,0,0,0,0,0,0,0,0,0,0,0,0,0,0,0,0,0,0,0,0,0,0,0,0,0,0,0,0,0,0,0,0,0,0,0,0,0,0,0,0,0,0,0,0,0,0,0,0,0,0,0,0,0,0,0,0,0,0,0,0,0,0,0,0,0,0,0,0,0,0,0,0,0,0,0,0,0,0,0,0,0,0,0,0,0,0,0,0,0,0,0,0,0,0,0,0,0,0,0,0,0,0,0,0,0,0,0,0,0,0,0,0,0,0,0,0,0,0,0,0,0,0,0,0,0,0,0,0,0,0,0,0,0,0,0,0,0,0,0,0,0],"trees":[{"base_weights":[-1.0068155E-2,5.732322E-1,-1.2809219E0,2.500355E-1,1.7107866E0,-1.4694544E0,1.6937261E0,-1.0689129E-1,1.6387103E0,1.7643435E0,1.4064802E0,-1.6409285E0,1.6485794E0,1.7663046E0,6.3217753E-1,-5.386352E-1,1.5499467E0,1.7383866E0,1.0882821E0,1.7936623E0,1.06948E0,1.6343883E0,9.233283E-1,-1.7592661E0,1.4100863E0,1.7774273E0,-6.379081E-1,1.7836422E0,-6.666667E-2,1.4933894E0,-8.857143E-2,-4.471364E-2,7.0207275E-2,8.290549E-2,1.7188095E-3,9.095257E-2,6.009787E-2,6.1671972E-2,-2.3430087E-2,8.9744866E-2,-5E-2,6.0137082E-2,-8.461539E-2,8.254777E-2,-6.363636E-2,1.7090878E-2,9.357505E-2,-9.215188E-2,5.7359297E-2,7.776187E-2,-2.4811855E-2,9.3836546E-2,1.5316851E-2,-9.310345E-2,8.706162E-2,8.9618556E-2,-5E-2,8.236863E-2,-5E-2],"categories":[],"categories_nodes":[],"categories_segments":[],"categories_sizes":[],"default_left":[0,0,0,0,0,0,0,0,0,0,0,0,0,0,0,0,0,0,0,0,0,0,0,0,0,0,0,0,0,0,0,0,0,0,0,0,0,0,0,0,0,0,0,0,0,0,0,0,0,0,0,0,0,0,0,0,0,0,0],"id":0,"left_children":[1,3,5,7,9,11,13,15,17,19,21,23,25,27,29,31,33,35,37,39,41,43,45,47,49,51,53,55,-1,57,-1,-1,-1,-1,-1,-1,-1,-1,-1,-1,-1,-1,-1,-1,-1,-1,-1,-1,-1,-1,-1,-1,-1,-1,-1,-1,-1,-1,-1],"loss_changes":[1.8440514E4,6.2682266E3,4.3913643E3,6.5820435E3,5.8998047E1,3.937789E3,3.485608E1,7.558189E3,1.4708105E2,6.3350586E1,6.119922E1,2.5214492E3,1.1430945E2,2.5834106E1,6.772011E1,5.792366E3,3.5799463E2,9.721973E1,9.526666E1,1.2396484E1,5.068451E1,2.0675293E1,1.0126987E2,1.6374902E3,7.300702E1,5.258911E1,6.507054E1,1.2348877E1,0E0,1.0741692E1,0E0,0E0,0E0,0E0,0E0,0E0,0E0,0E0,0E0,0E0,0E0,0E0,0E0,0E0,0E0,0E0,0E0,0E0,0E0,0E0,0E0,0E0,0E0,0E0,0E0,0E0,0E0,0E0,0E0],"parents":[2147483647,0,0,1,1,2,2,3,3,4,4,5,5,6,6,7,7,8,8,9,9,10,10,11,11,12,12,13,13,14,14,15,15,16,16,17,17,18,18,19,19,20,20,21,21,22,22,23,23,24,24,25,25,26,26,27,27,29,29],"right_children":[2,4,6,8,10,12,14,16,18,20,22,24,26,28,30,32,34,36,38,40,42,44,46,48,50,52,54,56,-1,58,-1,-1,-1,-1,-1,-1,-1,-1,-1,-1,-1,-1,-1,-1,-1,-1,-1,-1,-1,-1,-1,-1,-1,-1,-1,-1,-1,-1,-1],"split_conditions":[6.123234E-17,4.5E0,3.7E0,5.1E0,1E0,3.4E0,1E0,1E0,1E0,5.52E1,1E1,1E0,1E0,7.01E1,1.5E1,1.34E1,4.37E1,1E0,1.6E1,6.25E1,9.749279E-1,4.49E1,8.6E0,1.04E1,4.98E1,1E0,1E0,3.4E0,-6.666667E-2,5E0,-8.857143E-2,-4.471364E-2,7.0207275E-2,8.290549E-2,1.7188095E-3,9.095257E-2,6.009787E-2,6.1671972E-2,-2.3430087E-2,8.9744866E-2,-5E-2,6.0137082E-2,-8.461539E-2,8.254777E-2,-6.363636E-2,1.7090878E-2,9.357505E-2,-9.215188E-2,5.7359297E-2,7.776187E-2,-2.4811855E-2,9.3836546E-2,1.5316851E-2,-9.310345E-2,8.706162E-2,8.9618556E-2,-5E-2,8.236863E-2,-5E-2],"split_indices":[5,28,28,29,20,29,20,13,20,28,0,13,20,28,1,30,27,21,0,29,8,32,29,30,27,21,13,29,0,2,0,0,0,0,0,0,0,0,0,0,0,0,0,0,0,0,0,0,0,0,0,0,0,0,0,0,0,0,0],"split_type":[0,0,0,0,0,0,0,0,0,0,0,0,0,0,0,0,0,0,0,0,0,0,0,0,0,0,0,0,0,0,0,0,0,0,0,0,0,0,0,0,0,0,0,0,0,0,0,0,0,0,0,0,0,0,0,0,0,0,0],"sum_hessian":[2.4874275E4,1.7049428E4,7.824849E3,1.3278127E4,3.7713003E3,7.358947E3,4.6590234E2,1.05638545E4,2.714272E3,3.2028164E3,5.684839E2,6.9757915E3,3.8315503E2,4.354655E2,3.0436829E1,8.380669E3,2.1831855E3,2.2962827E3,4.1798926E2,3.0716323E3,1.3118414E2,3.8465503E2,1.8382886E2,6.7157363E3,2.600551E2,3.629261E2,2.0228943E1,4.334655E2,2E0,2.2686829E1,7.75E0,7.0843726E3,1.2962966E3,2.0376672E3,1.4551837E2,1.9940408E3,3.0224194E2,3.8253137E2,3.5457886E1,3.0706323E3,1E0,1.2568414E2,5.5E0,3.8290503E2,1.75E0,1.1478943E2,6.903943E1,6.5279497E3,1.8778674E2,2.4182617E2,1.8228943E1,3.397182E2,2.3207886E1,1.35E1,6.728943E0,4.324655E2,1E0,2.1686829E1,1E0],"tree_param":{"num_deleted":"0","num_feature":"34","num_nodes":"59","size_leaf_vector":"1"}},{"base_weights":[-9.433216E-3,5.557016E-1,-1.2585036E0,2.4477263E-1,1.6311854E0,-1.414162E0,1.5933896E0,-9.936591E-2,1.5597711E0,1.646653E0,1.1620646E0,-1.5542359E0,1.4956666E0,-6.276227E-2,1.6071528E0,-5.2085817E-1,1.4990382E0,1.6287376E0,1.0461816E0,1.6478916E0,-5.6821804E-2,1.2802918E0,-8.348649E-2,-1.6798413E0,1.399001E0,-8.141076E-2,1.5377771E0,1.6204526E0,-5.815239E-2,-4.2585265E-2,6.079817E-2,8.000351E-2,-1.5107746E-3,8.170258E-2,-8.034121E-2,-8.490091E-2,5.511133E-2,7.130445E-2,8.307904E-2,7.429054E-2,-1.0092923E-2,-8.739137E-2,4.506955E-2,7.5890295E-2,-2.0589815E-2,7.848926E-2,-7.52838E-2,8.16919E-2,-5.8039404E-2],"categories":[],"categories_nodes":[],"categories_segments":[],"categories_sizes":[],"default_left":[0,0,0,0,0,0,0,0,0,0,0,0,0,0,0,0,0,0,0,0,0,0,0,0,0,0,0,0,0,0,0,0,0,0,0,0,0,0,0,0,0,0,0,0,0,0,0,0,0],"id":1,"left_children":[1,3,5,7,9,11,13,15,17,19,21,23,25,-1,27,29,31,33,35,37,-1,39,-1,41,43,-1,45,47,-1,-1,-1,-1,-1,-1,-1,-1,-1,-1,-1,-1,-1,-1,-1,-1,-1,-1,-1,-1,-1],"loss_changes":[1.7604236E4,5.741348E3,3.4509072E3,6.0283496E3,2.602832E1,3.00508E3,1.7799438E1,7.114334E3,9.616504E1,1.4712891E1,4.442421E1,2.6097832E3,4.70802E1,0E0,1.66604E1,4.80267E3,3.4050342E2,4.4478516E1,5.2610413E1,8.9375E0,0E0,3.7404327E1,0E0,1.184875E3,6.2434814E1,0E0,3.498468E1,1.6770874E1,0E0,0E0,0E0,0E0,0E0,0E0,0E0,0E0,0E0,0E0,0E0,0E0,0E0,0E0,0E0,0E0,0E0,0E0,0E0,0E0,0E0],"parents":[2147483647,0,0,1,1,2,2,3,3,4,4,5,5,6,6,7,7,8,8,9,9,10,10,11,11,12,12,14,14,15,15,16,16,17,17,18,18,19,19,21,21,23,23,24,24,26,26,27,27],"right_children":[2,4,6,8,10,12,14,16,18,20,22,24,26,-1,28,30,32,34,36,38,-1,40,-1,42,44,-1,46,48,-1,-1,-1,-1,-1,-1,-1,-1,-1,-1,-1,-1,-1,-1,-1,-1,-1,-1,-1,-1,-1],"split_conditions":[6.123234E-17,4E0,4.3E0,1E0,5.81E1,4.3E0,2E0,1E0,1E0,6.39E1,3.4E0,1E0,7E0,-6.276227E-2,1E0,1E0,4.45E1,5.24E1,5.5E0,9.3E0,-5.6821804E-2,1.5E1,-8.348649E-2,1E0,4.98E1,-8.141076E-2,1.1E1,7.01E1,-5.815239E-2,-4.2585265E-2,6.079817E-2,8.000351E-2,-1.5107746E-3,8.170258E-2,-8.034121E-2,-8.490091E-2,5.511133E-2,7.130445E-2,8.307904E-2,7.429054E-2,-1.0092923E-2,-8.739137E-2,4.506955E-2,7.5890295E-2,-2.0589815E-2,7.848926E-2,-7.52838E-2,8.16919E-2,-5.8039404E-2],"split_indices":[5,28,28,15,28,29,0,13,21,31,32,13,0,0,15,16,27,27,29,28,0,0,0,16,27,0,10,28,0,0,0,0,0,0,0,0,0,0,0,0,0,0,0,0,0,0,0,0,0],"split_type":[0,0,0,0,0,0,0,0,0,0,0,0,0,0,0,0,0,0,0,0,0,0,0,0,0,0,0,0,0,0,0,0,0,0,0,0,0,0,0,0,0,0,0,0,0,0,0,0,0],"sum_hessian":[2.4936963E4,1.7169346E4,7.767618E3,1.3319751E4,3.8495942E3,7.366076E3,4.0154163E2,1.0557698E4,2.7620532E3,3.7242886E3,1.25305504E2,7.0282163E3,3.378599E2,1.4969922E0,4.0004465E2,8.355154E3,2.202544E3,2.4331501E3,3.2890305E2,3.7230396E3,1.2490171E0,1.208096E2,4.495907E0,6.741905E3,2.8631158E2,3.9928463E0,3.3386707E2,3.9854623E2,1.4983959E0,7.0186763E3,1.336478E3,2.0660046E3,1.3653934E2,2.4296545E3,3.4954422E0,5.9964194E0,3.2290662E2,2.225353E2,3.5005044E3,1.0609563E2,1.4713974E1,6.5692036E3,1.72701E2,2.6883533E2,1.7476254E1,3.308715E2,2.9955792E0,3.970479E2,1.4983345E0],"tree_param":{"num_deleted":"0","num_feature":"34","num_nodes":"49","size_leaf_vector":"1"}},{"base_weights":[1.2515848E-2,-1.6420631E0,3.23263E-1,-1.6893278E0,1.4205867E0,7.023326E-3,1.566579E0,-1.7252239E0,1.0893764E0,-6.883215E-2,1.5390074E0,-3.3925262E-1,1.4959441E0,1.6217526E0,1.219316E0,-1.738018E0,1.0257704E0,8.8245735E-2,-9.605948E-2,9.946814E-1,8.0367245E-2,-7.0680046E-1,1.4002658E0,1.5923471E0,9.521308E-1,1.647705E0,1.135335E0,1.4846375E0,7.25398E-1,-8.723592E-2,2.341333E-2,-7.034284E-2,7.472692E-2,7.441103E-2,-5.969727E-2,1.9344645E-2,-5.2326757E-2,7.4530125E-2,-2.4851035E-2,8.378822E-2,4.539202E-2,6.424489E-2,1.5995037E-2,8.6308576E-2,8.073761E-2,6.010543E-2,-7.884264E-2,7.697234E-2,-4.087603E-3,1.2677972E-2,8.165387E-2],"categories":[],"categories_nodes":[],"categories_segments":[],"categories_sizes":[],"default_left":[0,0,0,0,0,0,0,0,0,0,0,0,0,0,0,0,0,0,0,0,0,0,0,0,0,0,0,0,0,0,0,0,0,0,0,0,0,0,0,0,0,0,0,0,0,0,0,0,0,0,0],"id":2,"left_children":[1,3,5,7,9,11,13,15,17,-1,19,21,23,25,27,29,31,-1,-1,33,-1,35,37,39,41,43,45,47,49,-1,-1,-1,-1,-1,-1,-1,-1,-1,-1,-1,-1,-1,-1,-1,-1,-1,-1,-1,-1,-1,-1],"loss_changes":[1.2872458E4,5.754258E2,8.287362E3,3.9076953E2,2.2227509E1,8.66453E3,7.9913086E1,1.3727441E2,1.0576429E2,0E0,5.851898E-1,8.71832E3,1.6472168E2,4.4646484E1,7.623944E1,5.746582E1,2.3140852E1,0E0,0E0,1.1684658E1,0E0,4.183065E3,4.0843457E2,1.521914E2,1.0056677E2,6.2529297E0,3.6281113E1,3.299518E1,8.872404E1,0E0,0E0,0E0,0E0,0E0,0E0,0E0,0E0,0E0,0E0,0E0,0E0,0E0,0E0,0E0,0E0,0E0,0E0,0E0,0E0,0E0,0E0],"parents":[2147483647,0,0,1,1,2,2,3,3,4,4,5,5,6,6,7,7,8,8,10,10,11,11,12,12,13,13,14,14,15,15,16,16,19,19,21,21,22,22,23,23,24,24,25,25,26,26,27,27,28,28],"right_children":[2,4,6,8,10,12,14,16,18,-1,20,22,24,26,28,30,32,-1,-1,34,-1,36,38,40,42,44,46,48,50,-1,-1,-1,-1,-1,-1,-1,-1,-1,-1,-1,-1,-1,-1,-1,-1,-1,-1,-1,-1,-1,-1],"split_conditions":[7E0,8.1E0,3.4E0,1E0,3E1,1E0,1E0,1E0,1.68E1,-6.883215E-2,-5E-1,1E0,1E0,5.52E1,1E1,1E0,8E0,8.8245735E-2,-9.605948E-2,3.49E1,8.0367245E-2,1E1,4.74E1,1E0,1.2E1,2.11E1,3.4E0,2.65E1,1E0,-8.723592E-2,2.341333E-2,-7.034284E-2,7.472692E-2,7.441103E-2,-5.969727E-2,1.9344645E-2,-5.2326757E-2,7.4530125E-2,-2.4851035E-2,8.378822E-2,4.539202E-2,6.424489E-2,1.5995037E-2,8.6308576E-2,8.073761E-2,6.010543E-2,-7.884264E-2,7.697234E-2,-4.087603E-3,1.2677972E-2,8.165387E-2],"split_indices":[0,28,28,13,1,15,20,15,27,0,12,13,20,28,0,21,10,0,0,28,0,0,27,21,0,28,32,27,15,0,0,0,0,0,0,0,0,0,0,0,0,0,0,0,0,0,0,0,0,0,0],"split_type":[0,0,0,0,0,0,0,0,0,0,0,0,0,0,0,0,0,0,0,0,0,0,0,0,0,0,0,0,0,0,0,0,0,0,0,0,0,0,0,0,0,0,0,0,0,0,0,0,0,0,0],"sum_hessian":[2.5034078E4,3.9575806E3,2.1076498E4,3.8978745E3,5.9706013E1,1.6803502E4,4.272995E3,3.8485374E3,4.9337276E1,1.9934504E0,5.7712563E1,1.3633543E4,3.1699592E3,3.6840056E3,5.8898944E2,3.8310881E3,1.7449148E1,4.0633354E1,8.703921E0,8.172423E0,4.9540142E1,1.12558545E4,2.3776885E3,2.6909932E3,4.7896616E2,3.4951382E3,1.8886751E2,3.818581E2,2.0713135E2,3.8196973E3,1.1390978E1,2.495872E0,1.4953277E1,6.929769E0,1.2426538E0,2.6677004E3,8.588154E3,2.2698281E3,1.0786033E2,2.3973875E3,2.9360565E2,3.1312442E2,1.6584172E2,1.01850586E3,2.4766323E3,1.8487274E2,3.9947639E0,3.689649E2,1.2893187E1,1.3712767E2,7.000367E1],"tree_param":{"num_deleted":"0","num_feature":"34","num_nodes":"51","size_leaf_vector":"1"}},{"base_weights":[-9.755177E-3,5.069119E-1,-1.1586514E0,2.2513081E-1,1.4902722E0,-1.3159817E0,1.4635942E0,-8.465105E-2,1.4160621E0,1.5109255E0,9.9097836E-1,-1.4687679E0,1.4391869E0,1.4760076E0,-6.412981E-2,-4.6415326E-1,1.3665316E0,1.4198956E0,-7.778498E-2,1.4910798E0,1.6098114E0,1.181235E0,-5.167116E-1,-1.5673395E0,1.182008E0,1.2525152E0,1.6403115E0,1.4880066E0,-5.9033185E-2,-4.0582545E-2,6.476456E-2,7.767385E-2,4.1857757E-2,7.114234E-2,-7.540676E-2,6.401737E-2,7.527108E-2,8.12361E-2,5.9494317E-2,6.1512E-2,-7.103843E-2,7.3124014E-2,-9.481886E-2,-8.154207E-2,5.1224437E-2,7.907357E-2,2.861613E-2,6.367957E-2,-5.9330642E-2,5.7155993E-2,8.401258E-2,7.499426E-2,-5.7460368E-2],"categories":[],"categories_nodes":[],"categories_segments":[],"categories_sizes":[],"default_left":[0,0,0,0,0,0,0,0,0,0,0,0,0,0,0,0,0,0,0,0,0,0,0,0,0,0,0,0,0,0,0,0,0,0,0,0,0,0,0,0,0,0,0,0,0,0,0,0,0,0,0,0,0],"id":3,"left_children":[1,3,5,7,9,11,13,15,17,19,21,23,25,27,-1,29,31,33,-1,35,37,39,41,43,45,47,49,51,-1,-1,-1,-1,-1,-1,-1,-1,-1,-1,-1,-1,-1,-1,-1,-1,-1,-1,-1,-1,-1,-1,-1,-1,-1],"loss_changes":[1.4635596E4,4.712294E3,3.1573242E3,4.877582E3,3.7563477E1,3.0396904E3,1.6667175E1,5.7791416E3,3.329883E1,4.734375E0,4.4603302E1,1.7883896E3,1.2198669E1,1.5524719E1,0E0,5.086791E3,2.1398267E2,2.5702148E1,0E0,7.26416E0,1.7928467E0,1.9151413E1,5.1598553E1,1.0867246E3,5.8936188E1,1.1850525E1,1.6440735E0,1.5206604E1,0E0,0E0,0E0,0E0,0E0,0E0,0E0,0E0,0E0,0E0,0E0,0E0,0E0,0E0,0E0,0E0,0E0,0E0,0E0,0E0,0E0,0E0,0E0,0E0,0E0],"parents":[2147483647,0,0,1,1,2,2,3,3,4,4,5,5,6,6,7,7,8,8,9,9,10,10,11,11,12,12,13,13,15,15,16,16,17,17,19,19,20,20,21,21,22,22,23,23,24,24,25,25,26,26,27,27],"right_children":[2,4,6,8,10,12,14,16,18,20,22,24,26,28,-1,30,32,34,-1,36,38,40,42,44,46,48,50,52,-1,-1,-1,-1,-1,-1,-1,-1,-1,-1,-1,-1,-1,-1,-1,-1,-1,-1,-1,-1,-1,-1,-1,-1,-1],"split_conditions":[6.123234E-17,3.4E0,3.7E0,1E0,5.52E1,1E0,3.4E0,1E0,5.63E1,8.6E0,1.5E1,1E0,4.77E1,1E0,-6.412981E-2,1.22E1,3E1,5.855E1,-7.778498E-2,9.3E0,2.47E1,1E0,-8.660254E-1,1.58E1,2.56E1,4.65E1,1.5E1,7.01E1,-5.9033185E-2,-4.0582545E-2,6.476456E-2,7.767385E-2,4.1857757E-2,7.114234E-2,-7.540676E-2,6.401737E-2,7.527108E-2,8.12361E-2,5.9494317E-2,6.1512E-2,-7.103843E-2,7.3124014E-2,-9.481886E-2,-8.154207E-2,5.1224437E-2,7.907357E-2,2.861613E-2,6.367957E-2,-5.9330642E-2,5.7155993E-2,8.401258E-2,7.499426E-2,-5.7460368E-2],"split_indices":[5,28,28,15,28,15,33,13,27,29,0,13,29,15,0,30,27,33,0,28,27,25,11,30,27,29,1,28,0,0,0,0,0,0,0,0,0,0,0,0,0,0,0,0,0,0,0,0,0,0,0,0,0],"split_type":[0,0,0,0,0,0,0,0,0,0,0,0,0,0,0,0,0,0,0,0,0,0,0,0,0,0,0,0,0,0,0,0,0,0,0,0,0,0,0,0,0,0,0,0,0,0,0,0,0,0,0,0,0],"sum_hessian":[2.4653799E4,1.7006438E4,7.647361E3,1.3219601E4,3.7868364E3,7.2149727E3,4.323882E2,1.0491507E4,2.7280938E3,3.6344695E3,1.5236679E2,6.8363345E3,3.786379E2,4.3090295E2,1.4852444E0,8.317149E3,2.1743574E3,2.7251006E3,2.993125E0,3.0403665E3,5.9410297E2,1.354862E2,1.6880587E1,6.5916274E3,2.4470728E2,2.0012312E2,1.785148E2,4.2940344E2,1.4995209E0,6.9458535E3,1.3712961E3,1.6054646E3,5.6889276E2,2.7228704E3,2.2302248E0,1.9948418E2,2.8408823E3,5.709603E2,2.3142641E1,1.3349913E2,1.9870713E0,6.9091196E0,9.971466E0,6.4343516E3,1.57276E2,1.468789E2,9.782836E1,1.9888245E2,1.240669E0,1.5476589E1,1.6303821E2,4.2790732E2,1.496125E0],"tree_param":{"num_deleted":"0","num_feature":"34","num_nodes":"53","size_leaf_vector":"1"}},{"base_weights":[1.0322212E-2,-1.5131128E0,2.916999E-1,-1.5683978E0,1.3730175E0,5.467863E-3,1.4349484E0,-1.6023548E0,9.4439447E-1,1.4817156E0,-7.161072E-2,-3.1393945E-1,1.3783422E0,1.4880576E0,1.1164047E0,-1.6208159E0,7.752562E-2,7.9428464E-2,-3.6672318E-1,4.828462E-2,7.650146E-2,-6.8659294E-1,1.3115394E0,1.4713699E0,8.6641145E-1,1.4899684E0,6.346424E-1,1.3798468E0,5.179404E-1,-8.1675835E-2,7.173889E-2,-9.430238E-2,8.6370386E-2,-4.9261756E-2,5.977099E-2,7.1334444E-2,1.6116366E-2,7.755676E-2,4.38869E-2,6.507726E-2,1.1179688E-2,7.191505E-2,7.616694E-2,-7.901793E-2,7.459942E-2,6.984603E-2,-7.320471E-2,1.1580905E-2,7.4352145E-2],"categories":[],"categories_nodes":[],"categories_segments":[],"categories_sizes":[],"default_left":[0,0,0,0,0,0,0,0,0,0,0,0,0,0,0,0,0,0,0,0,0,0,0,0,0,0,0,0,0,0,0,0,0,0,0,0,0,0,0,0,0,0,0,0,0,0,0,0,0],"id":4,"left_children":[1,3,5,7,9,11,13,15,17,19,-1,21,23,25,27,29,-1,-1,31,-1,-1,33,35,37,39,41,43,45,47,-1,-1,-1,-1,-1,-1,-1,-1,-1,-1,-1,-1,-1,-1,-1,-1,-1,-1,-1,-1],"loss_changes":[1.0628084E4,6.1892285E2,6.8484297E3,3.251797E2,2.443814E1,7.340444E3,6.923242E1,2.2037988E2,4.383085E1,2.9122925E-1,0E0,8.226958E3,1.4919238E2,4.9067383E0,9.432861E1,1.4677832E2,0E0,0E0,5.951762E1,0E0,0E0,6.210752E3,2.8807373E2,1.2517139E2,1.3628839E2,3.9814453E0,2.0890858E1,2.234076E1,5.1226562E1,0E0,0E0,0E0,0E0,0E0,0E0,0E0,0E0,0E0,0E0,0E0,0E0,0E0,0E0,0E0,0E0,0E0,0E0,0E0,0E0],"parents":[2147483647,0,0,1,1,2,2,3,3,4,4,5,5,6,6,7,7,8,8,9,9,11,11,12,12,13,13,14,14,15,15,18,18,21,21,22,22,23,23,24,24,25,25,26,26,27,27,28,28],"right_children":[2,4,6,8,10,12,14,16,18,20,-1,22,24,26,28,30,-1,-1,32,-1,-1,34,36,38,40,42,44,46,48,-1,-1,-1,-1,-1,-1,-1,-1,-1,-1,-1,-1,-1,-1,-1,-1,-1,-1,-1,-1],"split_conditions":[7E0,1E0,1E0,3.4E0,2.8327693E-16,3.4E0,1E0,3.5E1,1.68E1,2E0,-7.161072E-2,3.4E0,1E0,5.81E1,1E1,3.52E1,7.752562E-2,7.9428464E-2,5.96E1,4.828462E-2,7.650146E-2,1.22E1,4.11E1,1E0,1E1,1.1E1,1.4E1,4.52E1,1.04E1,-8.1675835E-2,7.173889E-2,-9.430238E-2,8.6370386E-2,-4.9261756E-2,5.977099E-2,7.1334444E-2,1.6116366E-2,7.755676E-2,4.38869E-2,6.507726E-2,1.1179688E-2,7.191505E-2,7.616694E-2,-7.901793E-2,7.459942E-2,6.984603E-2,-7.320471E-2,1.1580905E-2,7.4352145E-2],"split_indices":[0,14,14,27,7,29,20,29,27,2,0,27,20,27,0,30,0,0,27,0,0,30,27,21,0,0,0,32,29,0,0,0,0,0,0,0,0,0,0,0,0,0,0,0,0,0,0,0,0],"split_type":[0,0,0,0,0,0,0,0,0,0,0,0,0,0,0,0,0,0,0,0,0,0,0,0,0,0,0,0,0,0,0,0,0,0,0,0,0,0,0,0,0,0,0,0,0,0,0,0,0],"sum_hessian":[2.4791678E4,3.8644414E3,2.0927236E4,3.7922556E3,7.2185684E1,1.6737676E4,4.189561E3,3.7420493E3,5.0206306E1,6.994715E1,2.2385306E0,1.3579172E4,3.1585034E3,3.5877263E3,6.018348E2,3.7207488E3,2.1300419E1,3.3523846E1,1.6682459E1,7.785081E0,6.2162075E1,1.1047114E4,2.5320576E3,2.6712168E3,4.8728647E2,3.578967E3,8.759223E0,4.169771E2,1.848577E2,3.7058108E3,1.4938054E1,9.725687E0,6.956772E0,9.534615E3,1.5124987E3,2.2676492E3,2.6440842E2,2.353384E3,3.178328E2,2.899738E2,1.973127E2,1.4217609E3,2.1572063E3,2.2089536E0,6.5502696E0,4.1499448E2,1.9826229E0,1.4365398E2,4.1203712E1],"tree_param":{"num_deleted":"0","num_feature":"34","num_nodes":"49","size_leaf_vector":"1"}},{"base_weights":[1.9981807E-2,4.9281284E-1,-1.0417641E0,2.3960535E-1,1.3900143E0,-1.1910186E0,1.3603605E0,-4.2582843E-2,1.3221542E0,1.443302E0,1.0765481E0,-1.3286259E0,1.3114587E0,1.378213E0,-7.608679E-2,-3.9973614E-1,1.2751493E0,1.418206E0,8.002801E-1,1.4665602E0,9.79779E-1,1.3026974E0,4.9376476E-1,-1.4308946E0,1.172732E0,1.4406128E0,-9.6240066E-2,1.4393429E0,5.0069714E-1,-3.422536E-2,5.7994455E-2,6.395515E-2,-8.423243E-2,7.436256E-2,4.6592377E-2,5.5741914E-2,1.1356279E-2,7.6829076E-2,7.183547E-2,5.210362E-2,-8.405688E-2,6.6880934E-2,2.6725745E-2,2.3199357E-3,7.506434E-2,-7.515665E-2,5.0374575E-2,1.7452557E-2,6.372286E-2,7.685328E-2,-2.783528E-2,7.278414E-2,-6.413683E-2,6.194063E-2,-9.073271E-2],"categories":[],"categories_nodes":[],"categories_segments":[],"categories_sizes":[],"default_left":[0,0,0,0,0,0,0,0,0,0,0,0,0,0,0,0,0,0,0,0,0,0,0,0,0,0,0,0,0,0,0,0,0,0,0,0,0,0,0,0,0,0,0,0,0,0,0,0,0,0,0,0,0,0,0],"id":5,"left_children":[1,3,5,7,9,11,13,15,17,19,21,23,25,27,-1,29,31,33,35,37,39,41,43,45,47,49,-1,51,53,-1,-1,-1,-1,-1,-1,-1,-1,-1,-1,-1,-1,-1,-1,-1,-1,-1,-1,-1,-1,-1,-1,-1,-1,-1,-1],"loss_changes":[1.2351496E4,3.866814E3,2.7195195E3,4.0559617E3,6.1027344E1,2.459705E3,2.4939026E1,4.957542E3,1.3648047E2,3.3053223E1,7.161847E1,1.7325547E3,1.5848633E2,2.2974548E1,0E0,3.6815576E3,2.8439209E1,7.643115E1,7.709802E1,4.1557617E0,2.7588394E1,9.864868E0,6.974478E1,1.1466221E3,2.1870117E1,6.998059E1,0E0,2.0211487E1,5.4032497E1,0E0,0E0,0E0,0E0,0E0,0E0,0E0,0E0,0E0,0E0,0E0,0E0,0E0,0E0,0E0,0E0,0E0,0E0,0E0,0E0,0E0,0E0,0E0,0E0,0E0,0E0],"parents":[2147483647,0,0,1,1,2,2,3,3,4,4,5,5,6,6,7,7,8,8,9,9,10,10,11,11,12,12,13,13,15,15,16,16,17,17,18,18,19,19,20,20,21,21,22,22,23,23,24,24,25,25,27,27,28,28],"right_children":[2,4,6,8,10,12,14,16,18,20,22,24,26,28,-1,30,32,34,36,38,40,42,44,46,48,50,-1,52,54,-1,-1,-1,-1,-1,-1,-1,-1,-1,-1,-1,-1,-1,-1,-1,-1,-1,-1,-1,-1,-1,-1,-1,-1,-1,-1],"split_conditions":[6.123234E-17,3.4E0,3.7E0,5.1E0,1E0,3.4E0,1E0,1E0,1E0,5.52E1,1E1,1E0,1E0,1E0,-7.608679E-2,1.34E1,2E0,1E0,1.1E1,2.11E1,1.7E1,2E0,1.04E1,1.04E1,4E0,1E0,-9.6240066E-2,7.01E1,1.5E1,-3.422536E-2,5.7994455E-2,6.395515E-2,-8.423243E-2,7.436256E-2,4.6592377E-2,5.5741914E-2,1.1356279E-2,7.6829076E-2,7.183547E-2,5.210362E-2,-8.405688E-2,6.6880934E-2,2.6725745E-2,2.3199357E-3,7.506434E-2,-7.515665E-2,5.0374575E-2,1.7452557E-2,6.372286E-2,7.685328E-2,-2.783528E-2,7.278414E-2,-6.413683E-2,6.194063E-2,-9.073271E-2],"split_indices":[5,28,28,29,20,29,21,13,20,28,0,13,20,20,0,30,20,21,0,28,33,20,29,30,10,21,0,28,1,0,0,0,0,0,0,0,0,0,0,0,0,0,0,0,0,0,0,0,0,0,0,0,0,0,0],"split_type":[0,0,0,0,0,0,0,0,0,0,0,0,0,0,0,0,0,0,0,0,0,0,0,0,0,0,0,0,0,0,0,0,0,0,0,0,0,0,0,0,0,0,0,0,0,0,0,0,0,0,0,0,0,0,0],"sum_hessian":[2.4601258E4,1.7021533E4,7.579723E3,1.3276046E4,3.7454883E3,7.1367876E3,4.4293533E2,1.0531705E4,2.7443406E3,3.1982039E3,5.4728424E2,6.7652466E3,3.7154117E2,4.407271E2,2.2082005E0,8.286468E3,2.245237E3,2.3163037E3,4.2803696E2,3.0433347E3,1.5486919E2,3.9339276E2,1.5389151E2,6.4999233E3,2.653233E2,3.5781613E2,1.3725035E1,4.1142603E2,2.9301107E1,7.0075283E3,1.2789393E3,2.242809E3,2.4279685E0,2.0265496E3,2.8975415E2,2.757532E2,1.5228372E2,8.945395E2,2.1487952E3,1.51921E2,2.9481747E0,3.755779E2,1.7814842E1,1.0729555E2,4.659597E1,6.313273E3,1.8665042E2,2.9652725E1,2.3567058E2,3.4155258E2,1.6263538E1,4.0943353E2,1.9925001E0,2.2570705E1,6.730403E0],"tree_param":{"num_deleted":"0","num_feature":"34","num_nodes":"55","size_leaf_vector":"1"}},{"base_weights":[2.0352607E-3,-1.435853E0,2.6530576E-1,-1.4726095E0,1.0533031E0,-4.507622E-5,1.330703E0,-1.5040951E0,1.0418335E0,7.712736E-2,-2.3283471E-1,-2.3234928E-1,1.2159244E0,1.3811811E0,1.043604E0,-1.2370722E0,-1.5523521E0,-7.28166E-2,6.089392E-2,-9.1599785E-2,8.546617E-2,-4.6603984E-1,1.1415354E0,1.4375179E0,7.6856357E-1,1.3315885E0,1.4143336E0,1.2902552E0,4.659357E-1,-6.910442E-2,-2.6313184E-2,-7.796362E-2,2.9095296E-2,1.716839E-2,-3.465383E-2,6.287187E-2,2.5345514E-2,7.505021E-2,5.9965443E-2,4.502887E-2,-7.921541E-3,6.6876076E-2,1.870499E-2,7.084872E-2,5.5633992E-2,6.552607E-2,-7.761996E-2,1.0202867E-2,6.101651E-2],"categories":[],"categories_nodes":[],"categories_segments":[],"categories_sizes":[],"default_left":[0,0,0,0,0,0,0,0,0,0,0,0,0,0,0,0,0,0,0,0,0,0,0,0,0,0,0,0,0,0,0,0,0,0,0,0,0,0,0,0,0,0,0,0,0,0,0,0,0],"id":6,"left_children":[1,3,5,7,9,11,13,15,17,-1,19,21,23,25,27,29,31,-1,-1,-1,-1,33,35,37,39,41,43,45,47,-1,-1,-1,-1,-1,-1,-1,-1,-1,-1,-1,-1,-1,-1,-1,-1,-1,-1,-1,-1],"loss_changes":[9.110387E3,3.4231348E2,5.750713E3,2.9217383E2,3.4829178E1,4.6008535E3,5.734082E1,4.479883E1,2.199805E1,0E0,5.2715538E1,4.391115E3,2.578833E2,3.7832031E0,8.640021E1,5.6984375E1,4.620459E1,0E0,0E0,0E0,0E0,2.1480664E3,1.4560474E2,2.4604492E1,1.0631195E2,7.441162E0,5.6640625E-2,2.665332E1,3.6155476E1,0E0,0E0,0E0,0E0,0E0,0E0,0E0,0E0,0E0,0E0,0E0,0E0,0E0,0E0,0E0,0E0,0E0,0E0,0E0,0E0],"parents":[2147483647,0,0,1,1,2,2,3,3,4,4,5,5,6,6,7,7,8,8,10,10,11,11,12,12,13,13,14,14,15,15,16,16,21,21,22,22,23,23,24,24,25,25,26,26,27,27,28,28],"right_children":[2,4,6,8,10,12,14,16,18,-1,20,22,24,26,28,30,32,-1,-1,-1,-1,34,36,38,40,42,44,46,48,-1,-1,-1,-1,-1,-1,-1,-1,-1,-1,-1,-1,-1,-1,-1,-1,-1,-1,-1,-1],"split_conditions":[7E0,1E0,1E0,1E0,1.68E1,1E0,1E0,1E0,3E1,7.712736E-2,5.96E1,1E0,2.7E1,1.1E1,1E1,1E0,1E0,-7.28166E-2,6.089392E-2,-9.1599785E-2,8.546617E-2,1E1,1E0,1.91E1,5.12E1,5.27E1,3.46E1,4.52E1,1E0,-6.910442E-2,-2.6313184E-2,-7.796362E-2,2.9095296E-2,1.716839E-2,-3.465383E-2,6.287187E-2,2.5345514E-2,7.505021E-2,5.9965443E-2,4.502887E-2,-7.921541E-3,6.6876076E-2,1.870499E-2,7.084872E-2,5.5633992E-2,6.552607E-2,-7.761996E-2,1.0202867E-2,6.101651E-2],"split_indices":[0,13,14,14,27,13,20,0,1,0,27,16,27,0,0,9,16,0,0,0,0,0,20,27,27,32,32,32,13,0,0,0,0,0,0,0,0,0,0,0,0,0,0,0,0,0,0,0,0],"split_type":[0,0,0,0,0,0,0,0,0,0,0,0,0,0,0,0,0,0,0,0,0,0,0,0,0,0,0,0,0,0,0,0,0,0,0,0,0,0,0,0,0,0,0,0,0,0,0,0,0],"sum_hessian":[2.4064303E4,3.7234902E3,2.0340812E4,3.6697095E3,5.3780815E1,1.6285659E4,4.0551523E3,3.624723E3,4.498663E1,3.881595E1,1.4964869E1,1.3674106E4,2.611553E3,3.4455417E3,6.096106E2,5.5887964E2,3.0658433E3,2.4827414E0,4.2503887E1,8.238259E0,6.726609E0,1.1686889E4,1.9872177E3,1.7449868E3,8.665663E2,1.3969742E3,2.0485674E3,4.263397E2,1.8327094E2,4.6339532E2,9.54843E1,3.056203E3,9.640376E0,2.5599417E3,9.126947E3,1.6795067E3,3.07711E2,1.3736002E3,3.7138654E2,7.5856683E2,1.07999466E2,1.3879768E3,8.997502E0,2.0271237E3,2.1443666E1,4.2385687E2,2.4828157E0,1.3698785E2,4.628308E1],"tree_param":{"num_deleted":"0","num_feature":"34","num_nodes":"49","size_leaf_vector":"1"}},{"base_weights":[-1.1777954E-2,4.2983735E-1,-1.0058318E0,1.9279855E-1,1.2843196E0,-1.1442722E0,1.2850449E0,-9.4407216E-2,1.2780298E0,1.3033903E0,8.0834943E-1,-1.2658772E0,1.2492837E0,1.2983981E0,-6.0142227E-2,-3.9249438E-1,1.135238E0,1.3407915E0,8.060006E-1,1.3046674E0,-6.1861534E-2,8.813808E-1,-8.8835336E-2,-1.3453699E0,9.7526455E-1,1.3319007E0,4.123907E-1,1.3101889E0,-5.8354337E-2,-3.257113E-2,5.4896083E-2,6.1814148E-2,-1.0107198E-2,6.724057E-2,3.5335507E-2,2.5728146E-2,6.6043586E-2,5.337282E-2,6.5974966E-2,4.6646535E-2,-7.782663E-2,-7.0341654E-2,4.3100785E-2,5.4841675E-2,-2.3080928E-2,-8.960058E-2,6.919904E-2,-9.3392886E-2,5.1088758E-2,-5.8774948E-2,6.6027105E-2],"categories":[],"categories_nodes":[],"categories_segments":[],"categories_sizes":[],"default_left":[0,0,0,0,0,0,0,0,0,0,0,0,0,0,0,0,0,0,0,0,0,0,0,0,0,0,0,0,0,0,0,0,0,0,0,0,0,0,0,0,0,0,0,0,0,0,0,0,0,0,0],"id":7,"left_children":[1,3,5,7,9,11,13,15,17,19,21,23,25,27,-1,29,31,33,35,37,-1,39,-1,41,43,45,47,49,-1,-1,-1,-1,-1,-1,-1,-1,-1,-1,-1,-1,-1,-1,-1,-1,-1,-1,-1,-1,-1,-1,-1],"loss_changes":[1.03789375E4,3.3154685E3,2.3079683E3,3.9947927E3,3.1214355E1,1.9979199E3,1.5345825E1,3.7154436E3,7.837744E1,1.2698242E1,2.7916847E1,1.1642236E3,2.2413513E1,1.3540283E1,0E0,3.149148E3,2.675244E2,5.0805664E0,4.692807E1,1.0606445E1,0E0,1.859549E1,0E0,8.565449E2,3.9665985E1,5.1584778E1,4.538523E1,1.2146912E1,0E0,0E0,0E0,0E0,0E0,0E0,0E0,0E0,0E0,0E0,0E0,0E0,0E0,0E0,0E0,0E0,0E0,0E0,0E0,0E0,0E0,0E0,0E0],"parents":[2147483647,0,0,1,1,2,2,3,3,4,4,5,5,6,6,7,7,8,8,9,9,10,10,11,11,12,12,13,13,15,15,16,16,17,17,18,18,19,19,21,21,23,23,24,24,25,25,26,26,27,27],"right_children":[2,4,6,8,10,12,14,16,18,20,22,24,26,28,-1,30,32,34,36,38,-1,40,-1,42,44,46,48,50,-1,-1,-1,-1,-1,-1,-1,-1,-1,-1,-1,-1,-1,-1,-1,-1,-1,-1,-1,-1,-1,-1,-1],"split_conditions":[6.123234E-17,3.4E0,4E0,5.1E0,5.52E1,4E0,7.01E1,1E0,1E0,6.39E1,1E0,1E0,1E0,1E0,-6.0142227E-2,1.63E1,4.37E1,5.02E1,7.8E0,9.3E0,-6.1861534E-2,2.21E1,-8.8835336E-2,1.04E1,4.98E1,1.72E1,5.6655387E-16,2E0,-5.8354337E-2,-3.257113E-2,5.4896083E-2,6.1814148E-2,-1.0107198E-2,6.724057E-2,3.5335507E-2,2.5728146E-2,6.6043586E-2,5.337282E-2,6.5974966E-2,4.6646535E-2,-7.782663E-2,-7.0341654E-2,4.3100785E-2,5.4841675E-2,-2.3080928E-2,-8.960058E-2,6.919904E-2,-9.3392886E-2,5.1088758E-2,-5.8774948E-2,6.6027105E-2],"split_indices":[5,28,28,29,28,29,28,13,21,31,12,13,21,15,0,30,27,31,30,28,0,27,0,30,27,29,6,0,0,0,0,0,0,0,0,0,0,0,0,0,0,0,0,0,0,0,0,0,0,0,0],"split_type":[0,0,0,0,0,0,0,0,0,0,0,0,0,0,0,0,0,0,0,0,0,0,0,0,0,0,0,0,0,0,0,0,0,0,0,0,0,0,0,0,0,0,0,0,0,0,0,0,0,0,0],"sum_hessian":[2.364081E4,1.6369234E4,7.2715776E3,1.281539E4,3.5538445E3,6.857661E3,4.1391608E2,1.0134273E4,2.6811162E3,3.4152668E3,1.3857759E2,6.52655E3,3.3111142E2,4.121819E2,1.7341955E0,8.1574487E3,1.976825E3,2.364843E3,3.1627322E2,3.4140374E3,1.2296323E0,1.3541109E2,3.166502E0,6.303371E3,2.231791E2,3.0082303E2,3.0288385E1,4.1068643E2,1.4954379E0,6.950508E3,1.2069406E3,1.8380297E3,1.3879527E2,2.3488306E3,1.6012236E1,2.0323402E2,1.1303919E2,2.051997E2,3.2088376E3,1.3321164E2,2.1994472E0,6.1329653E3,1.7040543E2,2.0598795E2,1.7191147E1,4.3850675E0,2.9643796E2,5.951896E0,2.4336489E1,1.2366766E0,4.0944977E2],"tree_param":{"num_deleted":"0","num_feature":"34","num_nodes":"51","size_leaf_vector":"1"}},{"base_weights":[8.092184E-3,4.2872113E-1,-9.630837E-1,6.27469E-1,-5.868829E-1,-1.1078099E0,1.241815E0,4.2551452E-1,1.2580156E0,-8.017475E-1,1.1954789E0,-1.2230177E0,1.1747599E0,1.3051722E0,3.4608942E-1,1.803604E-1,1.2337973E0,1.305489E0,1.015262E0,-1.0427619E0,1.1621244E0,1.223914E0,-9.345286E-2,-1.3212276E0,1.07169E0,1.3121517E0,-7.575711E-1,1.3204069E0,-6.149259E-2,7.9233974E-1,-8.627179E-2,-4.5047943E-3,5.5789717E-2,6.581425E-2,4.2003147E-2,6.60965E-2,4.190396E-2,-1.6221894E-3,5.669883E-2,-6.595761E-2,5.612361E-2,6.7209505E-2,4.514173E-2,6.5607235E-2,2.0927073E-2,-6.876512E-2,3.5848673E-2,3.3667065E-2,6.10419E-2,7.0743166E-2,3.3277848E-3,-9.2092566E-2,7.7055715E-2,7.0544176E-2,6.1251033E-2,5.195507E-2,-7.2569266E-2],"categories":[],"categories_nodes":[],"categories_segments":[],"categories_sizes":[],"default_left":[0,0,0,0,0,0,0,0,0,0,0,0,0,0,0,0,0,0,0,0,0,0,0,0,0,0,0,0,0,0,0,0,0,0,0,0,0,0,0,0,0,0,0,0,0,0,0,0,0,0,0,0,0,0,0,0,0],"id":8,"left_children":[1,3,5,7,9,11,13,15,17,19,21,23,25,27,29,31,33,35,37,39,41,43,-1,45,47,49,51,53,-1,55,-1,-1,-1,-1,-1,-1,-1,-1,-1,-1,-1,-1,-1,-1,-1,-1,-1,-1,-1,-1,-1,-1,-1,-1,-1,-1,-1],"loss_changes":[9.666811E3,3.333346E3,2.28352E3,1.758081E3,1.0361174E3,1.7664062E3,2.457434E1,2.072772E3,3.7277344E1,1.1432454E3,2.7662384E1,1.441417E3,8.67439E1,1.7515686E1,2.95547E1,2.0311661E3,7.795972E1,2.0395996E1,6.8744934E1,1.287904E3,1.1259399E1,1.9995392E1,0E0,6.7637305E2,1.4791534E1,3.8532166E1,5.785791E1,1.8058472E0,0E0,1.5777794E1,0E0,0E0,0E0,0E0,0E0,0E0,0E0,0E0,0E0,0E0,0E0,0E0,0E0,0E0,0E0,0E0,0E0,0E0,0E0,0E0,0E0,0E0,0E0,0E0,0E0,0E0,0E0],"parents":[2147483647,0,0,1,1,2,2,3,3,4,4,5,5,6,6,7,7,8,8,9,9,10,10,11,11,12,12,13,13,14,14,15,15,16,16,17,17,18,18,19,19,20,20,21,21,23,23,24,24,25,25,26,26,27,27,29,29],"right_children":[2,4,6,8,10,12,14,16,18,20,22,24,26,28,30,32,34,36,38,40,42,44,-1,46,48,50,52,54,-1,56,-1,-1,-1,-1,-1,-1,-1,-1,-1,-1,-1,-1,-1,-1,-1,-1,-1,-1,-1,-1,-1,-1,-1,-1,-1,-1,-1],"split_conditions":[6.123234E-17,5E0,3.7E0,3.4E0,5.3E0,1E0,1E0,1E0,1E0,1E0,1E0,1E0,1E0,7.01E1,2.85E1,1E0,1E0,5.79E1,-7.0710677E-1,1E0,-2.4492937E-16,1E0,-9.345286E-2,1.01E1,5E-1,1E0,1E0,3.25E1,-6.149259E-2,6.123234E-17,-8.627179E-2,-4.5047943E-3,5.5789717E-2,6.581425E-2,4.2003147E-2,6.60965E-2,4.190396E-2,-1.6221894E-3,5.669883E-2,-6.595761E-2,5.612361E-2,6.7209505E-2,4.514173E-2,6.5607235E-2,2.0927073E-2,-6.876512E-2,3.5848673E-2,3.3667065E-2,6.10419E-2,7.0743166E-2,3.3277848E-3,-9.2092566E-2,7.7055715E-2,7.0544176E-2,6.1251033E-2,5.195507E-2,-7.2569266E-2],"split_indices":[5,2,28,28,28,15,20,15,20,13,21,13,20,28,28,13,20,28,5,15,11,20,0,30,5,21,13,28,0,12,0,0,0,0,0,0,0,0,0,0,0,0,0,0,0,0,0,0,0,0,0,0,0,0,0,0,0],"split_type":[0,0,0,0,0,0,0,0,0,0,0,0,0,0,0,0,0,0,0,0,0,0,0,0,0,0,0,0,0,0,0,0,0,0,0,0,0,0,0,0,0,0,0,0,0,0,0,0,0,0,0,0,0,0,0,0,0],"sum_hessian":[2.3661883E4,1.6511219E4,7.1506655E3,1.3809216E4,2.7020022E3,6.7106836E3,4.399816E2,1.0460539E4,3.3486765E3,2.4118079E3,2.9019443E2,6.3886924E3,3.219912E2,4.104894E2,2.9492207E1,8.027118E3,2.4334211E3,2.797262E3,5.514144E2,2.1485928E3,2.632151E2,2.8812164E2,2.0727963E0,6.126895E3,2.6179736E2,3.009165E2,2.1074705E1,4.085135E2,1.9759024E0,2.4773073E1,4.7191343E0,6.2275024E3,1.7996158E3,2.009985E3,4.2343628E2,2.7004463E3,9.681573E1,5.619516E1,4.9521927E2,1.9057198E3,2.428728E2,1.5217685E2,1.11038246E2,2.591066E2,2.9015034E1,5.968863E3,1.580324E2,7.28206E1,1.8897675E2,2.778677E2,2.3048807E1,1.4455054E1,6.619651E0,2.0257463E2,2.0593886E2,2.2802204E1,1.970868E0],"tree_param":{"num_deleted":"0","num_feature":"34","num_nodes":"57","size_leaf_vector":"1"}},{"base_weights":[-1.6207191E-3,-2.498764E-1,1.210885E0,-5.048713E-1,1.1760207E0,1.2586706E0,9.3611044E-1,-7.558398E-1,1.0649667E0,1.2771547E0,5.521767E-1,1.2848223E0,7.703679E-1,7.7156466E-1,1.276168E0,-9.55295E-1,9.3680096E-1,1.2746216E0,4.9882978E-1,1.3586278E0,6.749999E-1,2.9350868E-1,1.2406917E0,1.2862815E0,-7.283666E-2,8.292641E-1,-9.2423744E-2,5.585141E-1,1.2363458E0,1.3306534E0,-9.8503485E-2,-4.003883E-2,-6.819705E-2,5.3217273E-2,4.0357253E-3,6.843682E-2,5.1647276E-2,3.1593177E-2,-2.0220742E-2,6.845176E-2,5.5702418E-2,-1.0154462E-1,3.8406562E-2,3.1707715E-2,-2.7448311E-2,6.725575E-2,-8.866071E-2,6.8501264E-2,6.252535E-2,4.4320825E-2,-8.167141E-2,1.1729315E-2,6.1973836E-2,6.380665E-2,2.7998973E-2,6.875437E-2,1.7498381E-2],"categories":[],"categories_nodes":[],"categories_segments":[],"categories_sizes":[],"default_left":[0,0,0,0,0,0,0,0,0,0,0,0,0,0,0,0,0,0,0,0,0,0,0,0,0,0,0,0,0,0,0,0,0,0,0,0,0,0,0,0,0,0,0,0,0,0,0,0,0,0,0,0,0,0,0,0,0],"id":9,"left_children":[1,3,5,7,9,11,13,15,17,19,21,23,25,27,29,31,33,35,37,39,41,43,45,47,-1,49,-1,51,53,55,-1,-1,-1,-1,-1,-1,-1,-1,-1,-1,-1,-1,-1,-1,-1,-1,-1,-1,-1,-1,-1,-1,-1,-1,-1,-1,-1],"loss_changes":[6.992191E3,7.0111816E3,5.0657227E1,6.445104E3,1.8385669E2,4.1916992E1,3.1958374E1,4.7621436E3,2.6701245E2,1.2253955E2,7.2626945E1,1.4625977E1,2.8262642E1,3.8847717E1,3.6307526E1,7.955752E2,1.6229663E2,3.6E1,7.367873E1,4.114502E0,7.7638245E1,8.6221466E1,3.7512512E1,7.833496E0,0E0,2.5400307E1,0E0,6.0504272E1,2.640564E0,7.7068787E0,0E0,0E0,0E0,0E0,0E0,0E0,0E0,0E0,0E0,0E0,0E0,0E0,0E0,0E0,0E0,0E0,0E0,0E0,0E0,0E0,0E0,0E0,0E0,0E0,0E0,0E0,0E0],"parents":[2147483647,0,0,1,1,2,2,3,3,4,4,5,5,6,6,7,7,8,8,9,9,10,10,11,11,12,12,13,13,14,14,15,15,16,16,17,17,18,18,19,19,20,20,21,21,22,22,23,23,25,25,27,27,28,28,29,29],"right_children":[2,4,6,8,10,12,14,16,18,20,22,24,26,28,30,32,34,36,38,40,42,44,46,48,-1,50,-1,52,54,56,-1,-1,-1,-1,-1,-1,-1,-1,-1,-1,-1,-1,-1,-1,-1,-1,-1,-1,-1,-1,-1,-1,-1,-1,-1,-1,-1],"split_conditions":[3.4E0,4E0,1E0,1E0,1E0,5.52E1,8.6E0,4.5E0,3.045E1,1E0,1E0,6.25E1,1E0,1E0,2E0,5E0,1E0,1.91E1,5.27E1,1.88E1,6.9E0,3E0,5.12E1,2.11E1,-7.283666E-2,1E0,-9.2423744E-2,8.6E0,2E0,5E1,-9.8503485E-2,-4.003883E-2,-6.819705E-2,5.3217273E-2,4.0357253E-3,6.843682E-2,5.1647276E-2,3.1593177E-2,-2.0220742E-2,6.845176E-2,5.5702418E-2,-1.0154462E-1,3.8406562E-2,3.1707715E-2,-2.7448311E-2,6.725575E-2,-8.866071E-2,6.8501264E-2,6.252535E-2,4.4320825E-2,-8.167141E-2,1.1729315E-2,6.1973836E-2,6.380665E-2,2.7998973E-2,6.875437E-2,1.7498381E-2],"split_indices":[28,29,20,13,20,28,29,30,27,21,13,29,21,13,20,2,20,27,27,27,29,2,27,28,0,18,0,30,13,28,0,0,0,0,0,0,0,0,0,0,0,0,0,0,0,0,0,0,0,0,0,0,0,0,0,0,0],"split_type":[0,0,0,0,0,0,0,0,0,0,0,0,0,0,0,0,0,0,0,0,0,0,0,0,0,0,0,0,0,0,0,0,0,0,0,0,0,0,0,0,0,0,0,0,0,0,0,0,0,0,0,0,0,0,0,0,0],"sum_hessian":[2.3226984E4,1.9280229E4,3.9467556E3,1.6355925E4,2.924304E3,3.3590142E3,5.8774133E2,1.4101975E4,2.2539507E3,2.5154646E3,4.088394E2,3.1867144E3,1.722999E2,3.9828806E2,1.8945325E2,1.2615806E4,1.4861691E3,1.6439154E3,6.100351E2,2.214571E3,3.0089362E2,2.982254E2,1.1061396E2,3.1855498E3,1.1646336E0,1.6917851E2,3.1213758E0,2.7461105E2,1.2367701E2,1.8690627E2,2.5469775E0,9.156486E3,3.4593186E3,1.2932502E3,1.9291888E2,1.179806E3,4.641094E2,5.3198285E2,7.805225E1,2.1197725E3,9.479838E1,9.319276E0,2.9157434E2,2.1253603E2,8.5689384E1,1.07445E2,3.1689653E0,9.42344E2,2.2432058E3,1.6596693E2,3.211578E0,1.8700089E2,8.7610176E1,1.159684E2,7.7086062E0,1.7842006E2,8.486212E0],"tree_param":{"num_deleted":"0","num_feature":"34","num_nodes":"57","size_leaf_vector":"1"}},{"base_weights":[-5.5002986E-4,4.37445E-1,-8.456713E-1,6.188125E-1,-5.006125E-1,-9.811729E-1,1.1280105E0,1.0151415E0,3.1241658E-1,-7.0192343E-1,1.1337332E0,-1.0940647E0,1.0538696E0,1.2266161E0,-1.8628152E-1,8.179297E-1,1.106557E0,1.046772E-1,1.184925E0,-9.4258565E-1,1.1144161E0,1.2209116E0,3.8990873E-1,-1.1582222E0,7.212523E-1,1.1493577E0,-1.5917265E-1,1.2776873E0,6.322025E-1,3.409887E-1,-9.387674E-2,2.5076626E-2,5.856794E-2,5.2131493E-2,6.3571595E-2,-4.4760006E-3,5.203518E-2,6.195418E-2,3.0529842E-2,-5.1330592E-2,5.3183775E-2,5.9669144E-2,-9.310012E-2,6.6482335E-2,3.1040797E-2,4.0688816E-2,-9.5870435E-2,-4.2119198E-2,-6.6205904E-2,5.083062E-2,-1.16038196E-1,6.9392316E-2,4.6750385E-2,3.4859534E-2,-9.2486404E-2,3.502704E-2,6.4768456E-2,-9.033232E-2,4.3971512E-2,3.2453205E-2,-8.643668E-2],"categories":[],"categories_nodes":[],"categories_segments":[],"categories_sizes":[],"default_left":[0,0,0,0,0,0,0,0,0,0,0,0,0,0,0,0,0,0,0,0,0,0,0,0,0,0,0,0,0,0,0,0,0,0,0,0,0,0,0,0,0,0,0,0,0,0,0,0,0,0,0,0,0,0,0,0,0,0,0,0,0],"id":10,"left_children":[1,3,5,7,9,11,13,15,17,19,21,23,25,27,29,31,33,35,37,39,41,43,45,47,49,51,53,55,57,59,-1,-1,-1,-1,-1,-1,-1,-1,-1,-1,-1,-1,-1,-1,-1,-1,-1,-1,-1,-1,-1,-1,-1,-1,-1,-1,-1,-1,-1,-1,-1],"loss_changes":[8.436108E3,2.5541626E3,2.0816592E3,1.5272339E3,8.0114856E2,1.6737349E3,6.5059875E1,9.79668E1,1.2860635E3,9.480532E2,1.684793E1,8.042422E2,4.4563843E1,1.3322815E1,3.254765E1,1.9408032E2,3.8140625E1,1.0421135E3,4.1686523E1,3.236692E2,6.190387E1,1.4747589E1,3.0407423E1,3.4800586E2,2.1448566E2,1.6865936E1,4.303965E1,3.4568481E0,2.4988167E1,1.9054253E1,0E0,0E0,0E0,0E0,0E0,0E0,0E0,0E0,0E0,0E0,0E0,0E0,0E0,0E0,0E0,0E0,0E0,0E0,0E0,0E0,0E0,0E0,0E0,0E0,0E0,0E0,0E0,0E0,0E0,0E0,0E0],"parents":[2147483647,0,0,1,1,2,2,3,3,4,4,5,5,6,6,7,7,8,8,9,9,10,10,11,11,12,12,13,13,14,14,15,15,16,16,17,17,18,18,19,19,20,20,21,21,22,22,23,23,24,24,25,25,26,26,27,27,28,28,29,29],"right_children":[2,4,6,8,10,12,14,16,18,20,22,24,26,28,30,32,34,36,38,40,42,44,46,48,50,52,54,56,58,60,-1,-1,-1,-1,-1,-1,-1,-1,-1,-1,-1,-1,-1,-1,-1,-1,-1,-1,-1,-1,-1,-1,-1,-1,-1,-1,-1,-1,-1,-1,-1],"split_conditions":[-1.8369701E-16,5E0,3.7E0,1E1,5.3E0,1E0,1E0,8E0,6.6E0,4.5E0,1E0,6.1E0,4.98E1,5.6E1,5.6655387E-16,3.4E0,1.67E1,1E0,1E0,3.15E1,4.71E1,3.98E1,1.93E1,-5E-1,1E0,1.68E1,1.9E1,2E0,2.5881904E-1,7.818315E-1,-9.387674E-2,2.5076626E-2,5.856794E-2,5.2131493E-2,6.3571595E-2,-4.4760006E-3,5.203518E-2,6.195418E-2,3.0529842E-2,-5.1330592E-2,5.3183775E-2,5.9669144E-2,-9.310012E-2,6.6482335E-2,3.1040797E-2,4.0688816E-2,-9.5870435E-2,-4.2119198E-2,-6.6205904E-2,5.083062E-2,-1.16038196E-1,6.9392316E-2,4.6750385E-2,3.4859534E-2,-9.2486404E-2,3.502704E-2,6.4768456E-2,-9.033232E-2,4.3971512E-2,3.2453205E-2,-8.643668E-2],"split_indices":[5,2,28,0,28,13,20,0,28,27,20,30,27,28,6,28,30,13,20,30,27,28,28,4,21,27,0,10,5,8,0,0,0,0,0,0,0,0,0,0,0,0,0,0,0,0,0,0,0,0,0,0,0,0,0,0,0,0,0,0,0],"split_type":[0,0,0,0,0,0,0,0,0,0,0,0,0,0,0,0,0,0,0,0,0,0,0,0,0,0,0,0,0,0,0,0,0,0,0,0,0,0,0,0,0,0,0,0,0,0,0,0,0,0,0,0,0,0,0,0,0,0,0,0,0],"sum_hessian":[2.2788506E4,1.5009908E4,7.7785967E3,1.2578312E4,2.4315964E3,7.2793423E3,4.9925485E2,5.4832754E3,7.095036E3,2.1654385E3,2.6615796E2,6.8971904E3,3.8215173E2,4.6447406E2,3.4780792E1,1.7398417E3,3.7434338E3,5.7315146E3,1.3635215E3,1.9125143E3,2.5292413E2,2.3766187E2,2.849608E1,6.662098E3,2.3509206E2,3.5431345E2,2.7838282E1,4.2666602E2,3.7808033E1,2.7123173E1,7.65762E0,9.192915E2,8.205502E2,2.7027979E3,1.040636E3,4.7474634E3,9.84051E2,1.2449651E3,1.1855641E2,1.836103E3,7.641129E1,2.4697086E2,5.9532743E0,2.0017516E2,3.7486706E1,2.4620464E1,3.8756156E0,2.2963345E3,4.3657637E3,2.1489314E2,2.0198921E1,1.6512195E2,1.891915E2,1.8868101E1,8.97018E0,1.38905115E1,4.127755E2,2.8993123E0,3.490872E1,2.4206472E1,2.9167004E0],"tree_param":{"num_deleted":"0","num_feature":"34","num_nodes":"61","size_leaf_vector":"1"}},{"base_weights":[2.31525E-2,4.029953E-1,-8.746039E-1,-4.969468E-1,5.79478E-1,-9.9826854E-1,1.1820025E0,-7.2078794E-1,1.1390942E0,2.974273E-1,9.8762274E-1,-1.1371515E0,1.1524869E0,1.3034655E0,-7.88903E-1,-9.555833E-1,1.077273E0,1.1806103E0,-1.15524575E-1,8.13946E-2,1.1826204E0,9.142117E-1,1.2349329E0,-1.2036372E0,8.4428734E-1,1.2126116E0,1.1645179E-1,1.4024413E0,-6.15379E-2,-8.6347446E-2,7.089448E-2,-5.987689E-2,5.33507E-2,5.5710163E-2,1.6564595E-3,6.3107036E-2,2.7160246E-2,-9.989647E-2,4.2363644E-2,-8.415877E-3,5.765769E-2,6.196603E-2,2.882407E-2,4.099891E-2,5.7513125E-2,6.1966565E-2,-7.8288704E-2,-6.317314E-2,3.900431E-2,2.2785692E-2,5.3247478E-2,6.1150085E-2,-5.160665E-2,5.045587E-2,-9.076797E-2,7.103705E-2,-6.79537E-2,4.572254E-2,-9.458362E-2],"categories":[],"categories_nodes":[],"categories_segments":[],"categories_sizes":[],"default_left":[0,0,0,0,0,0,0,0,0,0,0,0,0,0,0,0,0,0,0,0,0,0,0,0,0,0,0,0,0,0,0,0,0,0,0,0,0,0,0,0,0,0,0,0,0,0,0,0,0,0,0,0,0,0,0,0,0,0,0],"id":11,"left_children":[1,3,5,7,9,11,13,15,17,19,21,23,25,27,29,31,33,35,37,39,41,43,45,47,49,51,53,55,57,-1,-1,-1,-1,-1,-1,-1,-1,-1,-1,-1,-1,-1,-1,-1,-1,-1,-1,-1,-1,-1,-1,-1,-1,-1,-1,-1,-1,-1,-1],"loss_changes":[7.7782603E3,2.5459434E3,1.7259312E3,9.6337366E2,1.5423657E3,1.9122515E3,9.321985E1,9.773849E2,1.6633331E1,1.5155807E3,9.828613E1,7.927466E2,2.4062012E1,4.9145752E1,5.001597E1,1.0025853E3,1.02812805E1,1.5251129E1,2.1729752E1,1.7055729E3,5.272119E1,9.306641E1,1.7345093E1,6.9111816E2,1.6294617E1,9.825012E0,4.0491215E1,1.9042969E1,4.7292213E1,0E0,0E0,0E0,0E0,0E0,0E0,0E0,0E0,0E0,0E0,0E0,0E0,0E0,0E0,0E0,0E0,0E0,0E0,0E0,0E0,0E0,0E0,0E0,0E0,0E0,0E0,0E0,0E0,0E0,0E0],"parents":[2147483647,0,0,1,1,2,2,3,3,4,4,5,5,6,6,7,7,8,8,9,9,10,10,11,11,12,12,13,13,14,14,15,15,16,16,17,17,18,18,19,19,20,20,21,21,22,22,23,23,24,24,25,25,26,26,27,27,28,28],"right_children":[2,4,6,8,10,12,14,16,18,20,22,24,26,28,30,32,34,36,38,40,42,44,46,48,50,52,54,56,58,-1,-1,-1,-1,-1,-1,-1,-1,-1,-1,-1,-1,-1,-1,-1,-1,-1,-1,-1,-1,-1,-1,-1,-1,-1,-1,-1,-1,-1,-1],"split_conditions":[6.123234E-17,-4.3388373E-1,3.4E0,5.3E0,7.0710677E-1,4.3E0,1E0,1E0,5.47E1,5.9E0,1.76E1,1E0,1E0,1E0,1E0,4.8E0,7.0710677E-1,1E0,1E0,7.8E0,1E0,5.1E0,5.55E1,1.54E1,7E0,7.01E1,6E0,1.2246469E-16,-4.3388373E-1,-8.6347446E-2,7.089448E-2,-5.987689E-2,5.33507E-2,5.5710163E-2,1.6564595E-3,6.3107036E-2,2.7160246E-2,-9.989647E-2,4.2363644E-2,-8.415877E-3,5.765769E-2,6.196603E-2,2.882407E-2,4.099891E-2,5.7513125E-2,6.1966565E-2,-7.8288704E-2,-6.317314E-2,3.900431E-2,2.2785692E-2,5.3247478E-2,6.1150085E-2,-5.160665E-2,5.045587E-2,-9.076797E-2,7.103705E-2,-6.79537E-2,4.572254E-2,-9.458362E-2],"split_indices":[5,8,29,28,4,28,20,13,28,28,30,13,20,21,13,29,4,20,7,29,20,29,33,30,10,28,10,4,8,0,0,0,0,0,0,0,0,0,0,0,0,0,0,0,0,0,0,0,0,0,0,0,0,0,0,0,0,0,0],"split_type":[0,0,0,0,0,0,0,0,0,0,0,0,0,0,0,0,0,0,0,0,0,0,0,0,0,0,0,0,0,0,0,0,0,0,0,0,0,0,0,0,0,0,0,0,0,0,0,0,0,0,0,0,0,0,0,0,0,0,0],"sum_hessian":[2.2807693E4,1.6027129E4,6.780564E3,2.6273933E3,1.3399736E4,6.396457E3,3.841071E2,2.3116726E3,3.1572076E2,7.92491E3,5.474826E3,6.0089087E3,3.8754807E2,3.6212848E2,2.197859E1,2.0450883E3,2.6658426E2,3.0566513E2,1.0055641E1,6.3711206E3,1.5537896E3,4.2252944E3,1.2495317E3,5.8142095E3,1.9469917E2,3.6612985E2,2.141819E1,3.3762036E2,2.4508125E1,1.5575375E1,6.4032164E0,1.8269467E3,2.181417E2,2.5741275E2,9.171508E0,2.7013245E2,3.55327E1,3.0389452E0,7.016696E0,5.167884E3,1.2032367E3,1.4199208E3,1.3386867E2,3.0229714E3,1.2023228E3,1.2481292E3,1.4026197E0,5.6443496E3,1.6986028E2,7.162928E1,1.2306989E2,3.6489603E2,1.2338262E0,1.4975727E1,6.442463E0,3.3588013E2,1.7402343E0,1.6310349E1,8.197777E0],"tree_param":{"num_deleted":"0","num_feature":"34","num_nodes":"59","size_leaf_vector":"1"}},{"base_weights":[1.0394614E-2,-1.2143292E0,2.2015265E-1,-1.2538465E0,9.4588673E-1,9.821959E-3,1.1176963E0,-1.2710652E0,6.849019E-2,-7.5196095E-2,1.0776973E0,-2.3233055E-1,1.1072816E0,1.1193159E0,-7.362295E-2,-1.2942532E0,5.863767E-1,5.215629E-1,1.1454484E0,-4.8046044E-1,9.8954827E-1,1.1717519E0,6.4942575E-1,1.0975384E0,1.2423153E0,-6.509836E-2,4.6325978E-2,4.586971E-2,-9.148904E-2,5.4570783E-2,-8.1008635E-2,4.2904776E-2,6.471034E-2,1.974113E-2,-3.8686257E-2,5.5657435E-2,-4.942963E-3,4.450581E-2,5.9232272E-2,3.8096003E-2,-1.3982408E-2,5.378871E-2,6.1015602E-2,6.3742034E-2,4.4075873E-2],"categories":[],"categories_nodes":[],"categories_segments":[],"categories_sizes":[],"default_left":[0,0,0,0,0,0,0,0,0,0,0,0,0,0,0,0,0,0,0,0,0,0,0,0,0,0,0,0,0,0,0,0,0,0,0,0,0,0,0,0,0,0,0,0,0],"id":12,"left_children":[1,3,5,7,9,11,13,15,-1,-1,17,19,21,23,-1,25,27,29,31,33,35,37,39,41,43,-1,-1,-1,-1,-1,-1,-1,-1,-1,-1,-1,-1,-1,-1,-1,-1,-1,-1,-1,-1],"loss_changes":[5.76223E3,2.8117578E2,3.6152046E3,1.4727051E2,2.0831257E1,4.123575E3,1.6899902E1,1.3862256E2,0E0,0E0,1.551651E0,3.854498E3,8.203223E1,8.370605E0,0E0,5.5370605E1,3.3794205E1,1.156859E1,1.0270462E0,2.71269E3,2.888086E2,7.869385E0,3.6630554E1,6.9594727E0,5.2020264E0,0E0,0E0,0E0,0E0,0E0,0E0,0E0,0E0,0E0,0E0,0E0,0E0,0E0,0E0,0E0,0E0,0E0,0E0,0E0,0E0],"parents":[2147483647,0,0,1,1,2,2,3,3,4,4,5,5,6,6,7,7,10,10,11,11,12,12,13,13,15,15,16,16,17,17,18,18,19,19,20,20,21,21,22,22,23,23,24,24],"right_children":[2,4,6,8,10,12,14,16,-1,-1,18,20,22,24,-1,26,28,30,32,34,36,38,40,42,44,-1,-1,-1,-1,-1,-1,-1,-1,-1,-1,-1,-1,-1,-1,-1,-1,-1,-1,-1,-1],"split_conditions":[7E0,1E0,1E0,3.5E1,3E1,4E0,6.39E1,1E0,6.849019E-2,-7.5196095E-2,2E0,1E0,1E0,1.2E1,-7.362295E-2,1E0,7.818315E-1,-8.660254E-1,-1.8369701E-16,1E1,4.11E1,1.2E1,1.7E1,1E0,1.72E1,-6.509836E-2,4.6325978E-2,4.586971E-2,-9.148904E-2,5.4570783E-2,-8.1008635E-2,4.2904776E-2,6.471034E-2,1.974113E-2,-3.8686257E-2,5.5657435E-2,-4.942963E-3,4.450581E-2,5.9232272E-2,3.8096003E-2,-1.3982408E-2,5.378871E-2,6.1015602E-2,6.3742034E-2,4.4075873E-2],"split_indices":[0,14,14,29,1,29,31,13,0,0,2,13,21,29,0,21,8,12,12,0,27,29,0,13,27,0,0,0,0,0,0,0,0,0,0,0,0,0,0,0,0,0,0,0,0],"split_type":[0,0,0,0,0,0,0,0,0,0,0,0,0,0,0,0,0,0,0,0,0,0,0,0,0,0,0,0,0,0,0,0,0,0,0,0,0,0,0,0,0,0,0,0,0],"sum_hessian":[2.2428195E4,3.2788772E3,1.9149318E4,3.2203855E3,5.8491627E1,1.5514627E4,3.6346921E3,3.1999004E3,2.0485048E1,2.454934E0,5.6036694E1,1.27108E4,2.8038271E3,3.6329883E3,1.7037892E0,3.1607454E3,3.915499E1,7.02992E0,4.9006775E1,1.0565786E4,2.1450132E3,2.4563862E3,3.4744092E2,3.0949417E3,5.380467E2,3.1502168E3,1.0528771E1,3.4982624E1,4.1723676E0,5.9398947E0,1.0900252E0,1.9025002E1,2.9981773E1,2.651557E3,7.9142295E3,1.9262444E3,2.1876868E2,1.1059899E2,2.345787E3,3.1007614E2,3.7364788E1,2.637204E3,4.5773767E2,4.9122955E2,4.6817112E1],"tree_param":{"num_deleted":"0","num_feature":"34","num_nodes":"45","size_leaf_vector":"1"}},{"base_weights":[-5.6973356E-3,3.464957E-1,-8.5038817E-1,5.148715E-1,-5.174051E-1,-9.889733E-1,1.1112282E0,9.1078335E-1,2.392586E-1,-6.937053E-1,1.1402885E0,-1.0928307E0,1.0518215E0,1.1827583E0,1.5504035E-1,8.325138E-1,1.1674328E0,3.85175E-2,1.0991735E0,-9.210817E-1,1.0318837E0,1.2372595E0,8.409521E-2,-1.1765924E0,8.530826E-1,1.1884102E0,-8.413094E-2,1.1959888E0,-5.838983E-2,8.9947253E-1,-8.822395E-2,3.68545E-2,5.426661E-2,5.8773436E-2,9.247318E-4,-1.0509847E-2,5.4884132E-2,5.7631828E-2,2.8868303E-2,-5.6994874E-2,4.766391E-2,5.6625325E-2,-9.442456E-2,5.305348E-2,6.777271E-2,6.281034E-2,-1.0800745E-1,-6.0430754E-2,1.750274E-2,4.8541825E-2,-2.7959108E-2,1.5302377E-2,6.1101E-2,6.0443234E-2,3.799237E-2,5.3970207E-2,-6.2010325E-2],"categories":[],"categories_nodes":[],"categories_segments":[],"categories_sizes":[],"default_left":[0,0,0,0,0,0,0,0,0,0,0,0,0,0,0,0,0,0,0,0,0,0,0,0,0,0,0,0,0,0,0,0,0,0,0,0,0,0,0,0,0,0,0,0,0,0,0,0,0,0,0,0,0,0,0,0,0],"id":13,"left_children":[1,3,5,7,9,11,13,15,17,19,21,23,25,27,29,31,33,35,37,39,41,43,45,47,49,51,-1,53,-1,55,-1,-1,-1,-1,-1,-1,-1,-1,-1,-1,-1,-1,-1,-1,-1,-1,-1,-1,-1,-1,-1,-1,-1,-1,-1,-1,-1],"loss_changes":[6.5035054E3,2.244451E3,1.749852E3,1.40874E3,7.3639105E2,1.2747275E3,2.8881348E1,1.0547656E2,1.3142905E3,8.938292E2,2.4716034E1,9.330498E2,1.108707E2,1.36875E1,4.549528E1,9.724951E1,1.1389038E1,1.6266483E3,3.9534668E1,8.2598096E2,8.013388E1,3.1824646E0,5.9141247E1,2.6846094E2,3.988382E1,7.876709E0,0E0,1.2913208E0,0E0,1.0117815E1,0E0,0E0,0E0,0E0,0E0,0E0,0E0,0E0,0E0,0E0,0E0,0E0,0E0,0E0,0E0,0E0,0E0,0E0,0E0,0E0,0E0,0E0,0E0,0E0,0E0,0E0,0E0],"parents":[2147483647,0,0,1,1,2,2,3,3,4,4,5,5,6,6,7,7,8,8,9,9,10,10,11,11,12,12,13,13,14,14,15,15,16,16,17,17,18,18,19,19,20,20,21,21,22,22,23,23,24,24,25,25,27,27,29,29],"right_children":[2,4,6,8,10,12,14,16,18,20,22,24,26,28,30,32,34,36,38,40,42,44,46,48,50,52,-1,54,-1,56,-1,-1,-1,-1,-1,-1,-1,-1,-1,-1,-1,-1,-1,-1,-1,-1,-1,-1,-1,-1,-1,-1,-1,-1,-1,-1,-1],"split_conditions":[6.123234E-17,1E0,3.7E0,1E1,1.08E1,3.4E0,1E0,1.67E1,6.6E0,1E0,1E0,1E0,1E0,7.01E1,1.5E1,5.5E0,5.12E1,7.8E0,1E0,1.01E1,4.71E1,4.06E1,3E0,1.58E1,4.98E1,1.38E1,-8.413094E-2,6.25E1,-5.838983E-2,1E0,-8.822395E-2,3.68545E-2,5.426661E-2,5.8773436E-2,9.247318E-4,-1.0509847E-2,5.4884132E-2,5.7631828E-2,2.8868303E-2,-5.6994874E-2,4.766391E-2,5.6625325E-2,-9.442456E-2,5.305348E-2,6.777271E-2,6.281034E-2,-1.0800745E-1,-6.0430754E-2,1.750274E-2,4.8541825E-2,-2.7959108E-2,1.5302377E-2,6.1101E-2,6.0443234E-2,3.799237E-2,5.3970207E-2,-6.2010325E-2],"split_indices":[5,3,28,0,29,29,20,30,28,13,20,13,20,28,1,29,27,29,20,28,27,29,10,30,27,29,0,28,0,3,0,0,0,0,0,0,0,0,0,0,0,0,0,0,0,0,0,0,0,0,0,0,0,0,0,0,0],"split_type":[0,0,0,0,0,0,0,0,0,0,0,0,0,0,0,0,0,0,0,0,0,0,0,0,0,0,0,0,0,0,0,0,0,0,0,0,0,0,0,0,0,0,0,0,0,0,0,0,0,0,0,0,0,0,0,0,0],"sum_hessian":[2.1858957E4,1.5427193E4,6.4317637E3,1.2911185E4,2.5160085E3,6.007817E3,4.2394705E2,5.298172E3,7.613012E3,2.2746726E3,2.4133609E2,5.7173228E3,2.904937E2,3.942195E2,2.9727543E1,4.063257E3,1.234915E3,6.173011E3,1.4400012E3,2.0102529E3,2.644196E2,2.2088483E2,2.0451263E1,5.4817563E3,2.3556653E2,2.77212E2,1.3281689E1,3.9250146E2,1.7180623E0,2.1803188E1,7.9243536E0,2.9527043E3,1.1105527E3,1.226315E3,8.600123E0,4.999762E3,1.1732487E3,1.3050775E3,1.3492374E2,1.8004565E3,2.0979636E2,2.5620416E2,8.215415E0,9.269062E1,1.281942E2,1.3723884E1,6.72738E0,5.3693384E3,1.1241822E2,2.1772527E2,1.7841255E1,1.0542597E1,2.666694E2,3.795252E2,1.2976245E1,2.0569014E1,1.2341758E0],"tree_param":{"num_deleted":"0","num_feature":"34","num_nodes":"57","size_leaf_vector":"1"}},{"base_weights":[2.9501684E-3,-1.9239934E-1,1.038575E0,-4.0086555E-1,1.0212487E0,1.0966924E0,6.889178E-1,-6.1362994E-1,9.487618E-1,1.1216605E0,4.9839526E-1,1.1207772E0,5.2257115E-1,4.6500847E-1,1.1189975E0,-8.036252E-1,9.471176E-1,1.2157694E0,5.5595887E-1,6.930975E-1,1.1544813E0,2.9101974E-1,1.1109068E0,1.2410529E0,1.0698749E0,6.1553377E-1,-8.942079E-2,2.4328066E-1,1.2324536E0,1.1573348E0,-9.043861E-2,-3.2893565E-2,-6.0693532E-2,5.3898733E-2,8.5037565E-3,6.097589E-2,-8.177242E-2,3.2519966E-2,-1.9899508E-2,1.8954737E-2,6.4410605E-2,5.8286797E-2,4.521574E-2,2.7982429E-2,-1.4995622E-2,5.960831E-2,-8.89151E-2,6.2393934E-2,-8.819006E-2,1.0832022E-2,5.3638365E-2,-9.69059E-2,3.415896E-2,-3.857559E-3,5.037008E-2,6.5125905E-2,2.440734E-2,1.7143426E-2,5.967763E-2],"categories":[],"categories_nodes":[],"categories_segments":[],"categories_sizes":[],"default_left":[0,0,0,0,0,0,0,0,0,0,0,0,0,0,0,0,0,0,0,0,0,0,0,0,0,0,0,0,0,0,0,0,0,0,0,0,0,0,0,0,0,0,0,0,0,0,0,0,0,0,0,0,0,0,0,0,0,0,0],"id":14,"left_children":[1,3,5,7,9,11,13,15,17,19,21,23,25,27,29,31,33,35,37,39,41,43,45,47,49,51,-1,53,55,57,-1,-1,-1,-1,-1,-1,-1,-1,-1,-1,-1,-1,-1,-1,-1,-1,-1,-1,-1,-1,-1,-1,-1,-1,-1,-1,-1,-1,-1],"loss_changes":[4.388273E3,4.617422E3,6.9194824E1,4.472808E3,1.3989868E2,4.020508E1,4.698285E1,3.9903672E3,2.2180774E2,3.0756836E1,5.4652664E1,1.6000488E1,2.7019432E1,5.5192383E1,2.0970245E1,7.164155E2,1.483258E2,1.54823E1,7.776196E1,2.9802307E1,4.8085938E0,5.171061E1,2.7738129E1,1.9335205E1,4.693115E0,2.1487072E1,0E0,6.2332253E1,3.1634598E0,4.5055847E0,0E0,0E0,0E0,0E0,0E0,0E0,0E0,0E0,0E0,0E0,0E0,0E0,0E0,0E0,0E0,0E0,0E0,0E0,0E0,0E0,0E0,0E0,0E0,0E0,0E0,0E0,0E0,0E0,0E0],"parents":[2147483647,0,0,1,1,2,2,3,3,4,4,5,5,6,6,7,7,8,8,9,9,10,10,11,11,12,12,13,13,14,14,15,15,16,16,17,17,18,18,19,19,20,20,21,21,22,22,23,23,24,24,25,25,27,27,28,28,29,29],"right_children":[2,4,6,8,10,12,14,16,18,20,22,24,26,28,30,32,34,36,38,40,42,44,46,48,50,52,-1,54,56,58,-1,-1,-1,-1,-1,-1,-1,-1,-1,-1,-1,-1,-1,-1,-1,-1,-1,-1,-1,-1,-1,-1,-1,-1,-1,-1,-1,-1,-1],"split_conditions":[3.4E0,1E0,1E0,1E0,1E0,5.79E1,5.6E0,1.1E1,2.26E1,1.25E1,1E0,2.11E1,1E0,2E0,2E0,5E0,1E0,2E0,5.27E1,1E0,1.88E1,3E0,5.07E1,5.81E1,2.15E1,2E0,-8.942079E-2,8.6E0,2E0,1.17E1,-9.043861E-2,-3.2893565E-2,-6.0693532E-2,5.3898733E-2,8.5037565E-3,6.097589E-2,-8.177242E-2,3.2519966E-2,-1.9899508E-2,1.8954737E-2,6.4410605E-2,5.8286797E-2,4.521574E-2,2.7982429E-2,-1.4995622E-2,5.960831E-2,-8.89151E-2,6.2393934E-2,-8.819006E-2,1.0832022E-2,5.3638365E-2,-9.69059E-2,3.415896E-2,-3.857559E-3,5.037008E-2,6.5125905E-2,2.440734E-2,1.7143426E-2,5.967763E-2],"split_indices":[28,15,20,13,20,28,29,30,27,29,13,28,18,14,20,2,20,20,27,13,27,2,27,27,28,10,0,30,20,28,0,0,0,0,0,0,0,0,0,0,0,0,0,0,0,0,0,0,0,0,0,0,0,0,0,0,0,0,0],"split_type":[0,0,0,0,0,0,0,0,0,0,0,0,0,0,0,0,0,0,0,0,0,0,0,0,0,0,0,0,0,0,0,0,0,0,0,0,0,0,0,0,0,0,0,0,0,0,0,0,0,0,0,0,0,0,0,0,0,0,0],"sum_hessian":[2.1688977E4,1.8247729E4,3.4412473E3,1.5573385E4,2.6743438E3,2.9489583E3,4.9228915E2,1.3453094E4,2.1202913E3,2.2425298E3,4.3181378E2,2.8293142E3,1.19644E2,3.251104E2,1.6717874E2,1.1993561E4,1.4595333E3,1.2610193E3,8.5927216E2,1.6109692E2,2.0814329E3,3.2369635E2,1.0811743E2,8.343855E2,1.9949287E3,1.1572255E2,3.9214501E0,2.5325716E2,7.185326E1,1.6561482E2,1.5639225E0,8.8513955E3,3.1421648E3,1.2488369E3,2.1069638E2,1.2599352E3,1.0841076E0,7.8215717E2,7.711496E1,1.0652677E2,5.4570156E1,1.9883209E3,9.3112015E1,2.225716E2,1.01124756E2,1.057311E2,2.3863304E0,8.3307776E2,1.3076987E0,6.995971E0,1.9879327E3,2.2727785E0,1.1344977E2,1.7906557E2,7.419158E1,6.498589E1,6.8673577E0,7.496668E0,1.5811816E2],"tree_param":{"num_deleted":"0","num_feature":"34","num_nodes":"59","size_leaf_vector":"1"}},{"base_weights":[1.1182172E-2,3.3803236E-1,-7.823181E-1,1.608026E-1,1.0330595E0,-8.9320654E-1,1.0139326E0,-4.7715563E-2,1.0030707E0,1.0514542E0,6.641537E-1,-1.004019E0,1.0302631E0,1.0312319E0,-6.278487E-2,-2.196678E-1,9.035419E-1,1.0773331E0,4.8715302E-1,1.0304605E0,1.2194769E0,-1.5216324E-1,8.5823333E-1,-1.0629326E0,6.950596E-1,1.1123319E0,2.3179993E-1,1.0445061E0,3.4415126E-1,-1.5148302E-3,-4.1977145E-2,4.9791034E-2,1.786918E-2,5.4020513E-2,-9.757669E-2,-1.1914738E-1,2.9453969E-2,5.4800928E-2,4.9838748E-2,6.272101E-2,4.5194898E-2,-1.1243915E-1,2.3135224E-2,4.6087783E-2,-9.628213E-2,-3.369514E-2,-5.7735313E-2,4.7118574E-2,-1.12406075E-1,5.6295928E-2,-5.75353E-2,3.8442463E-2,-9.2916E-2,5.681398E-2,4.7521923E-2,5.917557E-2,-8.402466E-2],"categories":[],"categories_nodes":[],"categories_segments":[],"categories_sizes":[],"default_left":[0,0,0,0,0,0,0,0,0,0,0,0,0,0,0,0,0,0,0,0,0,0,0,0,0,0,0,0,0,0,0,0,0,0,0,0,0,0,0,0,0,0,0,0,0,0,0,0,0,0,0,0,0,0,0,0,0],"id":15,"left_children":[1,3,5,7,9,11,13,15,17,19,21,23,25,27,-1,29,31,33,35,37,39,41,43,45,47,49,51,53,55,-1,-1,-1,-1,-1,-1,-1,-1,-1,-1,-1,-1,-1,-1,-1,-1,-1,-1,-1,-1,-1,-1,-1,-1,-1,-1,-1,-1],"loss_changes":[5.557571E3,1.8693104E3,1.2461008E3,2.124152E3,2.0226074E1,1.256145E3,1.558493E1,1.5860637E3,9.1428955E1,9.098145E0,2.3763046E1,5.581177E2,2.0793854E1,2.9398193E0,0E0,9.639328E2,7.4458374E1,2.165503E1,9.0283875E1,4.684082E0,2.401245E0,3.9072353E1,2.3113083E1,1.9137646E2,1.3838449E2,1.0244537E1,3.645705E1,1.9795837E0,1.6175241E1,0E0,0E0,0E0,0E0,0E0,0E0,0E0,0E0,0E0,0E0,0E0,0E0,0E0,0E0,0E0,0E0,0E0,0E0,0E0,0E0,0E0,0E0,0E0,0E0,0E0,0E0,0E0,0E0],"parents":[2147483647,0,0,1,1,2,2,3,3,4,4,5,5,6,6,7,7,8,8,9,9,10,10,11,11,12,12,13,13,15,15,16,16,17,17,18,18,19,19,20,20,21,21,22,22,23,23,24,24,25,25,26,26,27,27,28,28],"right_children":[2,4,6,8,10,12,14,16,18,20,22,24,26,28,-1,30,32,34,36,38,40,42,44,46,48,50,52,54,56,-1,-1,-1,-1,-1,-1,-1,-1,-1,-1,-1,-1,-1,-1,-1,-1,-1,-1,-1,-1,-1,-1,-1,-1,-1,-1,-1,-1],"split_conditions":[6.123234E-17,4E0,3.7E0,4E0,5.52E1,3.4E0,7.01E1,4.5E0,1E0,2E0,-2.5881904E-1,1E1,1E0,1E0,-6.278487E-2,5E0,1E0,2E0,-8.660254E-1,-2.5881904E-1,4.4E1,3E0,1E0,-7.0710677E-1,1E0,5E-1,2.23E1,3.25E1,1E0,-1.5148302E-3,-4.1977145E-2,4.9791034E-2,1.786918E-2,5.4020513E-2,-9.757669E-2,-1.1914738E-1,2.9453969E-2,5.4800928E-2,4.9838748E-2,6.272101E-2,4.5194898E-2,-1.1243915E-1,2.3135224E-2,4.6087783E-2,-9.628213E-2,-3.369514E-2,-5.7735313E-2,4.7118574E-2,-1.12406075E-1,5.6295928E-2,-5.75353E-2,3.8442463E-2,-9.2916E-2,5.681398E-2,4.7521923E-2,5.917557E-2,-8.402466E-2],"split_indices":[5,28,28,29,28,29,28,30,21,14,4,30,21,21,0,2,22,26,4,4,28,2,17,4,21,4,29,28,2,0,0,0,0,0,0,0,0,0,0,0,0,0,0,0,0,0,0,0,0,0,0,0,0,0,0,0,0],"split_type":[0,0,0,0,0,0,0,0,0,0,0,0,0,0,0,0,0,0,0,0,0,0,0,0,0,0,0,0,0,0,0,0,0,0,0,0,0,0,0,0,0,0,0,0,0,0,0,0,0,0,0,0,0,0,0,0,0],"sum_hessian":[2.1426354E4,1.5175852E4,6.250501E3,1.2093323E4,3.0825283E3,5.8875464E3,3.6295456E2,9.694278E3,2.3990447E3,2.9343623E3,1.481661E2,5.5672886E3,3.202576E2,3.6075052E2,2.204039E0,8.210832E3,1.4834464E3,2.0962214E3,3.0282318E2,2.6147874E3,3.1957474E2,2.8501621E1,1.1966448E2,5.3810806E3,1.8620836E2,2.900519E2,3.0205671E1,3.5340268E2,7.3478336E0,6.290224E3,1.9206083E3,1.268327E3,2.1511938E2,2.0947366E3,1.484825E0,9.617898E0,2.9320526E2,8.7681146E2,1.737976E3,2.850382E2,3.453651E1,5.860552E0,2.264107E1,1.1764887E2,2.015612E0,1.0287095E3,4.352371E3,1.7240149E2,1.3806873E1,2.888204E2,1.2315139E0,2.4533915E1,5.6717567E0,1.7327454E2,1.8012816E2,5.488079E0,1.8597544E0],"tree_param":{"num_deleted":"0","num_feature":"34","num_nodes":"57","size_leaf_vector":"1"}},{"base_weights":[1.4477228E-2,-1.1427741E0,2.027652E-1,-1.1754814E0,7.7767605E-1,3.9105635E-2,9.9616885E-1,-1.1870769E0,1.1166518E0,1.2879456E0,-3.826908E-1,-1.4206447E-1,9.6246606E-1,9.978367E-1,-8.0040656E-2,-1.197556E0,7.643462E-1,7.127876E-2,-6.673669E-2,4.1171726E-2,6.805894E-2,-9.824249E-2,7.429507E-2,-2.874026E-1,8.890029E-1,1.1668526E0,6.4499813E-1,1.0059505E0,5.527664E-1,-4.628339E-2,-6.228155E-2,-7.2294876E-2,6.0930807E-2,1.715199E-2,-2.3834253E-2,4.7634598E-2,2.0956427E-2,6.1229825E-2,4.9664084E-2,3.430086E-2,-2.8386304E-2,5.050261E-2,1.2210857E-2,3.4099303E-2,-9.061547E-2],"categories":[],"categories_nodes":[],"categories_segments":[],"categories_sizes":[],"default_left":[0,0,0,0,0,0,0,0,0,0,0,0,0,0,0,0,0,0,0,0,0,0,0,0,0,0,0,0,0,0,0,0,0,0,0,0,0,0,0,0,0,0,0,0,0],"id":16,"left_children":[1,3,5,7,9,11,13,15,17,19,21,23,25,27,-1,29,31,-1,-1,-1,-1,-1,-1,33,35,37,39,41,43,-1,-1,-1,-1,-1,-1,-1,-1,-1,-1,-1,-1,-1,-1,-1,-1],"loss_changes":[4.5963457E3,1.8632544E2,2.3557031E3,7.8477295E1,3.011708E1,2.5162695E3,1.5034668E1,5.9985596E1,1.3357639E1,6.90918E-2,5.0377487E1,1.884625E3,1.593357E2,1.0641846E1,0E0,3.6408203E1,1.7866417E1,0E0,0E0,0E0,0E0,0E0,0E0,1.3154336E3,4.609912E1,1.3814331E1,4.8568817E1,9.264893E0,1.8881721E1,0E0,0E0,0E0,0E0,0E0,0E0,0E0,0E0,0E0,0E0,0E0,0E0,0E0,0E0,0E0,0E0],"parents":[2147483647,0,0,1,1,2,2,3,3,4,4,5,5,6,6,7,7,8,8,9,9,10,10,11,11,12,12,13,13,15,15,16,16,23,23,24,24,25,25,26,26,27,27,28,28],"right_children":[2,4,6,8,10,12,14,16,18,20,22,24,26,28,-1,30,32,-1,-1,-1,-1,-1,-1,34,36,38,40,42,44,-1,-1,-1,-1,-1,-1,-1,-1,-1,-1,-1,-1,-1,-1,-1,-1],"split_conditions":[7E0,1E0,1E0,3.52E1,1.68E1,1E0,6.68E1,1E0,-1.8369701E-16,4.5E1,5.96E1,1.22E1,2.7E1,2.1E1,-8.0040656E-2,1E0,8.660254E-1,7.127876E-2,-6.673669E-2,4.1171726E-2,6.805894E-2,-9.824249E-2,7.429507E-2,1E1,1E0,1.91E1,1.58E1,5.24E1,6E0,-4.628339E-2,-6.228155E-2,-7.2294876E-2,6.0930807E-2,1.715199E-2,-2.3834253E-2,4.7634598E-2,2.0956427E-2,6.1229825E-2,4.9664084E-2,3.430086E-2,-2.8386304E-2,5.050261E-2,1.2210857E-2,3.4099303E-2,-9.061547E-2],"split_indices":[0,13,15,30,27,13,32,15,12,1,27,30,27,0,0,0,12,0,0,0,0,0,0,0,22,27,32,27,2,0,0,0,0,0,0,0,0,0,0,0,0,0,0,0,0],"split_type":[0,0,0,0,0,0,0,0,0,0,0,0,0,0,0,0,0,0,0,0,0,0,0,0,0,0,0,0,0,0,0,0,0,0,0,0,0,0,0,0,0,0,0,0,0],"sum_hessian":[2.1092104E4,2.950813E3,1.8141291E4,2.9017805E3,4.903242E1,1.5039968E4,3.101324E3,2.8876545E3,1.4126135E1,3.3979874E1,1.5052547E1,1.2573751E4,2.466216E3,3.099949E3,1.3750616E0,2.872615E3,1.5039504E1,1.291682E1,1.209315E0,6.295036E0,2.7684837E1,8.123105E0,6.9294424E0,1.1020969E4,1.5527826E3,1.4986844E3,9.675317E2,3.0432104E3,5.673866E1,4.346576E2,2.4379573E3,2.1919076E0,1.2847596E1,2.5446614E3,8.476308E3,1.3665289E3,1.8625368E2,1.1200192E3,3.7866534E2,9.362968E2,3.123486E1,3.0265867E3,1.6623642E1,5.447403E1,2.2646306E0],"tree_param":{"num_deleted":"0","num_feature":"34","num_nodes":"45","size_leaf_vector":"1"}},{"base_weights":[-2.5957818E-3,3.0480814E-1,-7.6713717E-1,1.3097505E-1,9.9898875E-1,-8.7752765E-1,1.0078242E0,-4.9404524E-2,9.351298E-1,1.0496997E0,7.23252E-1,-9.784983E-1,9.5973736E-1,1.0287762E0,-8.14373E-2,-2.8455594E-1,9.1518384E-1,1.0478288E0,3.8807106E-1,1.0690314E0,5.517755E-1,9.442387E-1,1.8796775E-1,-1.0552973E0,7.93086E-1,1.0877318E0,-7.3600024E-1,1.0464761E0,-6.0218036E-2,-3.7262153E-3,-5.1516514E-2,5.5224683E-2,4.1073985E-2,5.6909967E-2,2.078933E-2,3.7325513E-2,-1.0345008E-2,5.8951378E-2,5.124284E-2,-1.1001017E-1,3.426844E-2,4.888332E-2,1.0194409E-2,-1.6383203E-2,5.9029993E-2,-5.9888106E-2,-4.422413E-2,7.134009E-3,4.5263935E-2,6.0007293E-2,-3.182598E-2,-8.510273E-2,6.7456275E-2,5.526018E-2,1.572773E-2],"categories":[],"categories_nodes":[],"categories_segments":[],"categories_sizes":[],"default_left":[0,0,0,0,0,0,0,0,0,0,0,0,0,0,0,0,0,0,0,0,0,0,0,0,0,0,0,0,0,0,0,0,0,0,0,0,0,0,0,0,0,0,0,0,0,0,0,0,0,0,0,0,0,0,0],"id":17,"left_children":[1,3,5,7,9,11,13,15,17,19,21,23,25,27,-1,29,31,33,35,37,39,41,43,45,47,49,51,53,-1,-1,-1,-1,-1,-1,-1,-1,-1,-1,-1,-1,-1,-1,-1,-1,-1,-1,-1,-1,-1,-1,-1,-1,-1,-1,-1],"loss_changes":[4.853817E3,1.7773563E3,1.1613452E3,1.7089471E3,4.0486816E1,1.0354009E3,2.0857697E1,2.1831467E3,1.3267273E2,2.3371338E1,5.4405914E1,7.200718E2,6.3960297E1,1.490155E1,0E0,1.2120037E3,3.2557617E1,1.0172339E2,7.912586E1,1.0430176E1,3.6471584E1,7.8773193E0,7.003825E1,1.2224902E2,1.5940002E1,5.328775E1,4.463675E1,1.4393188E1,0E0,0E0,0E0,0E0,0E0,0E0,0E0,0E0,0E0,0E0,0E0,0E0,0E0,0E0,0E0,0E0,0E0,0E0,0E0,0E0,0E0,0E0,0E0,0E0,0E0,0E0,0E0],"parents":[2147483647,0,0,1,1,2,2,3,3,4,4,5,5,6,6,7,7,8,8,9,9,10,10,11,11,12,12,13,13,15,15,16,16,17,17,18,18,19,19,20,20,21,21,22,22,23,23,24,24,25,25,26,26,27,27],"right_children":[2,4,6,8,10,12,14,16,18,20,22,24,26,28,-1,30,32,34,36,38,40,42,44,46,48,50,52,54,-1,-1,-1,-1,-1,-1,-1,-1,-1,-1,-1,-1,-1,-1,-1,-1,-1,-1,-1,-1,-1,-1,-1,-1,-1,-1,-1],"split_conditions":[6.123234E-17,5.3E0,3.7E0,5.1E0,1E0,3.4E0,1E0,1E0,1E0,5.79E1,1E1,1E0,1E0,7.01E1,-8.14373E-2,5E0,-5E-1,1E0,1E1,2.11E1,5.9E1,2E0,8.6E0,7E0,4E0,1E0,1E0,1E0,-6.0218036E-2,-3.7262153E-3,-5.1516514E-2,5.5224683E-2,4.1073985E-2,5.6909967E-2,2.078933E-2,3.7325513E-2,-1.0345008E-2,5.8951378E-2,5.124284E-2,-1.1001017E-1,3.426844E-2,4.888332E-2,1.0194409E-2,-1.6383203E-2,5.9029993E-2,-5.9888106E-2,-4.422413E-2,7.134009E-3,4.5263935E-2,6.0007293E-2,-3.182598E-2,-8.510273E-2,6.7456275E-2,5.526018E-2,1.572773E-2],"split_indices":[5,28,28,29,20,29,21,13,20,28,0,13,20,28,0,2,11,21,0,28,28,20,29,0,10,21,13,20,0,0,0,0,0,0,0,0,0,0,0,0,0,0,0,0,0,0,0,0,0,0,0,0,0,0,0],"split_type":[0,0,0,0,0,0,0,0,0,0,0,0,0,0,0,0,0,0,0,0,0,0,0,0,0,0,0,0,0,0,0,0,0,0,0,0,0,0,0,0,0,0,0,0,0,0,0,0,0,0,0,0,0,0,0],"sum_hessian":[2.0650523E4,1.472896E4,5.9215635E3,1.178021E4,2.94875E3,5.575322E3,3.4624146E2,9.6226875E3,2.157522E3,2.4883152E3,4.604346E2,5.2853237E3,2.8999826E2,3.441167E2,2.1247773E0,7.7371885E3,1.8854994E3,1.7882179E3,3.6930402E2,2.3942139E3,9.410139E1,3.2535223E2,1.3508238E2,5.06611E3,2.1921373E2,2.699788E2,2.0019472E1,3.4193787E2,2.1788275E0,6.037854E3,1.6993342E3,6.207054E2,1.264794E3,1.5638192E3,2.243987E2,2.3030347E2,1.3900055E2,6.786535E2,1.7155604E3,3.6404223E0,9.046097E1,3.109901E2,1.4362105E1,8.9342514E1,4.5739876E1,2.759002E3,2.307108E3,3.2584705E1,1.8662901E2,2.5373994E2,1.6238834E1,1.3806523E1,6.212949E0,3.160674E2,2.5870436E1],"tree_param":{"num_deleted":"0","num_feature":"34","num_nodes":"55","size_leaf_vector":"1"}},{"base_weights":[1.0353151E-2,3.4599543E-1,-6.9359964E-1,4.8855466E-1,-4.03901E-1,-8.150929E-1,9.547297E-1,8.166424E-1,2.4373686E-1,-5.637778E-1,9.4488E-1,-9.26911E-1,9.1550225E-1,1.0415523E0,-1.2636556E-2,5.8780146E-1,9.1284835E-1,5.771875E-2,1.0075331E0,-7.278643E-1,8.834388E-1,1.0261856E0,-8.9329004E-2,-1.0039724E0,7.21385E-1,1.226745E0,5.760684E-1,1.098623E0,3.874687E-1,4.9069616E-1,-9.157145E-2,1.6949488E-2,4.648651E-2,3.857338E-2,5.2052166E-2,-5.818922E-3,4.5122396E-2,5.4269474E-2,8.357977E-3,-4.186778E-2,6.004755E-2,5.0380506E-2,-3.5454106E-2,6.0388114E-2,3.6831256E-2,-5.885597E-2,-4.2216808E-2,4.5344077E-2,-1.1778324E-1,6.271254E-2,1.7451843E-2,-8.9341395E-2,3.222144E-2,1.4780723E-2,5.571576E-2,-9.369495E-2,3.326049E-2,3.729896E-2,-7.960136E-2],"categories":[],"categories_nodes":[],"categories_segments":[],"categories_sizes":[],"default_left":[0,0,0,0,0,0,0,0,0,0,0,0,0,0,0,0,0,0,0,0,0,0,0,0,0,0,0,0,0,0,0,0,0,0,0,0,0,0,0,0,0,0,0,0,0,0,0,0,0,0,0,0,0,0,0,0,0,0,0],"id":18,"left_children":[1,3,5,7,9,11,13,15,17,19,21,23,25,27,29,31,33,35,37,39,41,43,-1,45,47,49,51,53,55,57,-1,-1,-1,-1,-1,-1,-1,-1,-1,-1,-1,-1,-1,-1,-1,-1,-1,-1,-1,-1,-1,-1,-1,-1,-1,-1,-1,-1,-1],"loss_changes":[4.871495E3,1.4927075E3,1.333842E3,9.420923E2,4.8155237E2,1.2006636E3,3.843155E1,1.0982324E2,9.546793E2,4.743717E2,5.441475E1,7.405415E2,3.910092E1,1.5243469E1,3.629113E1,1.26146545E2,6.312622E1,7.949538E2,8.592078E1,3.7952008E2,4.0975967E1,1.1232361E1,0E0,1.528169E2,1.5095273E2,4.2862854E0,3.0569565E1,4.528595E0,2.3374113E1,1.7706856E1,0E0,0E0,0E0,0E0,0E0,0E0,0E0,0E0,0E0,0E0,0E0,0E0,0E0,0E0,0E0,0E0,0E0,0E0,0E0,0E0,0E0,0E0,0E0,0E0,0E0,0E0,0E0,0E0,0E0],"parents":[2147483647,0,0,1,1,2,2,3,3,4,4,5,5,6,6,7,7,8,8,9,9,10,10,11,11,12,12,13,13,14,14,15,15,16,16,17,17,18,18,19,19,20,20,21,21,23,23,24,24,25,25,26,26,27,27,28,28,29,29],"right_children":[2,4,6,8,10,12,14,16,18,20,22,24,26,28,30,32,34,36,38,40,42,44,-1,46,48,50,52,54,56,58,-1,-1,-1,-1,-1,-1,-1,-1,-1,-1,-1,-1,-1,-1,-1,-1,-1,-1,-1,-1,-1,-1,-1,-1,-1,-1,-1,-1,-1],"split_conditions":[-1.8369701E-16,5E0,3.7E0,1E1,1E0,1E0,1E0,8E0,3.7E0,9.1E0,4.71E1,1.06E1,2.07E1,5.6E1,5.6655387E-16,3.4E0,6.123234E-17,1E0,1E0,3.18E1,1E0,1.93E1,-8.9329004E-2,7E0,1E0,1E0,-8.660254E-1,6E0,2.5881904E-1,5E0,-9.157145E-2,1.6949488E-2,4.648651E-2,3.857338E-2,5.2052166E-2,-5.818922E-3,4.5122396E-2,5.4269474E-2,8.357977E-3,-4.186778E-2,6.004755E-2,5.0380506E-2,-3.5454106E-2,6.0388114E-2,3.6831256E-2,-5.885597E-2,-4.2216808E-2,4.5344077E-2,-1.1778324E-1,6.271254E-2,1.7451843E-2,-8.9341395E-2,3.222144E-2,1.4780723E-2,5.571576E-2,-9.369495E-2,3.326049E-2,3.729896E-2,-7.960136E-2],"split_indices":[5,2,28,0,13,13,20,0,28,28,27,30,27,28,6,28,12,13,20,30,20,27,0,0,20,20,12,0,5,2,0,0,0,0,0,0,0,0,0,0,0,0,0,0,0,0,0,0,0,0,0,0,0,0,0,0,0,0,0],"split_type":[0,0,0,0,0,0,0,0,0,0,0,0,0,0,0,0,0,0,0,0,0,0,0,0,0,0,0,0,0,0,0,0,0,0,0,0,0,0,0,0,0,0,0,0,0,0,0,0,0,0,0,0,0,0,0,0,0,0,0],"sum_hessian":[2.0615771E4,1.3960135E4,6.6556357E3,1.1730462E4,2.2296736E3,6.1992163E3,4.564196E2,5.0117407E3,6.7187207E3,1.9939089E3,2.3576453E2,5.8234155E3,3.7580096E2,4.1875864E2,3.7660934E1,1.4854578E3,3.526283E3,5.4037456E3,1.3149751E3,1.7913063E3,2.0260268E2,2.295558E2,6.2087336E0,5.563692E3,2.597238E2,1.9467776E2,1.8112318E2,3.8452783E2,3.4230804E1,3.0069662E1,7.5912724E0,8.6095624E2,6.245016E2,1.6802375E3,1.8460455E3,4.481068E3,9.226779E2,1.203212E3,1.1176304E2,1.6956185E3,9.568775E1,1.882888E2,1.4313881E1,1.3913593E2,9.041988E1,2.665848E3,2.8978438E3,2.4562201E2,1.4101771E1,1.8834631E2,6.3314486E0,4.385873E0,1.7673732E2,7.7505474E0,3.7677728E2,3.115716E0,3.111509E1,2.7358152E1,2.7115104E0],"tree_param":{"num_deleted":"0","num_feature":"34","num_nodes":"59","size_leaf_vector":"1"}},{"base_weights":[5.4202587E-3,2.8995755E-1,-7.267185E-1,1.2303392E-1,9.547648E-1,-8.314795E-1,9.348336E-1,-4.90614E-2,8.976368E-1,1.0098078E0,6.7409134E-1,-3.356592E-1,-1.077403E0,1.014018E0,-7.331191E-1,-2.033166E-1,9.4646657E-1,1.0849051E0,4.3849528E-1,1.0297052E0,5.5327153E-1,6.97679E-1,-1.1103531E-1,-4.3114066E-1,7.534866E-1,-1.1032975E0,1.1003953E0,1.0305499E0,-5.6826938E-2,-9.3493305E-2,5.333926E-2,-4.194774E-2,-1.4091495E-3,5.266726E-2,2.2378417E-2,5.4493573E-2,-1.0571585E-1,2.7059441E-2,-1.354664E-2,5.6500208E-2,4.927072E-2,-1.0494923E-1,3.258429E-2,4.4101354E-2,1.645014E-2,-2.6168048E-2,3.257539E-2,4.654156E-2,-8.8084415E-2,-5.6750935E-2,2.7553676E-2,6.2304504E-2,-7.419892E-2,5.278601E-2,1.987618E-2],"categories":[],"categories_nodes":[],"categories_segments":[],"categories_sizes":[],"default_left":[0,0,0,0,0,0,0,0,0,0,0,0,0,0,0,0,0,0,0,0,0,0,0,0,0,0,0,0,0,0,0,0,0,0,0,0,0,0,0,0,0,0,0,0,0,0,0,0,0,0,0,0,0,0,0],"id":19,"left_children":[1,3,5,7,9,11,13,15,17,19,21,23,25,27,29,31,33,35,37,39,41,43,-1,45,47,49,51,53,-1,-1,-1,-1,-1,-1,-1,-1,-1,-1,-1,-1,-1,-1,-1,-1,-1,-1,-1,-1,-1,-1,-1,-1,-1,-1,-1],"loss_changes":[4.205479E3,1.6131519E3,9.842295E2,1.5492075E3,4.43916E1,6.477556E2,4.5063995E1,1.4605302E3,1.8117102E2,2.1569092E1,3.4416412E1,1.8374127E2,2.0155469E2,1.2575806E1,3.4299976E1,9.1666187E2,6.7565796E1,2.613501E1,4.485765E1,9.255371E0,2.8498959E1,3.221176E1,0E0,1.6230615E2,6.5212006E1,1.84896E2,1.775578E1,4.6608276E0,0E0,0E0,0E0,0E0,0E0,0E0,0E0,0E0,0E0,0E0,0E0,0E0,0E0,0E0,0E0,0E0,0E0,0E0,0E0,0E0,0E0,0E0,0E0,0E0,0E0,0E0,0E0],"parents":[2147483647,0,0,1,1,2,2,3,3,4,4,5,5,6,6,7,7,8,8,9,9,10,10,11,11,12,12,13,13,14,14,15,15,16,16,17,17,18,18,19,19,20,20,21,21,23,23,24,24,25,25,26,26,27,27],"right_children":[2,4,6,8,10,12,14,16,18,20,22,24,26,28,30,32,34,36,38,40,42,44,-1,46,48,50,52,54,-1,-1,-1,-1,-1,-1,-1,-1,-1,-1,-1,-1,-1,-1,-1,-1,-1,-1,-1,-1,-1,-1,-1,-1,-1,-1,-1],"split_conditions":[6.123234E-17,3.4E0,4.3E0,3.4E0,1E0,-5E-1,1E0,2.11E1,3.045E1,5.7E1,3.54E1,3.4E0,3.65E1,7.01E1,5.1E0,-4.3388373E-1,1E0,2E0,5.27E1,2.11E1,-4.3388373E-1,1E1,-1.1103531E-1,6.1E0,4.98E1,3.4E0,1E0,6.25E1,-5.6826938E-2,-9.3493305E-2,5.333926E-2,-4.194774E-2,-1.4091495E-3,5.266726E-2,2.2378417E-2,5.4493573E-2,-1.0571585E-1,2.7059441E-2,-1.354664E-2,5.6500208E-2,4.927072E-2,-1.0494923E-1,3.258429E-2,4.4101354E-2,1.645014E-2,-2.6168048E-2,3.257539E-2,4.654156E-2,-8.8084415E-2,-5.6750935E-2,2.7553676E-2,6.2304504E-2,-7.419892E-2,5.278601E-2,1.987618E-2],"split_indices":[5,28,28,27,20,4,20,30,27,28,32,27,30,28,30,8,21,20,27,28,8,0,0,30,27,27,21,28,0,0,0,0,0,0,0,0,0,0,0,0,0,0,0,0,0,0,0,0,0,0,0,0,0,0,0],"split_type":[0,0,0,0,0,0,0,0,0,0,0,0,0,0,0,0,0,0,0,0,0,0,0,0,0,0,0,0,0,0,0,0,0,0,0,0,0,0,0,0,0,0,0,0,0,0,0,0,0,0,0,0,0,0,0],"sum_hessian":[2.0185506E4,1.4536619E4,5.6488857E3,1.162015E4,2.9164692E3,5.3143174E3,3.3456876E2,9.50855E3,2.1116E3,2.4361218E3,4.8034735E2,1.762734E3,3.5515833E3,3.1977957E2,1.4789181E1,8.233569E3,1.2749805E3,1.4988904E3,6.127097E2,2.3331792E3,1.0294255E2,4.7721783E2,3.12952E0,1.6212123E3,1.4152167E2,3.510338E3,4.1245296E1,3.1785693E2,1.9226348E0,9.04062E0,5.7485614E0,1.7777024E3,6.455867E3,1.0491174E3,2.258631E2,1.4972255E3,1.6648619E0,5.3543915E2,7.727056E1,7.0719086E2,1.6259884E3,2.9558067E0,9.998675E1,3.1721124E2,1.600066E2,1.4944327E3,1.26779594E2,1.3278867E2,8.732996E0,3.4446042E3,6.5733635E1,3.9534374E1,1.7109246E0,3.0505948E2,1.2797462E1],"tree_param":{"num_deleted":"0","num_feature":"34","num_nodes":"55","size_leaf_vector":"1"}},{"base_weights":[5.8795093E-3,2.849683E-1,-7.179002E-1,1.342575E-1,9.167338E-1,-8.143769E-1,9.625487E-1,-4.143699E-2,9.092688E-1,9.77687E-1,5.998339E-1,-9.246061E-1,9.0584445E-1,1.0955306E0,-7.654044E-1,-2.3486619E-1,8.2055426E-1,1.0251582E0,3.7045184E-1,9.9562293E-1,7.87603E-1,8.3468765E-1,1.0163419E-1,-9.8774683E-1,6.360123E-1,9.788692E-1,1.4204878E-1,1.194733E0,-4.6165604E-2,-7.985389E-2,6.372874E-2,-2.1055518E-2,4.0807147E-2,4.1271664E-2,-1.01644516E-1,5.5530936E-2,2.3455871E-2,2.1015719E-2,-1.2804745E-1,4.990592E-2,4.6116807E-3,4.1520964E-2,-1.8937033E-2,4.308994E-2,-9.3002886E-2,-2.2094453E-2,5.5431694E-2,-5.186508E-2,4.3242585E-2,-2.8129397E-2,3.881047E-2,2.4340762E-2,4.9857542E-2,3.984825E-2,-8.093773E-2,6.299328E-2,4.2687014E-2,-8.931846E-2,4.4371277E-2],"categories":[],"categories_nodes":[],"categories_segments":[],"categories_sizes":[],"default_left":[0,0,0,0,0,0,0,0,0,0,0,0,0,0,0,0,0,0,0,0,0,0,0,0,0,0,0,0,0,0,0,0,0,0,0,0,0,0,0,0,0,0,0,0,0,0,0,0,0,0,0,0,0,0,0,0,0,0,0],"id":20,"left_children":[1,3,5,7,9,11,13,15,17,19,21,23,25,27,29,31,33,35,37,39,41,43,45,47,49,51,53,55,57,-1,-1,-1,-1,-1,-1,-1,-1,-1,-1,-1,-1,-1,-1,-1,-1,-1,-1,-1,-1,-1,-1,-1,-1,-1,-1,-1,-1,-1,-1],"loss_changes":[4.0058877E3,1.3626143E3,8.9552246E2,1.5736829E3,5.2658447E1,9.9059937E2,6.979736E1,1.5711759E3,1.329867E2,7.092285E0,5.2245346E1,4.840498E2,1.7421295E1,3.1661835E1,3.9417946E1,1.5068019E3,2.5721436E1,8.297925E1,5.6564922E1,4.658203E0,1.0501038E1,2.3799652E1,7.953923E1,4.3380713E2,3.259577E1,2.0980225E0,3.4321537E1,4.627716E0,3.9394577E1,0E0,0E0,0E0,0E0,0E0,0E0,0E0,0E0,0E0,0E0,0E0,0E0,0E0,0E0,0E0,0E0,0E0,0E0,0E0,0E0,0E0,0E0,0E0,0E0,0E0,0E0,0E0,0E0,0E0,0E0],"parents":[2147483647,0,0,1,1,2,2,3,3,4,4,5,5,6,6,7,7,8,8,9,9,10,10,11,11,12,12,13,13,14,14,15,15,16,16,17,17,18,18,19,19,20,20,21,21,22,22,23,23,24,24,25,25,26,26,27,27,28,28],"right_children":[2,4,6,8,10,12,14,16,18,20,22,24,26,28,30,32,34,36,38,40,42,44,46,48,50,52,54,56,58,-1,-1,-1,-1,-1,-1,-1,-1,-1,-1,-1,-1,-1,-1,-1,-1,-1,-1,-1,-1,-1,-1,-1,-1,-1,-1,-1,-1,-1,-1],"split_conditions":[6.123234E-17,1E0,3.4E0,5.5E0,1E0,1E0,1E0,1E0,1E0,1E0,1E1,1E0,1E0,1E0,1E0,1.34E1,2E0,1E0,5.39E1,2E0,2E0,4.52E1,1E0,3.63E1,4E0,2E0,1.5E1,2.1E1,5E0,-7.985389E-2,6.372874E-2,-2.1055518E-2,4.0807147E-2,4.1271664E-2,-1.01644516E-1,5.5530936E-2,2.3455871E-2,2.1015719E-2,-1.2804745E-1,4.990592E-2,4.6116807E-3,4.1520964E-2,-1.8937033E-2,4.308994E-2,-9.3002886E-2,-2.2094453E-2,5.5431694E-2,-5.186508E-2,4.3242585E-2,-2.8129397E-2,3.881047E-2,2.4340762E-2,4.9857542E-2,3.984825E-2,-8.093773E-2,6.299328E-2,4.2687014E-2,-8.931846E-2,4.4371277E-2],"split_indices":[5,14,29,29,20,14,20,13,20,19,0,13,20,21,13,30,20,21,29,26,14,32,15,30,10,10,1,0,2,0,0,0,0,0,0,0,0,0,0,0,0,0,0,0,0,0,0,0,0,0,0,0,0,0,0,0,0,0,0],"split_type":[0,0,0,0,0,0,0,0,0,0,0,0,0,0,0,0,0,0,0,0,0,0,0,0,0,0,0,0,0,0,0,0,0,0,0,0,0,0,0,0,0,0,0,0,0,0,0,0,0,0,0,0,0,0,0,0,0,0,0],"sum_hessian":[1.982923E4,1.4311382E4,5.517849E3,1.1555882E4,2.7555005E3,5.2187495E3,2.9909955E2,9.421077E3,2.1348047E3,2.3092493E3,4.4625116E2,4.9049126E3,3.1383688E2,2.780658E2,2.1033731E1,7.69505E3,1.726027E3,1.7561807E3,3.7862402E2,2.1062678E3,2.0298138E2,3.028234E2,1.434278E2,4.7145356E3,1.9037737E2,2.8619305E2,2.7643827E1,2.5579337E2,2.2272438E1,1.5096281E1,5.93745E0,6.53722E3,1.1578296E3,1.7237903E3,2.2367008E0,1.5213586E3,2.3482205E2,3.7313373E2,5.4903126E0,2.1003613E3,5.906607E0,1.9607164E2,6.9097385E0,3.004805E2,2.3428676E0,9.351481E1,4.9912983E1,4.5921416E3,1.22394E2,1.9620556E1,1.707568E2,1.1241983E1,2.7495108E2,2.0548405E1,7.0954227E0,2.1250789E2,4.328549E1,7.45778E0,1.4814659E1],"tree_param":{"num_deleted":"0","num_feature":"34","num_nodes":"59","size_leaf_vector":"1"}},{"base_weights":[-2.968859E-3,2.9196775E-1,-6.345282E-1,4.2397445E-1,-4.0530393E-1,-7.37804E-1,8.648322E-1,2.9246596E-1,8.9420366E-1,-5.6778044E-1,8.78027E-1,-8.398928E-1,8.188492E-1,8.789557E-1,-5.9191823E-2,1.7873175E-1,8.4539944E-1,9.1351724E-1,4.3815678E-1,-7.550104E-1,8.997415E-1,1.0225195E0,7.0329833E-1,-9.126638E-1,6.249368E-1,4.0116006E-1,9.026499E-1,9.133526E-1,4.5385054E-1,1.7383082E-3,3.8393166E-2,3.9274085E-2,6.0089387E-2,4.5762386E-2,-6.856651E-2,2.7898401E-2,-9.602404E-2,-4.2662162E-2,4.8989598E-2,4.8537865E-2,9.847514E-3,5.438161E-2,3.39287E-2,3.0799497E-2,5.9181213E-2,-4.634614E-2,-1.1631876E-3,4.3303926E-2,-6.99343E-2,-1.2236595E-1,3.3683825E-2,5.0427634E-2,3.829136E-2,4.66143E-2,1.6870158E-2,-8.229351E-2,3.5244234E-2],"categories":[],"categories_nodes":[],"categories_segments":[],"categories_sizes":[],"default_left":[0,0,0,0,0,0,0,0,0,0,0,0,0,0,0,0,0,0,0,0,0,0,0,0,0,0,0,0,0,0,0,0,0,0,0,0,0,0,0,0,0,0,0,0,0,0,0,0,0,0,0,0,0,0,0,0,0],"id":21,"left_children":[1,3,5,7,9,11,13,15,17,19,21,23,25,27,-1,29,31,33,35,37,39,41,43,45,47,49,51,53,55,-1,-1,-1,-1,-1,-1,-1,-1,-1,-1,-1,-1,-1,-1,-1,-1,-1,-1,-1,-1,-1,-1,-1,-1,-1,-1,-1,-1],"loss_changes":[3.6300452E3,1.2229231E3,9.612739E2,6.904938E2,4.415304E2,9.231228E2,1.2621124E1,5.4888513E2,2.1097412E1,5.167026E2,5.2918854E0,5.8128613E2,1.216011E1,5.406189E0,0E0,6.142267E2,3.0855347E1,1.0509644E1,2.9637909E1,2.8476477E2,1.0437103E1,2.1311493E0,3.9246635E0,6.580176E1,1.27316666E2,4.945159E1,3.533554E0,3.6905823E0,1.7914625E1,0E0,0E0,0E0,0E0,0E0,0E0,0E0,0E0,0E0,0E0,0E0,0E0,0E0,0E0,0E0,0E0,0E0,0E0,0E0,0E0,0E0,0E0,0E0,0E0,0E0,0E0,0E0,0E0],"parents":[2147483647,0,0,1,1,2,2,3,3,4,4,5,5,6,6,7,7,8,8,9,9,10,10,11,11,12,12,13,13,15,15,16,16,17,17,18,18,19,19,20,20,21,21,22,22,23,23,24,24,25,25,26,26,27,27,28,28],"right_children":[2,4,6,8,10,12,14,16,18,20,22,24,26,28,-1,30,32,34,36,38,40,42,44,46,48,50,52,54,56,-1,-1,-1,-1,-1,-1,-1,-1,-1,-1,-1,-1,-1,-1,-1,-1,-1,-1,-1,-1,-1,-1,-1,-1,-1,-1,-1,-1],"split_conditions":[-1.8369701E-16,5E0,3.7E0,3.4E0,1E0,1E0,7.01E1,8.1E0,5.7E1,9.3E0,-2.4492937E-16,5.9E0,1.5E1,5.6E1,-5.9191823E-2,1E0,2E0,6.39E1,1E0,2.97E1,4.6E1,1E0,1E0,6.7E0,1E0,2E0,1.2246469E-16,1E0,6.123234E-17,1.7383082E-3,3.8393166E-2,3.9274085E-2,6.0089387E-2,4.5762386E-2,-6.856651E-2,2.7898401E-2,-9.602404E-2,-4.2662162E-2,4.8989598E-2,4.8537865E-2,9.847514E-3,5.438161E-2,3.39287E-2,3.0799497E-2,5.9181213E-2,-4.634614E-2,-1.1631876E-3,4.3303926E-2,-6.99343E-2,-1.2236595E-1,3.3683825E-2,5.0427634E-2,3.829136E-2,4.66143E-2,1.6870158E-2,-8.229351E-2,3.5244234E-2],"split_indices":[5,2,28,28,13,13,28,30,28,28,11,30,1,28,0,13,16,31,18,30,28,6,26,33,21,2,11,21,5,0,0,0,0,0,0,0,0,0,0,0,0,0,0,0,0,0,0,0,0,0,0,0,0,0,0,0,0],"split_type":[0,0,0,0,0,0,0,0,0,0,0,0,0,0,0,0,0,0,0,0,0,0,0,0,0,0,0,0,0,0,0,0,0,0,0,0,0,0,0,0,0,0,0,0,0,0,0,0,0,0,0,0,0,0,0,0,0],"sum_hessian":[1.9486092E4,1.3283342E4,6.202749E3,1.1169194E4,2.1141477E3,5.8035117E3,3.9923737E2,8.729458E3,2.4397366E3,1.8770596E3,2.3708817E2,5.446761E3,3.5675037E2,3.9707092E2,2.1664376E0,7.241301E3,1.4881569E3,2.3396494E3,1.0008716E2,1.6651068E3,2.1195277E2,1.2711659E2,1.09971565E2,5.1893384E3,2.5742322E2,6.058124E1,2.9616913E2,3.6628488E2,3.0786055E1,5.8201055E3,1.4211954E3,1.2767136E3,2.1144324E2,2.3384778E3,1.1716449E0,9.597536E1,4.111803E0,1.5763542E3,8.875253E1,1.9215462E2,1.9798168E1,1.05064514E2,2.205208E1,9.4988106E1,1.49834585E1,5.1074136E3,8.192456E1,2.3052509E2,2.6898127E1,4.592952E0,5.598829E1,1.6335709E2,1.3281203E2,3.540281E2,1.2256747E1,2.6942468E0,2.8091808E1],"tree_param":{"num_deleted":"0","num_feature":"34","num_nodes":"57","size_leaf_vector":"1"}},{"base_weights":[1.00273015E-2,3.000302E-1,-6.2858427E-1,4.2789695E-1,-3.9050063E-1,-7.36536E-1,9.177229E-1,7.3964536E-1,1.9866538E-1,-5.4945624E-1,9.7026974E-1,-8.5140526E-1,8.360207E-1,1.0236278E0,-1.9992816E-1,4.648515E-1,8.5015106E-1,4.6304952E-2,9.0516186E-1,-7.2890764E-1,8.5996294E-1,1.1082107E0,-8.836621E-2,-9.523051E-1,7.603882E-1,8.513719E-1,-7.784448E-2,1.0347891E0,-5.4455467E-2,4.6095458E-1,-9.805862E-2,9.588695E-3,3.964958E-2,3.5243865E-2,4.915532E-2,-7.564533E-3,4.5377113E-2,3.247953E-2,4.618386E-2,-4.455506E-2,3.4932863E-2,4.7785822E-2,-8.8313125E-2,3.0236084E-2,5.8168977E-2,-1.08430974E-1,2.3769196E-2,-5.152116E-2,2.726907E-2,4.21345E-2,-4.856068E-2,4.3255296E-2,-7.155763E-2,5.336827E-2,1.4094829E-2,-8.8023596E-2,4.9189743E-2],"categories":[],"categories_nodes":[],"categories_segments":[],"categories_sizes":[],"default_left":[0,0,0,0,0,0,0,0,0,0,0,0,0,0,0,0,0,0,0,0,0,0,0,0,0,0,0,0,0,0,0,0,0,0,0,0,0,0,0,0,0,0,0,0,0,0,0,0,0,0,0,0,0,0,0,0,0],"id":22,"left_children":[1,3,5,7,9,11,13,15,17,19,21,23,25,27,29,31,33,35,37,39,41,43,45,47,49,51,-1,53,-1,55,-1,-1,-1,-1,-1,-1,-1,-1,-1,-1,-1,-1,-1,-1,-1,-1,-1,-1,-1,-1,-1,-1,-1,-1,-1,-1,-1],"loss_changes":[3.5669863E3,1.169676E3,1.00472534E3,7.985442E2,4.4827377E2,1.01643384E3,4.6717224E1,1.434021E2,6.933801E2,4.695719E2,3.1767395E1,8.530134E2,1.5404846E1,9.595215E0,4.146768E1,1.2174582E2,6.451587E1,9.0210535E2,4.807373E0,3.815647E2,5.4463303E1,4.6280823E0,3.1436548E1,5.776323E2,4.4897964E1,1.3196899E1,0E0,8.473114E0,0E0,3.210416E1,0E0,0E0,0E0,0E0,0E0,0E0,0E0,0E0,0E0,0E0,0E0,0E0,0E0,0E0,0E0,0E0,0E0,0E0,0E0,0E0,0E0,0E0,0E0,0E0,0E0,0E0,0E0],"parents":[2147483647,0,0,1,1,2,2,3,3,4,4,5,5,6,6,7,7,8,8,9,9,10,10,11,11,12,12,13,13,14,14,15,15,16,16,17,17,18,18,19,19,20,20,21,21,22,22,23,23,24,24,25,25,27,27,29,29],"right_children":[2,4,6,8,10,12,14,16,18,20,22,24,26,28,30,32,34,36,38,40,42,44,46,48,50,52,-1,54,-1,56,-1,-1,-1,-1,-1,-1,-1,-1,-1,-1,-1,-1,-1,-1,-1,-1,-1,-1,-1,-1,-1,-1,-1,-1,-1,-1,-1],"split_conditions":[-1.8369701E-16,5E0,1E0,1E1,1E0,1E0,1E0,8E0,1E0,4.5E0,1E0,1E0,1E0,5E-1,-1.8369701E-16,1E0,6.123234E-17,1E0,1.1E1,1E0,4.71E1,-5E-1,5.6655387E-16,1E0,5E-1,1E0,-7.784448E-2,6E0,-5.4455467E-2,5.6655387E-16,-9.805862E-2,9.588695E-3,3.964958E-2,3.5243865E-2,4.915532E-2,-7.564533E-3,4.5377113E-2,3.247953E-2,4.618386E-2,-4.455506E-2,3.4932863E-2,4.7785822E-2,-8.8313125E-2,3.0236084E-2,5.8168977E-2,-1.08430974E-1,2.3769196E-2,-5.152116E-2,2.726907E-2,4.21345E-2,-4.856068E-2,4.3255296E-2,-7.155763E-2,5.336827E-2,1.4094829E-2,-8.8023596E-2,4.9189743E-2],"split_indices":[5,2,15,0,15,14,21,0,14,27,21,13,17,4,12,13,12,15,0,14,27,12,6,16,4,26,0,2,0,6,0,0,0,0,0,0,0,0,0,0,0,0,0,0,0,0,0,0,0,0,0,0,0,0,0,0,0],"split_type":[0,0,0,0,0,0,0,0,0,0,0,0,0,0,0,0,0,0,0,0,0,0,0,0,0,0,0,0,0,0,0,0,0,0,0,0,0,0,0,0,0,0,0,0,0,0,0,0,0,0,0,0,0,0,0,0,0],"sum_hessian":[1.925825E4,1.3244334E4,6.0139165E3,1.1175355E4,2.0689785E3,5.6219565E3,3.9195984E2,4.734433E3,6.440922E3,1.8531077E3,2.1587076E2,5.239677E3,3.822798E2,3.581106E2,3.3849236E1,1.3593505E3,3.3750828E3,5.299185E3,1.1417372E3,1.644241E3,2.088668E2,1.9094383E2,2.4926928E1,4.9313774E3,3.0829968E2,3.804831E2,1.7966872E0,3.567362E2,1.3743775E0,2.5150234E1,8.699001E0,7.42788E2,6.165625E2,1.6158386E3,1.7592441E3,4.3109404E3,9.8824445E2,7.956509E1,1.0621721E3,1.4768263E3,1.6741463E2,2.0213301E2,6.7337823E0,2.0037397E1,1.7090643E2,4.707895E0,2.0219032E1,4.6872085E3,2.4416895E2,2.9480133E2,1.3498353E1,3.788247E2,1.6584036E0,3.4154065E2,1.5195551E1,4.340658E0,2.0809576E1],"tree_param":{"num_deleted":"0","num_feature":"34","num_nodes":"57","size_leaf_vector":"1"}},{"base_weights":[1.6608866E-2,-1.3605343E-1,8.9287215E-1,-3.0568713E-1,8.329898E-1,9.901847E-1,4.949822E-1,-4.659775E-1,7.3354125E-1,9.06361E-1,3.058008E-1,1.0741659E0,5.3424203E-1,3.019908E-1,9.957667E-1,-6.213141E-1,7.187101E-1,9.5551145E-1,2.3644817E-1,9.397664E-1,3.1131828E-1,1.43126E-1,8.862211E-1,1.0770034E0,1.8358049E-1,2.8255188E-1,1.0876727E0,1.2201633E-1,1.0629749E0,1.0378109E0,-1.03787415E-1,-2.5447315E-2,-4.8090287E-2,4.2342313E-2,-5.1051914E-3,5.3213157E-2,3.525849E-2,-7.458028E-2,1.48811E-2,5.183686E-2,4.3854445E-2,-1.1496904E-1,2.013568E-2,-5.8753714E-3,3.916899E-2,4.927669E-2,-1.0769104E-1,4.163232E-2,5.4211933E-2,-1.21008374E-1,5.56733E-2,2.4869542E-3,4.3723963E-2,4.0527835E-2,6.1264127E-2,-5.356338E-3,4.2858552E-2,5.6831807E-2,-9.806614E-2,5.43665E-2,1.8711524E-2],"categories":[],"categories_nodes":[],"categories_segments":[],"categories_sizes":[],"default_left":[0,0,0,0,0,0,0,0,0,0,0,0,0,0,0,0,0,0,0,0,0,0,0,0,0,0,0,0,0,0,0,0,0,0,0,0,0,0,0,0,0,0,0,0,0,0,0,0,0,0,0,0,0,0,0,0,0,0,0,0,0],"id":23,"left_children":[1,3,5,7,9,11,13,15,17,19,21,23,25,27,29,31,33,35,37,39,41,43,45,47,49,51,53,55,57,59,-1,-1,-1,-1,-1,-1,-1,-1,-1,-1,-1,-1,-1,-1,-1,-1,-1,-1,-1,-1,-1,-1,-1,-1,-1,-1,-1,-1,-1,-1,-1],"loss_changes":[2.5451445E3,2.663766E3,1.08811035E2,2.2974595E3,9.310205E1,8.623706E1,5.3505325E1,2.199161E3,2.031452E2,4.182202E1,2.7863468E1,4.637451E0,4.9090164E1,5.5104572E1,2.209755E1,4.0366968E2,1.4580481E2,3.392981E1,6.073049E1,1.1280151E1,2.8154375E1,3.893E1,2.1657696E1,2.4692383E0,2.0327307E1,3.373599E1,3.2210388E0,5.5225166E1,1.9384499E1,4.621109E0,0E0,0E0,0E0,0E0,0E0,0E0,0E0,0E0,0E0,0E0,0E0,0E0,0E0,0E0,0E0,0E0,0E0,0E0,0E0,0E0,0E0,0E0,0E0,0E0,0E0,0E0,0E0,0E0,0E0,0E0,0E0],"parents":[2147483647,0,0,1,1,2,2,3,3,4,4,5,5,6,6,7,7,8,8,9,9,10,10,11,11,12,12,13,13,14,14,15,15,16,16,17,17,18,18,19,19,20,20,21,21,22,22,23,23,24,24,25,25,26,26,27,27,28,28,29,29],"right_children":[2,4,6,8,10,12,14,16,18,20,22,24,26,28,30,32,34,36,38,40,42,44,46,48,50,52,54,56,58,60,-1,-1,-1,-1,-1,-1,-1,-1,-1,-1,-1,-1,-1,-1,-1,-1,-1,-1,-1,-1,-1,-1,-1,-1,-1,-1,-1,-1,-1,-1,-1],"split_conditions":[4.8E0,4.5E0,1E0,3.4E0,1E0,1E0,1.17E1,4.5E0,3.02E1,5.7E1,1.9E1,5.41E1,8.6E0,2E0,2E0,1E0,1E0,1.91E1,2E0,2.64E1,2E0,5.6E0,2E0,1.2E1,5.84E1,3.4E0,3.66E1,3.4E0,1E0,5E1,-1.03787415E-1,-2.5447315E-2,-4.8090287E-2,4.2342313E-2,-5.1051914E-3,5.3213157E-2,3.525849E-2,-7.458028E-2,1.48811E-2,5.183686E-2,4.3854445E-2,-1.1496904E-1,2.013568E-2,-5.8753714E-3,3.916899E-2,4.927669E-2,-1.0769104E-1,4.163232E-2,5.4211933E-2,-1.21008374E-1,5.56733E-2,2.4869542E-3,4.3723963E-2,4.0527835E-2,6.1264127E-2,-5.356338E-3,4.2858552E-2,5.6831807E-2,-9.806614E-2,5.43665E-2,1.8711524E-2],"split_indices":[29,28,20,27,20,21,28,30,27,28,30,31,30,15,20,3,20,27,10,28,10,27,20,29,29,28,30,27,11,28,0,0,0,0,0,0,0,0,0,0,0,0,0,0,0,0,0,0,0,0,0,0,0,0,0,0,0,0,0,0,0],"split_type":[0,0,0,0,0,0,0,0,0,0,0,0,0,0,0,0,0,0,0,0,0,0,0,0,0,0,0,0,0,0,0,0,0,0,0,0,0,0,0,0,0,0,0,0,0,0,0,0,0,0,0,0,0,0,0,0,0,0,0,0,0],"sum_hessian":[1.9024027E4,1.6202141E4,2.8218867E3,1.378902E4,2.4131216E3,2.2661602E3,5.5572675E2,1.1946886E4,1.8421334E3,2.1176763E3,2.9544543E2,1.9125302E3,3.5362994E2,4.0229434E2,1.534324E2,1.0562414E4,1.3844716E3,1.2728411E3,5.692923E2,2.0045615E3,1.13114586E2,2.3174164E2,6.3703793E1,1.9062476E3,6.282596E0,2.4411943E2,1.095105E2,3.2628705E2,7.600729E1,1.520137E2,1.4187125E0,7.9434434E3,2.6189712E3,1.1974998E3,1.8697179E2,8.8509375E2,3.8774738E2,1.8664677E1,5.5062756E2,7.8088464E2,1.2236769E3,3.008835E0,1.1010575E2,1.652773E2,6.646434E1,6.2342976E1,1.3608179E0,5.815804E1,1.8480895E3,1.2315407E0,5.0510554E0,1.759859E2,6.813354E1,3.862282E1,7.088767E1,2.4940375E2,7.68833E1,7.4809364E1,1.1979281E0,1.4086334E2,1.1150353E1],"tree_param":{"num_deleted":"0","num_feature":"34","num_nodes":"61","size_leaf_vector":"1"}},{"base_weights":[-1.9350281E-2,-1.7788261E-1,8.635842E-1,-3.4873432E-1,8.003058E-1,9.614902E-1,4.5443127E-1,-5.0934696E-1,7.0973E-1,8.7343025E-1,2.9809123E-1,1.0172589E0,9.000145E-1,2.5076719E-2,6.6592133E-1,-6.555283E-1,6.34509E-1,7.134817E-1,-9.586347E-2,9.067257E-1,3.2451162E-1,-2.7694348E-1,7.048571E-1,7.0623463E-1,1.0342901E0,9.0508664E-1,-1.05328344E-1,5.314277E-1,-4.4397074E-1,-8.922552E-2,6.884303E-1,-3.5666797E-2,2.4872622E-2,3.83096E-2,-7.951335E-3,2.2317825E-2,3.7575502E-2,4.878969E-2,3.9295077E-2,2.1734644E-2,-1.2258716E-1,-5.0602008E-2,5.2207537E-2,-1.10000305E-1,3.678688E-2,3.9176047E-2,-8.7941736E-2,4.761506E-2,5.3282227E-2,4.6672534E-2,3.53277E-2,3.0440373E-2,-9.2577904E-2,-4.4195402E-2,6.1905015E-2,3.5009734E-2,-8.673748E-2],"categories":[],"categories_nodes":[],"categories_segments":[],"categories_sizes":[],"default_left":[0,0,0,0,0,0,0,0,0,0,0,0,0,0,0,0,0,0,0,0,0,0,0,0,0,0,0,0,0,0,0,0,0,0,0,0,0,0,0,0,0,0,0,0,0,0,0,0,0,0,0,0,0,0,0,0,0],"id":24,"left_children":[1,3,5,7,9,11,13,15,17,19,21,23,25,27,29,31,33,35,-1,37,39,41,43,45,47,49,-1,51,53,-1,55,-1,-1,-1,-1,-1,-1,-1,-1,-1,-1,-1,-1,-1,-1,-1,-1,-1,-1,-1,-1,-1,-1,-1,-1,-1,-1],"loss_changes":[2.5800295E3,2.6118418E3,1.1195801E2,2.2620078E3,8.5079346E1,6.8432617E0,4.934903E1,1.9319336E3,1.8646667E1,3.676941E1,6.963419E1,5.5145264E0,1.8455017E1,4.309408E1,2.1316391E1,6.830596E2,1.3695459E2,1.7455688E1,0E0,1.518396E1,3.70172E1,1.2119791E2,1.7241089E1,1.3639481E1,1.8531494E0,5.444702E0,0E0,1.7212212E1,7.0819305E1,0E0,1.1522995E1,0E0,0E0,0E0,0E0,0E0,0E0,0E0,0E0,0E0,0E0,0E0,0E0,0E0,0E0,0E0,0E0,0E0,0E0,0E0,0E0,0E0,0E0,0E0,0E0,0E0,0E0],"parents":[2147483647,0,0,1,1,2,2,3,3,4,4,5,5,6,6,7,7,8,8,9,9,10,10,11,11,12,12,13,13,14,14,15,15,16,16,17,17,19,19,20,20,21,21,22,22,23,23,24,24,25,25,27,27,28,28,30,30],"right_children":[2,4,6,8,10,12,14,16,18,20,22,24,26,28,30,32,34,36,-1,38,40,42,44,46,48,50,-1,52,54,-1,56,-1,-1,-1,-1,-1,-1,-1,-1,-1,-1,-1,-1,-1,-1,-1,-1,-1,-1,-1,-1,-1,-1,-1,-1,-1,-1],"split_conditions":[1E0,3.4E0,1E0,1E0,1E0,2.5881904E-1,2.5881904E-1,1E0,2E0,5.63E1,7.0710677E-1,-9.659258E-1,5.41E1,5E0,-4.3388373E-1,1E0,1E0,3E0,-9.586347E-2,5E-1,9.659258E-1,1E0,2E0,1E0,0E0,1E0,-1.05328344E-1,0E0,2E0,-8.922552E-2,2E0,-3.5666797E-2,2.4872622E-2,3.83096E-2,-7.951335E-3,2.2317825E-2,3.7575502E-2,4.878969E-2,3.9295077E-2,2.1734644E-2,-1.2258716E-1,-5.0602008E-2,5.2207537E-2,-1.10000305E-1,3.678688E-2,3.9176047E-2,-8.7941736E-2,4.761506E-2,5.3282227E-2,4.6672534E-2,3.53277E-2,3.0440373E-2,-9.2577904E-2,-4.4195402E-2,6.1905015E-2,3.5009734E-2,-8.673748E-2],"split_indices":[15,28,20,13,20,4,4,16,20,28,4,4,31,10,8,22,20,10,0,4,4,13,10,22,8,22,0,4,15,0,17,0,0,0,0,0,0,0,0,0,0,0,0,0,0,0,0,0,0,0,0,0,0,0,0,0,0],"split_type":[0,0,0,0,0,0,0,0,0,0,0,0,0,0,0,0,0,0,0,0,0,0,0,0,0,0,0,0,0,0,0,0,0,0,0,0,0,0,0,0,0,0,0,0,0,0,0,0,0,0,0,0,0,0,0,0,0],"sum_hessian":[1.8430152E4,1.5625387E4,2.8047651E3,1.3302583E4,2.3228037E3,2.262115E3,5.4265015E2,1.1550426E4,1.7521569E3,2.0269348E3,2.9586896E2,1.1779602E3,1.0841548E3,1.7945331E2,3.6319687E2,1.0241962E4,1.3084645E3,1.7503854E3,1.7713939E0,1.9104047E3,1.16530174E2,1.2271252E2,1.7315645E2,6.3358837E1,1.1146014E3,1.0830266E3,1.1280999E0,8.623116E1,9.322215E1,2.5933425E0,3.6060352E2,9.753335E3,4.8862726E2,1.122265E3,1.861994E2,2.197207E2,1.5306647E3,1.2110447E3,6.993599E2,1.128932E2,3.6369681E0,7.899259E1,4.371992E1,1.0825306E0,1.7207393E2,6.2094173E1,1.2646631E0,3.1701376E2,7.9758765E2,9.4440015E2,1.3862653E2,8.424025E1,1.9909095E0,7.427136E1,1.895079E1,3.5956888E2,1.0346438E0],"tree_param":{"num_deleted":"0","num_feature":"34","num_nodes":"57","size_leaf_vector":"1"}},{"base_weights":[1.45482235E-2,2.7320215E-1,-5.5429846E-1,3.9431468E-1,-4.0945455E-1,-6.6215324E-1,8.2432115E-1,6.942094E-1,1.7849593E-1,-5.322183E-1,9.238984E-1,-7.7585614E-1,9.314188E-1,9.172231E-1,-3.0282283E-1,4.6407795E-1,7.901879E-1,3.686255E-2,8.728332E-1,-6.986112E-1,8.0956995E-1,1.039148E0,3.673302E-2,-8.673716E-1,7.009053E-1,1.0749727E0,-9.244296E-2,9.7110003E-1,1.4512494E-1,-9.18201E-2,6.036595E-1,1.1823551E-2,4.0049832E-2,4.8892476E-2,3.277057E-2,-7.370955E-3,4.5263957E-2,4.666343E-2,1.6763492E-2,-4.4049967E-2,3.6973074E-2,4.5518868E-2,-8.660537E-2,3.838721E-2,5.936569E-2,5.1868863E-2,-9.8885775E-2,-4.6997093E-2,2.8176416E-2,4.962698E-2,7.669177E-3,5.4329373E-2,-5.7844263E-2,4.9147602E-2,-7.846881E-2,-1.05300024E-1,2.1247622E-2,6.653725E-2,-1.6531324E-2],"categories":[],"categories_nodes":[],"categories_segments":[],"categories_sizes":[],"default_left":[0,0,0,0,0,0,0,0,0,0,0,0,0,0,0,0,0,0,0,0,0,0,0,0,0,0,0,0,0,0,0,0,0,0,0,0,0,0,0,0,0,0,0,0,0,0,0,0,0,0,0,0,0,0,0,0,0,0,0],"id":25,"left_children":[1,3,5,7,9,11,13,15,17,19,21,23,25,27,29,31,33,35,37,39,41,43,45,47,49,51,-1,53,55,-1,57,-1,-1,-1,-1,-1,-1,-1,-1,-1,-1,-1,-1,-1,-1,-1,-1,-1,-1,-1,-1,-1,-1,-1,-1,-1,-1,-1,-1],"loss_changes":[2.7146875E3,1.048792E3,8.5805884E2,6.971135E2,3.1339886E2,9.699646E2,4.414145E1,9.920117E1,6.161547E2,3.9151926E2,1.6477737E1,6.754614E2,1.4435608E2,1.5967682E1,4.6495647E1,1.01736145E2,7.978162E1,8.33149E2,3.417401E1,4.0940753E2,5.1195023E1,4.835785E0,4.157694E1,4.8884546E2,4.646425E1,1.006604E1,0E0,1.2436493E1,1.7546967E1,0E0,1.4890419E1,0E0,0E0,0E0,0E0,0E0,0E0,0E0,0E0,0E0,0E0,0E0,0E0,0E0,0E0,0E0,0E0,0E0,0E0,0E0,0E0,0E0,0E0,0E0,0E0,0E0,0E0,0E0,0E0],"parents":[2147483647,0,0,1,1,2,2,3,3,4,4,5,5,6,6,7,7,8,8,9,9,10,10,11,11,12,12,13,13,14,14,15,15,16,16,17,17,18,18,19,19,20,20,21,21,22,22,23,23,24,24,25,25,27,27,28,28,30,30],"right_children":[2,4,6,8,10,12,14,16,18,20,22,24,26,28,30,32,34,36,38,40,42,44,46,48,50,52,-1,54,56,-1,58,-1,-1,-1,-1,-1,-1,-1,-1,-1,-1,-1,-1,-1,-1,-1,-1,-1,-1,-1,-1,-1,-1,-1,-1,-1,-1,-1,-1],"split_conditions":[-1.8369701E-16,5E0,3.7E0,1E1,1.83E1,1.46E1,1E0,8E0,6.6E0,4E0,1E0,3.4E0,1E0,5.6E1,1E0,3.4E0,5E0,1.25E1,1E0,9.3E0,4.71E1,6E0,3E0,1.1E1,3E1,5E-1,-9.244296E-2,1E0,-2.2252093E-1,-9.18201E-2,5.1E0,1.1823551E-2,4.0049832E-2,4.8892476E-2,3.277057E-2,-7.370955E-3,4.5263957E-2,4.666343E-2,1.6763492E-2,-4.4049967E-2,3.6973074E-2,4.5518868E-2,-8.660537E-2,3.838721E-2,5.936569E-2,5.1868863E-2,-9.8885775E-2,-4.6997093E-2,2.8176416E-2,4.962698E-2,7.669177E-3,5.4329373E-2,-5.7844263E-2,4.9147602E-2,-7.846881E-2,-1.05300024E-1,2.1247622E-2,6.653725E-2,-1.6531324E-2],"split_indices":[5,2,28,0,29,29,20,0,28,27,20,27,20,28,7,28,10,29,20,28,27,2,10,30,27,4,0,15,9,0,28,0,0,0,0,0,0,0,0,0,0,0,0,0,0,0,0,0,0,0,0,0,0,0,0,0,0,0,0],"split_type":[0,0,0,0,0,0,0,0,0,0,0,0,0,0,0,0,0,0,0,0,0,0,0,0,0,0,0,0,0,0,0,0,0,0,0,0,0,0,0,0,0,0,0,0,0,0,0,0,0,0,0,0,0,0,0,0,0,0,0],"sum_hessian":[1.844836E4,1.2682268E4,5.766093E3,1.0771653E4,1.9106141E3,5.3482017E3,4.178908E2,4.506856E3,6.2647974E3,1.7500824E3,1.605318E2,4.9924956E3,3.557064E2,3.8624207E2,3.1648766E1,1.3281454E3,3.1787107E3,5.204266E3,1.0605315E3,1.5574277E3,1.9265463E2,1.4192352E2,1.8608273E1,4.7015513E3,2.9094415E2,3.388252E2,1.6881184E1,3.6080722E2,2.5434849E1,1.1376405E1,2.027236E1,7.9367596E2,5.344694E2,1.3260604E3,1.8526503E3,4.2939106E3,9.1035547E2,9.526896E2,1.0784191E2,1.3824779E3,1.7494981E2,1.8592244E2,6.732189E0,5.2301506E1,8.9622025E1,1.2756648E1,5.8516235E0,4.4749414E3,2.2661012E2,1.8930121E2,1.0164296E2,3.3758157E2,1.2436354E0,3.59742E2,1.0651972E0,2.0905948E0,2.3344254E1,1.11616955E1,9.110665E0],"tree_param":{"num_deleted":"0","num_feature":"34","num_nodes":"59","size_leaf_vector":"1"}},{"base_weights":[5.773934E-3,-1.3956404E-1,8.357817E-1,-2.973227E-1,7.715404E-1,9.308706E-1,4.4919652E-1,-4.4559145E-1,6.73008E-1,8.431845E-1,3.1988916E-1,1.0232131E0,4.42121E-1,2.6046783E-1,9.6087533E-1,-5.861972E-1,6.6071457E-1,9.952018E-1,2.5746864E-1,8.8524663E-1,3.0446714E-2,-2.8281224E-1,7.1415186E-1,1.0883127E0,9.286976E-1,1.7644404E-1,1.0534786E0,-8.916107E-1,4.1470003E-1,1.0122731E0,-1.0733739E-1,-3.2009047E-2,1.5292684E-2,4.019585E-2,-9.986191E-3,5.1641703E-2,2.5757313E-2,2.2361794E-2,-1.783984E-2,4.7782343E-2,3.8151868E-2,-2.2757191E-2,4.8005816E-2,-3.4132224E-2,4.5159694E-2,4.2495992E-2,2.2740914E-2,5.4760594E-2,3.2692965E-2,4.6877705E-2,-1.2630817E-1,-4.028357E-3,4.1846428E-2,5.852843E-2,2.6126314E-2,-1.05998635E-1,1.4683866E-3,2.2446608E-2,-1.2576348E-1,5.3700294E-2,-1.4741011E-2],"categories":[],"categories_nodes":[],"categories_segments":[],"categories_sizes":[],"default_left":[0,0,0,0,0,0,0,0,0,0,0,0,0,0,0,0,0,0,0,0,0,0,0,0,0,0,0,0,0,0,0,0,0,0,0,0,0,0,0,0,0,0,0,0,0,0,0,0,0,0,0,0,0,0,0,0,0,0,0,0,0],"id":26,"left_children":[1,3,5,7,9,11,13,15,17,19,21,23,25,27,29,31,33,35,37,39,41,43,45,47,49,51,53,55,57,59,-1,-1,-1,-1,-1,-1,-1,-1,-1,-1,-1,-1,-1,-1,-1,-1,-1,-1,-1,-1,-1,-1,-1,-1,-1,-1,-1,-1,-1,-1,-1],"loss_changes":[2.172974E3,2.2035571E3,9.8252686E1,1.880298E3,7.2949585E1,9.673425E1,5.1107567E1,1.7637205E3,2.3169263E2,6.671594E1,7.41994E1,1.012854E1,5.5680786E1,6.9649445E1,2.500293E1,4.8455957E2,1.5772308E2,1.7090576E1,8.851466E1,1.5241333E1,4.4274426E1,5.935446E1,6.251808E0,2.4797363E0,2.5169922E1,4.0971558E1,5.85347E0,5.2499264E1,3.568671E1,1.1717087E1,0E0,0E0,0E0,0E0,0E0,0E0,0E0,0E0,0E0,0E0,0E0,0E0,0E0,0E0,0E0,0E0,0E0,0E0,0E0,0E0,0E0,0E0,0E0,0E0,0E0,0E0,0E0,0E0,0E0,0E0,0E0],"parents":[2147483647,0,0,1,1,2,2,3,3,4,4,5,5,6,6,7,7,8,8,9,9,10,10,11,11,12,12,13,13,14,14,15,15,16,16,17,17,18,18,19,19,20,20,21,21,22,22,23,23,24,24,25,25,26,26,27,27,28,28,29,29],"right_children":[2,4,6,8,10,12,14,16,18,20,22,24,26,28,30,32,34,36,38,40,42,44,46,48,50,52,54,56,58,60,-1,-1,-1,-1,-1,-1,-1,-1,-1,-1,-1,-1,-1,-1,-1,-1,-1,-1,-1,-1,-1,-1,-1,-1,-1,-1,-1,-1,-1,-1,-1],"split_conditions":[5.1E0,3.4E0,1E0,1E0,1E0,1E0,1.17E1,1.1E1,2.26E1,5.63E1,7.0710677E-1,5E-1,1.04E1,-7.0710677E-1,2E0,1E0,1E0,1E0,4.35E1,5E-1,1E0,6.1E0,9.659258E-1,1.88E1,6.56E1,6.1E0,1E0,7.818315E-1,3.35E1,5E1,-1.0733739E-1,-3.2009047E-2,1.5292684E-2,4.019585E-2,-9.986191E-3,5.1641703E-2,2.5757313E-2,2.2361794E-2,-1.783984E-2,4.7782343E-2,3.8151868E-2,-2.2757191E-2,4.8005816E-2,-3.4132224E-2,4.5159694E-2,4.2495992E-2,2.2740914E-2,5.4760594E-2,3.2692965E-2,4.6877705E-2,-1.2630817E-1,-4.028357E-3,4.1846428E-2,5.852843E-2,2.6126314E-2,-1.05998635E-1,1.4683866E-3,2.2446608E-2,-1.2576348E-1,5.3700294E-2,-1.4741011E-2],"split_indices":[29,28,20,13,20,21,28,30,27,28,4,4,30,4,20,23,20,20,27,4,13,27,4,27,29,28,7,8,31,28,0,0,0,0,0,0,0,0,0,0,0,0,0,0,0,0,0,0,0,0,0,0,0,0,0,0,0,0,0,0,0],"split_type":[0,0,0,0,0,0,0,0,0,0,0,0,0,0,0,0,0,0,0,0,0,0,0,0,0,0,0,0,0,0,0,0,0,0,0,0,0,0,0,0,0,0,0,0,0,0,0,0,0,0,0,0,0,0,0,0,0,0,0,0,0],"sum_hessian":[1.8011334E4,1.5328142E4,2.6831926E3,1.3066362E4,2.26178E3,2.1523645E3,5.308282E2,1.1334903E4,1.7314585E3,1.9513727E3,3.104073E2,1.8094078E3,3.4295654E2,3.88896E2,1.4193219E2,1.0057161E4,1.2777426E3,9.7448456E2,7.5697394E2,1.8552666E3,9.610606E1,1.2286647E2,1.8754082E2,1.0652089E3,7.44199E2,2.3996419E2,1.02992355E2,4.535132E1,3.4354468E2,1.4028622E2,1.6459687E0,9.483533E3,5.736278E2,1.0954869E3,1.8225572E2,9.0257874E2,7.190584E1,5.785212E2,1.7845274E2,1.1728259E3,6.824407E2,6.3466362E1,3.2639698E1,9.220596E1,3.066051E1,1.2160175E2,6.5939064E1,1.0470607E3,1.8148245E1,7.430229E2,1.1760978E0,1.7337689E2,6.65873E1,8.339644E1,1.9595917E1,1.8874903E1,2.6476414E1,3.4041425E2,3.1304314E0,1.3412973E2,6.1564913E0],"tree_param":{"num_deleted":"0","num_feature":"34","num_nodes":"61","size_leaf_vector":"1"}},{"base_weights":[-1.3904703E-2,2.4192195E-1,-5.918359E-1,1.2511253E-1,7.812485E-1,-6.934518E-1,7.6489365E-1,-1.1287957E-2,7.298695E-1,8.3843684E-1,5.2022994E-1,-7.959392E-1,7.7159005E-1,-2.2172779E-2,7.876924E-1,-2.2645137E-1,3.711445E-1,7.5715053E-1,3.9200923E-1,8.65283E-1,2.9409906E-1,5.582318E-1,-1.0737176E-1,-8.8857025E-1,6.402278E-1,8.6285865E-1,-1.284157E-1,6.1439216E-1,-1.1702313E-1,7.985305E-1,1.2139358E-1,-2.0073283E-2,3.3696692E-2,3.0573351E-2,-5.9152137E-2,3.7991934E-2,-7.32614E-2,2.3538686E-2,-1.24635495E-1,4.236139E-2,5.7196975E-2,2.1167811E-2,-1.5484853E-1,8.682582E-3,3.649668E-2,-4.7639932E-2,2.1654882E-2,3.8556438E-2,-4.8360523E-2,4.7775265E-2,2.304034E-2,-8.992639E-2,2.4133543E-2,1.0110683E-2,4.8801553E-2,4.0394966E-2,1.0257674E-2,-7.270454E-2,4.9586795E-2],"categories":[],"categories_nodes":[],"categories_segments":[],"categories_sizes":[],"default_left":[0,0,0,0,0,0,0,0,0,0,0,0,0,0,0,0,0,0,0,0,0,0,0,0,0,0,0,0,0,0,0,0,0,0,0,0,0,0,0,0,0,0,0,0,0,0,0,0,0,0,0,0,0,0,0,0,0,0,0],"id":27,"left_children":[1,3,5,7,9,11,13,15,17,19,21,23,25,27,29,31,33,35,37,39,41,43,-1,45,47,49,51,53,-1,55,57,-1,-1,-1,-1,-1,-1,-1,-1,-1,-1,-1,-1,-1,-1,-1,-1,-1,-1,-1,-1,-1,-1,-1,-1,-1,-1,-1,-1],"loss_changes":[2.595169E3,7.6640015E2,7.4304346E2,8.250725E2,3.1893799E1,7.5301196E2,6.7599945E0,6.717247E2,1.6669922E1,2.5683838E1,4.092624E1,6.2368506E2,2.7064667E1,1.848355E1,2.5403137E0,8.234877E2,1.0985365E3,1.12821045E1,3.2893517E1,7.538574E0,3.8541924E1,2.5439377E1,0E0,3.7396655E2,6.0584175E1,1.066185E1,3.2590508E1,1.2715063E0,0E0,1.8309937E0,1.1074252E1,0E0,0E0,0E0,0E0,0E0,0E0,0E0,0E0,0E0,0E0,0E0,0E0,0E0,0E0,0E0,0E0,0E0,0E0,0E0,0E0,0E0,0E0,0E0,0E0,0E0,0E0,0E0,0E0],"parents":[2147483647,0,0,1,1,2,2,3,3,4,4,5,5,6,6,7,7,8,8,9,9,10,10,11,11,12,12,13,13,14,14,15,15,16,16,17,17,18,18,19,19,20,20,21,21,23,23,24,24,25,25,26,26,27,27,29,29,30,30],"right_children":[2,4,6,8,10,12,14,16,18,20,22,24,26,28,30,32,34,36,38,40,42,44,-1,46,48,50,52,54,-1,56,58,-1,-1,-1,-1,-1,-1,-1,-1,-1,-1,-1,-1,-1,-1,-1,-1,-1,-1,-1,-1,-1,-1,-1,-1,-1,-1,-1,-1],"split_conditions":[-1.8369701E-16,5.1E0,1E0,1E0,1E0,3.4E0,2E0,7.0710677E-1,1E0,1.88E1,6E0,3.4E0,1E0,-2.2252093E-1,1E0,3.4E0,5E0,6.39E1,5E0,6.6E0,3.4E0,7.0710677E-1,-1.0737176E-1,1.1E1,4.98E1,-7.0710677E-1,5.6655387E-16,4.5E1,-1.1702313E-1,1E0,-7.0710677E-1,-2.0073283E-2,3.3696692E-2,3.0573351E-2,-5.9152137E-2,3.7991934E-2,-7.32614E-2,2.3538686E-2,-1.24635495E-1,4.236139E-2,5.7196975E-2,2.1167811E-2,-1.5484853E-1,8.682582E-3,3.649668E-2,-4.7639932E-2,2.1654882E-2,3.8556438E-2,-4.8360523E-2,4.7775265E-2,